[
  { "nodeid": 0, "depth": 0, "split": "CoastLake", "split_condition": 0.0789500028, "yes": 1, "no": 2, "missing": 1, "gain": 9.46275902, "cover": 28.1454544, "children": [
    { "nodeid": 1, "depth": 1, "split": "Desert", "split_condition": 0.0263, "yes": 3, "no": 4, "missing": 3, "gain": 12.438055, "cover": 19.704546, "children": [
      { "nodeid": 3, "leaf": 0.0562463626, "cover": 17.454546 },
      { "nodeid": 4, "leaf": -0.103330426, "cover": 2.25 }
    ]},
    { "nodeid": 2, "depth": 1, "split": "OtherBonus", "split_condition": 0.131600007, "yes": 5, "no": 6, "missing": 5, "gain": 12.4346333, "cover": 8.44090939, "children": [
      { "nodeid": 5, "leaf": -0.0990692303, "cover": 6.8136363 },
      { "nodeid": 6, "leaf": 0.0924451649, "cover": 1.62727273 }
    ]}
  ]},
  { "nodeid": 0, "depth": 0, "split": "GrasslandHills", "split_condition": 0.0263, "yes": 1, "no": 2, "missing": 1, "gain": 8.57765007, "cover": 35.7206345, "children": [
    { "nodeid": 1, "depth": 1, "split": "Plains", "split_condition": 0.0789500028, "yes": 3, "no": 4, "missing": 3, "gain": 2.92010474, "cover": 13.1061325, "children": [
      { "nodeid": 3, "leaf": 0.0148661146, "cover": 4.43244982 },
      { "nodeid": 4, "leaf": -0.0555315241, "cover": 8.67368317 }
    ]},
    { "nodeid": 2, "depth": 1, "split": "Ocean", "split_condition": 0.0263, "yes": 5, "no": 6, "missing": 5, "gain": 4.12017298, "cover": 22.6145039, "children": [
      { "nodeid": 5, "leaf": 0.0526533499, "cover": 20.0568905 },
      { "nodeid": 6, "leaf": -0.0372268036, "cover": 2.55761337 }
    ]}
  ]},
  { "nodeid": 0, "depth": 0, "split": "Stone", "split_condition": 0.131600007, "yes": 1, "no": 2, "missing": 1, "gain": 8.65613747, "cover": 30.2559414, "children": [
    { "nodeid": 1, "depth": 1, "split": "Lux", "split_condition": 0.0789500028, "yes": 3, "no": 4, "missing": 3, "gain": 7.25388288, "cover": 26.5119267, "children": [
      { "nodeid": 3, "leaf": -0.0574203618, "cover": 16.5877094 },
      { "nodeid": 4, "leaf": 0.0207533333, "cover": 9.92421532 }
    ]},
    { "nodeid": 2, "leaf": 0.0808644146, "cover": 3.74401522 }
  ]},
  { "nodeid": 0, "depth": 0, "split": "Plains", "split_condition": 0.0263, "yes": 1, "no": 2, "missing": 1, "gain": 15.8485708, "cover": 31.1713715, "children": [
    { "nodeid": 1, "depth": 1, "split": "Grassland", "split_condition": 0.289499998, "yes": 3, "no": 4, "missing": 3, "gain": 7.0584321, "cover": 14.4099092, "children": [
      { "nodeid": 3, "leaf": 0.0661802888, "cover": 9.79309559 },
      { "nodeid": 4, "leaf": -0.0382601768, "cover": 4.61681366 }
    ]},
    { "nodeid": 2, "depth": 1, "split": "Plains", "split_condition": 0.131600007, "yes": 5, "no": 6, "missing": 5, "gain": 3.1315918, "cover": 16.7614632, "children": [
      { "nodeid": 5, "leaf": -0.121088967, "cover": 4.49093866 },
      { "nodeid": 6, "leaf": -0.0453844629, "cover": 12.270524 }
    ]}
  ]},
  { "nodeid": 0, "depth": 0, "split": "CoastLake", "split_condition": 0.0789500028, "yes": 1, "no": 2, "missing": 1, "gain": 8.00853634, "cover": 28.8457966, "children": [
    { "nodeid": 1, "depth": 1, "split": "PlainsMountain", "split_condition": 0.0789500028, "yes": 3, "no": 4, "missing": 3, "gain": 4.6583271, "cover": 20.8129101, "children": [
      { "nodeid": 3, "leaf": 0.0248844456, "cover": 19.3245926 },
      { "nodeid": 4, "leaf": -0.0836643353, "cover": 1.48831773 }
    ]},
    { "nodeid": 2, "depth": 1, "split": "PlainsHillsWoods", "split_condition": 0.0789500028, "yes": 5, "no": 6, "missing": 5, "gain": 5.29973364, "cover": 8.03288651, "children": [
      { "nodeid": 5, "leaf": -0.092458874, "cover": 6.98993778 },
      { "nodeid": 6, "leaf": 0.0519563891, "cover": 1.0429486 }
    ]}
  ]},
  { "nodeid": 0, "depth": 0, "split": "PlainsMountain", "split_condition": 0.0263, "yes": 1, "no": 2, "missing": 1, "gain": 9.32156372, "cover": 26.5664005, "children": [
    { "nodeid": 1, "depth": 1, "split": "OtherBonus", "split_condition": 0.0263, "yes": 3, "no": 4, "missing": 3, "gain": 4.04969311, "cover": 18.7861462, "children": [
      { "nodeid": 3, "leaf": -0.0848644599, "cover": 9.3008709 },
      { "nodeid": 4, "leaf": -0.0152854538, "cover": 9.48527431 }
    ]},
    { "nodeid": 2, "depth": 1, "split": "PlainsMountain", "split_condition": 0.131600007, "yes": 5, "no": 6, "missing": 5, "gain": 5.87770176, "cover": 7.78025579, "children": [
      { "nodeid": 5, "leaf": 0.0685735121, "cover": 6.55517864 },
      { "nodeid": 6, "leaf": -0.0725168511, "cover": 1.22507727 }
    ]}
  ]},
  { "nodeid": 0, "depth": 0, "split": "GrasslandHillsWoods", "split_condition": 0.0263, "yes": 1, "no": 2, "missing": 1, "gain": 9.22080994, "cover": 30.7948723, "children": [
    { "nodeid": 1, "depth": 1, "split": "OtherBonus", "split_condition": 0.0263, "yes": 3, "no": 4, "missing": 3, "gain": 8.90509605, "cover": 18.9420624, "children": [
      { "nodeid": 3, "leaf": 0.031000562, "cover": 11.1504574 },
      { "nodeid": 4, "leaf": -0.0677179173, "cover": 7.79160452 }
    ]},
    { "nodeid": 2, "depth": 1, "split": "PlainsMountain", "split_condition": 0.0263, "yes": 5, "no": 6, "missing": 5, "gain": 1.94481564, "cover": 11.8528099, "children": [
      { "nodeid": 5, "leaf": 0.0433184318, "cover": 8.64569187 },
      { "nodeid": 6, "leaf": 0.115908735, "cover": 3.20711708 }
    ]}
  ]},
  { "nodeid": 0, "depth": 0, "split": "Desert", "split_condition": 0.0263, "yes": 1, "no": 2, "missing": 1, "gain": 11.323657, "cover": 33.2635002, "children": [
    { "nodeid": 1, "depth": 1, "split": "TundraWoods", "split_condition": 0.0263, "yes": 3, "no": 4, "missing": 3, "gain": 4.83709812, "cover": 27.5345154, "children": [
      { "nodeid": 3, "leaf": 0.036520429, "cover": 26.290863 },
      { "nodeid": 4, "leaf": -0.0791425258, "cover": 1.24365234 }
    ]},
    { "nodeid": 2, "depth": 1, "split": "DesertHills", "split_condition": 0.131600007, "yes": 5, "no": 6, "missing": 5, "gain": 3.78755045, "cover": 5.72898626, "children": [
      { "nodeid": 5, "leaf": -0.109719537, "cover": 4.1907711 },
      { "nodeid": 6, "leaf": 0.0150183225, "cover": 1.53821468 }
    ]}
  ]},
  { "nodeid": 0, "depth": 0, "split": "Rice", "split_condition": 0.0263, "yes": 1, "no": 2, "missing": 1, "gain": 21.2985859, "cover": 30.1291409, "children": [
    { "nodeid": 1, "depth": 1, "split": "OtherBonus", "split_condition": 0.131600007, "yes": 3, "no": 4, "missing": 3, "gain": 13.6335697, "cover": 21.0956135, "children": [
      { "nodeid": 3, "leaf": -0.0714519694, "cover": 18.4526215 },
      { "nodeid": 4, "leaf": 0.0881577581, "cover": 2.64299154 }
    ]},
    { "nodeid": 2, "depth": 1, "split": "GrasslandMountain", "split_condition": 0.0263, "yes": 5, "no": 6, "missing": 5, "gain": 2.0521946, "cover": 9.03352737, "children": [
      { "nodeid": 5, "leaf": 0.0972371921, "cover": 7.47787237 },
      { "nodeid": 6, "leaf": 0.00240524998, "cover": 1.55565441 }
    ]}
  ]},
  { "nodeid": 0, "depth": 0, "split": "GrasslandHills", "split_condition": 0.0263, "yes": 1, "no": 2, "missing": 1, "gain": 8.49668026, "cover": 28.278614, "children": [
    { "nodeid": 1, "depth": 1, "split": "GrasslandHillsWoods", "split_condition": 0.0789500028, "yes": 3, "no": 4, "missing": 3, "gain": 3.98154163, "cover": 9.6591692, "children": [
      { "nodeid": 3, "leaf": -0.0665917695, "cover": 8.62594891 },
      { "nodeid": 4, "leaf": 0.0540789738, "cover": 1.0332197 }
    ]},
    { "nodeid": 2, "depth": 1, "split": "OtherBonus", "split_condition": 0.0789500028, "yes": 5, "no": 6, "missing": 5, "gain": 6.36368847, "cover": 18.6194439, "children": [
      { "nodeid": 5, "leaf": 0.00613163924, "cover": 14.1617813 },
      { "nodeid": 6, "leaf": 0.101467848, "cover": 4.45766306 }
    ]}
  ]},
  { "nodeid": 0, "depth": 0, "split": "DesertFloodplains", "split_condition": 0.0789500028, "yes": 1, "no": 2, "missing": 1, "gain": 3.38449097, "cover": 26.7365189, "children": [
    { "nodeid": 1, "depth": 1, "split": "GrasslandHills", "split_condition": 0.184200004, "yes": 3, "no": 4, "missing": 3, "gain": 2.35706258, "cover": 24.5965862, "children": [
      { "nodeid": 3, "leaf": 0.00624590553, "cover": 21.5836773 },
      { "nodeid": 4, "leaf": -0.055846449, "cover": 3.01290894 }
    ]},
    { "nodeid": 2, "leaf": -0.0856766179, "cover": 2.13993311 }
  ]},
  { "nodeid": 0, "depth": 0, "split": "GrasslandHills", "split_condition": 0.0789500028, "yes": 1, "no": 2, "missing": 1, "gain": 6.16567087, "cover": 24.0161953, "children": [
    { "nodeid": 1, "depth": 1, "split": "Desert", "split_condition": 0.0263, "yes": 3, "no": 4, "missing": 3, "gain": 3.49052262, "cover": 14.6402807, "children": [
      { "nodeid": 3, "leaf": -0.0553870536, "cover": 9.51228333 },
      { "nodeid": 4, "leaf": 0.0170561355, "cover": 5.12799692 }
    ]},
    { "nodeid": 2, "depth": 1, "split": "GrasslandHillsWoods", "split_condition": 0.0263, "yes": 5, "no": 6, "missing": 5, "gain": 6.76450205, "cover": 9.37591457, "children": [
      { "nodeid": 5, "leaf": -0.0435910448, "cover": 2.78193426 },
      { "nodeid": 6, "leaf": 0.0813519135, "cover": 6.59397984 }
    ]}
  ]},
  { "nodeid": 0, "depth": 0, "split": "CoastLake", "split_condition": 0.0263, "yes": 1, "no": 2, "missing": 1, "gain": 13.4273472, "cover": 28.7605896, "children": [
    { "nodeid": 1, "depth": 1, "split": "Lux", "split_condition": 0.0263, "yes": 3, "no": 4, "missing": 3, "gain": 5.47615862, "cover": 17.1268044, "children": [
      { "nodeid": 3, "leaf": -0.0328106806, "cover": 4.3176403 },
      { "nodeid": 4, "leaf": 0.0579530485, "cover": 12.809165 }
    ]},
    { "nodeid": 2, "depth": 1, "split": "Lux", "split_condition": 0.0789500028, "yes": 5, "no": 6, "missing": 5, "gain": 3.94880295, "cover": 11.6337852, "children": [
      { "nodeid": 5, "leaf": -0.106837198, "cover": 5.47265291 },
      { "nodeid": 6, "leaf": -0.0193943866, "cover": 6.16113234 }
    ]}
  ]},
  { "nodeid": 0, "depth": 0, "split": "GrasslandHillsWoods", "split_condition": 0.0263, "yes": 1, "no": 2, "missing": 1, "gain": 4.59022141, "cover": 33.7401199, "children": [
    { "nodeid": 1, "depth": 1, "split": "Grassland", "split_condition": 0.131600007, "yes": 3, "no": 4, "missing": 3, "gain": 10.0624762, "cover": 19.6561699, "children": [
      { "nodeid": 3, "leaf": 0.0372021087, "cover": 14.4820814 },
      { "nodeid": 4, "leaf": -0.0755035207, "cover": 5.17408895 }
    ]},
    { "nodeid": 2, "depth": 1, "split": "GrasslandHills", "split_condition": 0.0789500028, "yes": 5, "no": 6, "missing": 5, "gain": 3.78831196, "cover": 14.083951, "children": [
      { "nodeid": 5, "leaf": 0.00519141462, "cover": 4.88348961 },
      { "nodeid": 6, "leaf": 0.0862449557, "cover": 9.20046139 }
    ]}
  ]},
  { "nodeid": 0, "depth": 0, "split": "OtherBonus", "split_condition": 0.0789500028, "yes": 1, "no": 2, "missing": 1, "gain": 6.39944935, "cover": 30.3512974, "children": [
    { "nodeid": 1, "depth": 1, "split": "Grassland", "split_condition": 0.578950047, "yes": 3, "no": 4, "missing": 3, "gain": 3.53581572, "cover": 23.6907196, "children": [
      { "nodeid": 3, "leaf": -0.0299393982, "cover": 20.3093777 },
      { "nodeid": 4, "leaf": 0.0442505479, "cover": 3.38134193 }
    ]},
    { "nodeid": 2, "depth": 1, "split": "GrasslandMountain", "split_condition": 0.0263, "yes": 5, "no": 6, "missing": 5, "gain": 8.94843483, "cover": 6.6605773, "children": [
      { "nodeid": 5, "leaf": 0.0991559923, "cover": 5.43599844 },
      { "nodeid": 6, "leaf": -0.0799468905, "cover": 1.22457862 }
    ]}
  ]},
  { "nodeid": 0, "depth": 0, "split": "PlainsWoods", "split_condition": 0.0789500028, "yes": 1, "no": 2, "missing": 1, "gain": 7.18182611, "cover": 32.3681221, "children": [
    { "nodeid": 1, "depth": 1, "split": "OtherBonus", "split_condition": 0.0263, "yes": 3, "no": 4, "missing": 3, "gain": 5.41605949, "cover": 24.123909, "children": [
      { "nodeid": 3, "leaf": -0.0558228567, "cover": 9.07355976 },
      { "nodeid": 4, "leaf": 0.0141856838, "cover": 15.0503492 }
    ]},
    { "nodeid": 2, "depth": 1, "split": "Desert", "split_condition": 0.0263, "yes": 5, "no": 6, "missing": 5, "gain": 2.44571638, "cover": 8.2442131, "children": [
      { "nodeid": 5, "leaf": 0.0197657794, "cover": 4.56125736 },
      { "nodeid": 6, "leaf": 0.102207795, "cover": 3.68295574 }
    ]}
  ]},
  { "nodeid": 0, "depth": 0, "split": "CoastLake", "split_condition": 0.131600007, "yes": 1, "no": 2, "missing": 1, "gain": 5.40709829, "cover": 26.2823792, "children": [
    { "nodeid": 1, "depth": 1, "split": "DesertFloodplains", "split_condition": 0.0263, "yes": 3, "no": 4, "missing": 3, "gain": 2.88528037, "cover": 16.8548622, "children": [
      { "nodeid": 3, "leaf": -0.0400480703, "cover": 14.6211023 },
      { "nodeid": 4, "leaf": 0.039159283, "cover": 2.23376083 }
    ]},
    { "nodeid": 2, "depth": 1, "split": "CoastLake", "split_condition": 0.289499998, "yes": 5, "no": 6, "missing": 5, "gain": 5.78849792, "cover": 9.42751598, "children": [
      { "nodeid": 5, "leaf": 0.0755983964, "cover": 6.48832846 },
      { "nodeid": 6, "leaf": -0.0386208855, "cover": 2.93918753 }
    ]}
  ]},
  { "nodeid": 0, "depth": 0, "split": "Rice", "split_condition": 0.0263, "yes": 1, "no": 2, "missing": 1, "gain": 6.21800232, "cover": 34.8333626, "children": [
    { "nodeid": 1, "depth": 1, "split": "PlainsRainforest", "split_condition": 0.342100024, "yes": 3, "no": 4, "missing": 3, "gain": 6.70612526, "cover": 25.4733276, "children": [
      { "nodeid": 3, "leaf": -0.0313417725, "cover": 23.8576927 },
      { "nodeid": 4, "leaf": 0.0949316695, "cover": 1.61563504 }
    ]},
    { "nodeid": 2, "depth": 1, "split": "PlainsRainforest", "split_condition": 0.0263, "yes": 5, "no": 6, "missing": 5, "gain": 2.35879612, "cover": 9.36003685, "children": [
      { "nodeid": 5, "leaf": 0.0146146854, "cover": 5.9301157 },
      { "nodeid": 6, "leaf": 0.0897370204, "cover": 3.42992115 }
    ]}
  ]},
  { "nodeid": 0, "depth": 0, "split": "GrasslandHills", "split_condition": 0.0263, "yes": 1, "no": 2, "missing": 1, "gain": 7.60919666, "cover": 32.5186424, "children": [
    { "nodeid": 1, "depth": 1, "split": "Desert", "split_condition": 0.131600007, "yes": 3, "no": 4, "missing": 3, "gain": 6.2535243, "cover": 10.2758694, "children": [
      { "nodeid": 3, "leaf": -0.0793058202, "cover": 7.73752308 },
      { "nodeid": 4, "leaf": 0.0418567583, "cover": 2.53834605 }
    ]},
    { "nodeid": 2, "depth": 1, "split": "Desert", "split_condition": 0.0789500028, "yes": 5, "no": 6, "missing": 5, "gain": 5.7154665, "cover": 22.242775, "children": [
      { "nodeid": 5, "leaf": 0.038174767, "cover": 20.5772247 },
      { "nodeid": 6, "leaf": -0.0788652301, "cover": 1.66555035 }
    ]}
  ]},
  { "nodeid": 0, "depth": 0, "split": "Horses", "split_condition": 0.0263, "yes": 1, "no": 2, "missing": 1, "gain": 11.5838528, "cover": 29.8549137, "children": [
    { "nodeid": 1, "depth": 1, "split": "TundraHills", "split_condition": 0.0263, "yes": 3, "no": 4, "missing": 3, "gain": 4.22295856, "cover": 26.9815388, "children": [
      { "nodeid": 3, "leaf": 0.0495753214, "cover": 25.8386421 },
      { "nodeid": 4, "leaf": -0.0632908568, "cover": 1.14289558 }
    ]},
    { "nodeid": 2, "leaf": -0.0957317576, "cover": 2.87337518 }
  ]},
  { "nodeid": 0, "depth": 0, "split": "GrasslandHills", "split_condition": 0.184200004, "yes": 1, "no": 2, "missing": 1, "gain": 8.73523331, "cover": 32.3253098, "children": [
    { "nodeid": 1, "depth": 1, "split": "Lux", "split_condition": 0.0263, "yes": 3, "no": 4, "missing": 3, "gain": 5.55086184, "cover": 28.2225933, "children": [
      { "nodeid": 3, "leaf": -0.0266449079, "cover": 7.13988113 },
      { "nodeid": 4, "leaf": 0.0463027135, "cover": 21.0827122 }
    ]},
    { "nodeid": 2, "depth": 1, "split": "Lux", "split_condition": 0.0789500028, "yes": 5, "no": 6, "missing": 5, "gain": 1.79302931, "cover": 4.10271788, "children": [
      { "nodeid": 5, "leaf": -0.106109798, "cover": 2.6691494 },
      { "nodeid": 6, "leaf": -0.0044308058, "cover": 1.43356848 }
    ]}
  ]},
  { "nodeid": 0, "depth": 0, "split": "GrasslandHillsWoods", "split_condition": 0.0263, "yes": 1, "no": 2, "missing": 1, "gain": 9.87379742, "cover": 29.3501625, "children": [
    { "nodeid": 1, "depth": 1, "split": "PlainsWoods", "split_condition": 0.184200004, "yes": 3, "no": 4, "missing": 3, "gain": 5.93779135, "cover": 17.4477615, "children": [
      { "nodeid": 3, "leaf": -0.0609090924, "cover": 15.3668747 },
      { "nodeid": 4, "leaf": 0.0552325957, "cover": 2.08088589 }
    ]},
    { "nodeid": 2, "depth": 1, "split": "CoastLake", "split_condition": 0.236850008, "yes": 5, "no": 6, "missing": 5, "gain": 6.29022694, "cover": 11.902401, "children": [
      { "nodeid": 5, "leaf": 0.0610073991, "cover": 10.4811602 },
      { "nodeid": 6, "leaf": -0.0741818696, "cover": 1.42124116 }
    ]}
  ]},
  { "nodeid": 0, "depth": 0, "split": "PlainsMountain", "split_condition": 0.0263, "yes": 1, "no": 2, "missing": 1, "gain": 8.9815197, "cover": 24.338295, "children": [
    { "nodeid": 1, "depth": 1, "split": "DesertHills", "split_condition": 0.0789500028, "yes": 3, "no": 4, "missing": 3, "gain": 7.61706257, "cover": 16.6490593, "children": [
      { "nodeid": 3, "leaf": -0.0544160269, "cover": 12.5514565 },
      { "nodeid": 4, "leaf": 0.0534248501, "cover": 4.09760284 }
    ]},
    { "nodeid": 2, "depth": 1, "split": "GrasslandMountain", "split_condition": 0.0263, "yes": 5, "no": 6, "missing": 5, "gain": 0.702915668, "cover": 7.68923712, "children": [
      { "nodeid": 5, "leaf": 0.0764209926, "cover": 6.16317892 },
      { "nodeid": 6, "leaf": 0.0115331318, "cover": 1.5260582 }
    ]}
  ]},
  { "nodeid": 0, "depth": 0, "split": "CoastLake", "split_condition": 0.236850008, "yes": 1, "no": 2, "missing": 1, "gain": 9.25498295, "cover": 23.2164822, "children": [
    { "nodeid": 1, "depth": 1, "split": "GrasslandHills", "split_condition": 0.131600007, "yes": 3, "no": 4, "missing": 3, "gain": 6.0602293, "cover": 18.9542274, "children": [
      { "nodeid": 3, "leaf": 0.0319967531, "cover": 17.2641201 },
      { "nodeid": 4, "leaf": -0.0884883255, "cover": 1.69010699 }
    ]},
    { "nodeid": 2, "leaf": -0.0939380825, "cover": 4.26225424 }
  ]},
  { "nodeid": 0, "depth": 0, "split": "Wheat", "split_condition": 0.0789500028, "yes": 1, "no": 2, "missing": 1, "gain": 8.87807369, "cover": 30.5284252, "children": [
    { "nodeid": 1, "depth": 1, "split": "GrasslandHillsWoods", "split_condition": 0.0263, "yes": 3, "no": 4, "missing": 3, "gain": 6.69045258, "cover": 25.2941685, "children": [
      { "nodeid": 3, "leaf": -0.0417727828, "cover": 15.6074553 },
      { "nodeid": 4, "leaf": 0.0340794139, "cover": 9.68671417 }
    ]},
    { "nodeid": 2, "depth": 1, "split": "PlainsMountain", "split_condition": 0.0263, "yes": 5, "no": 6, "missing": 5, "gain": 2.59603596, "cover": 5.23425579, "children": [
      { "nodeid": 5, "leaf": 0.0251252539, "cover": 2.91772246 },
      { "nodeid": 6, "leaf": 0.133037612, "cover": 2.31653333 }
    ]}
  ]},
  { "nodeid": 0, "depth": 0, "split": "PlainsHillsRainforest", "split_condition": 0.0263, "yes": 1, "no": 2, "missing": 1, "gain": 11.9506226, "cover": 31.3591022, "children": [
    { "nodeid": 1, "depth": 1, "split": "Stone", "split_condition": 0.0263, "yes": 3, "no": 4, "missing": 3, "gain": 14.6058655, "cover": 21.7027378, "children": [
      { "nodeid": 3, "leaf": -0.0772634968, "cover": 10.5372725 },
      { "nodeid": 4, "leaf": 0.0401585475, "cover": 11.1654654 }
    ]},
    { "nodeid": 2, "depth": 1, "split": "Stone", "split_condition": 0.0263, "yes": 5, "no": 6, "missing": 5, "gain": 5.18380165, "cover": 9.65636444, "children": [
      { "nodeid": 5, "leaf": 0.105075382, "cover": 7.4341836 },
      { "nodeid": 6, "leaf": -0.0164942984, "cover": 2.22218156 }
    ]}
  ]},
  { "nodeid": 0, "depth": 0, "split": "TundraHills", "split_condition": 0.0789500028, "yes": 1, "no": 2, "missing": 1, "gain": 1.25036907, "cover": 28.7107582, "children": [
    { "nodeid": 1, "depth": 1, "split": "Stone", "split_condition": 0.0789500028, "yes": 3, "no": 4, "missing": 3, "gain": 1.59787035, "cover": 27.1827869, "children": [
      { "nodeid": 3, "leaf": 0.0157176331, "cover": 22.0738506 },
      { "nodeid": 4, "leaf": 0.0601770096, "cover": 5.10893679 }
    ]},
    { "nodeid": 2, "leaf": 0.0844139606, "cover": 1.52797186 }
  ]},
  { "nodeid": 0, "depth": 0, "split": "PlainsRainforest", "split_condition": 0.0789500028, "yes": 1, "no": 2, "missing": 1, "gain": 7.28699541, "cover": 28.5223904, "children": [
    { "nodeid": 1, "depth": 1, "split": "Horses", "split_condition": 0.0263, "yes": 3, "no": 4, "missing": 3, "gain": 3.18170881, "cover": 16.4670124, "children": [
      { "nodeid": 3, "leaf": -0.00656829774, "cover": 14.1579056 },
      { "nodeid": 4, "leaf": -0.0884180889, "cover": 2.30910754 }
    ]},
    { "nodeid": 2, "depth": 1, "split": "PlainsRainforest", "split_condition": 0.342100024, "yes": 5, "no": 6, "missing": 5, "gain": 1.52910137, "cover": 12.055378, "children": [
      { "nodeid": 5, "leaf": 0.0319710262, "cover": 9.67829323 },
      { "nodeid": 6, "leaf": 0.0973394215, "cover": 2.37708521 }
    ]}
  ]},
  { "nodeid": 0, "depth": 0, "split": "GrasslandHills", "split_condition": 0.0263, "yes": 1, "no": 2, "missing": 1, "gain": 6.28360796, "cover": 32.5232048, "children": [
    { "nodeid": 1, "depth": 1, "split": "OtherBonus", "split_condition": 0.0263, "yes": 3, "no": 4, "missing": 3, "gain": 2.66623402, "cover": 12.0201588, "children": [
      { "nodeid": 3, "leaf": -0.00212740642, "cover": 5.96899128 },
      { "nodeid": 4, "leaf": -0.0702717826, "cover": 6.05116749 }
    ]},
    { "nodeid": 2, "depth": 1, "split": "PlainsRainforest", "split_condition": 0.0789500028, "yes": 5, "no": 6, "missing": 5, "gain": 4.97670317, "cover": 20.5030441, "children": [
      { "nodeid": 5, "leaf": 0.000731655688, "cover": 14.2120829 },
      { "nodeid": 6, "leaf": 0.0766239688, "cover": 6.29096127 }
    ]}
  ]},
  { "nodeid": 0, "depth": 0, "split": "Rice", "split_condition": 0.0263, "yes": 1, "no": 2, "missing": 1, "gain": 5.91136169, "cover": 31.5496387, "children": [
    { "nodeid": 1, "depth": 1, "split": "GrasslandMarsh", "split_condition": 0.0789500028, "yes": 3, "no": 4, "missing": 3, "gain": 5.70942974, "cover": 22.4825974, "children": [
      { "nodeid": 3, "leaf": -0.0351571925, "cover": 19.2189045 },
      { "nodeid": 4, "leaf": 0.0604035705, "cover": 3.2636919 }
    ]},
    { "nodeid": 2, "depth": 1, "split": "Lux", "split_condition": 0.0263, "yes": 5, "no": 6, "missing": 5, "gain": 3.18819618, "cover": 9.06704235, "children": [
      { "nodeid": 5, "leaf": -0.00816756766, "cover": 3.3465116 },
      { "nodeid": 6, "leaf": 0.078759715, "cover": 5.72053099 }
    ]}
  ]},
  { "nodeid": 0, "depth": 0, "split": "Ocean", "split_condition": 0.0263, "yes": 1, "no": 2, "missing": 1, "gain": 6.28640652, "cover": 29.6666241, "children": [
    { "nodeid": 1, "depth": 1, "split": "Tundra", "split_condition": 0.0789500028, "yes": 3, "no": 4, "missing": 3, "gain": 5.90902328, "cover": 26.8941383, "children": [
      { "nodeid": 3, "leaf": 0.0306835677, "cover": 24.9113884 },
      { "nodeid": 4, "leaf": -0.0808754638, "cover": 1.98274863 }
    ]},
    { "nodeid": 2, "leaf": -0.0828766748, "cover": 2.77248621 }
  ]},
  { "nodeid": 0, "depth": 0, "split": "Rice", "split_condition": 0.0263, "yes": 1, "no": 2, "missing": 1, "gain": 8.14142418, "cover": 31.3960819, "children": [
    { "nodeid": 1, "depth": 1, "split": "OtherBonus", "split_condition": 0.0789500028, "yes": 3, "no": 4, "missing": 3, "gain": 9.94099808, "cover": 23.9970436, "children": [
      { "nodeid": 3, "leaf": -0.0328977369, "cover": 16.4484997 },
      { "nodeid": 4, "leaf": 0.0653341189, "cover": 7.54854393 }
    ]},
    { "nodeid": 2, "depth": 1, "split": "GrasslandMarsh", "split_condition": 0.0789500028, "yes": 5, "no": 6, "missing": 5, "gain": 2.61326408, "cover": 7.39903784, "children": [
      { "nodeid": 5, "leaf": 0.104452863, "cover": 5.8589406 },
      { "nodeid": 6, "leaf": -0.00190514128, "cover": 1.54009712 }
    ]}
  ]},
  { "nodeid": 0, "depth": 0, "split": "Ocean", "split_condition": 0.0789500028, "yes": 1, "no": 2, "missing": 1, "gain": 3.88556623, "cover": 26.7601242, "children": [
    { "nodeid": 1, "depth": 1, "split": "Cattle", "split_condition": 0.0263, "yes": 3, "no": 4, "missing": 3, "gain": 3.16240311, "cover": 25.4701271, "children": [
      { "nodeid": 3, "leaf": 0.0463780016, "cover": 21.9010277 },
      { "nodeid": 4, "leaf": -0.0239872616, "cover": 3.56909823 }
    ]},
    { "nodeid": 2, "leaf": -0.0671964809, "cover": 1.28999722 }
  ]},
  { "nodeid": 0, "depth": 0, "split": "Wheat", "split_condition": 0.0263, "yes": 1, "no": 2, "missing": 1, "gain": 5.19250679, "cover": 26.0555801, "children": [
    { "nodeid": 1, "depth": 1, "split": "GrasslandHillsWoods", "split_condition": 0.0263, "yes": 3, "no": 4, "missing": 3, "gain": 6.66085339, "cover": 18.0942345, "children": [
      { "nodeid": 3, "leaf": -0.0686808676, "cover": 9.70804596 },
      { "nodeid": 4, "leaf": 0.018391341, "cover": 8.38618946 }
    ]},
    { "nodeid": 2, "depth": 1, "split": "Wheat", "split_condition": 0.0789500028, "yes": 5, "no": 6, "missing": 5, "gain": 0.63441062, "cover": 7.96134472, "children": [
      { "nodeid": 5, "leaf": 0.0166467745, "cover": 4.80144835 },
      { "nodeid": 6, "leaf": 0.0617723726, "cover": 3.15989637 }
    ]}
  ]},
  { "nodeid": 0, "depth": 0, "split": "CoastLake", "split_condition": 0.0263, "yes": 1, "no": 2, "missing": 1, "gain": 6.01979923, "cover": 24.5943546, "children": [
    { "nodeid": 1, "depth": 1, "split": "Plains", "split_condition": 0.0789500028, "yes": 3, "no": 4, "missing": 3, "gain": 6.39702892, "cover": 15.7875872, "children": [
      { "nodeid": 3, "leaf": 0.0671859607, "cover": 9.64706993 },
      { "nodeid": 4, "leaf": -0.0253307987, "cover": 6.14051723 }
    ]},
    { "nodeid": 2, "depth": 1, "split": "PlainsHillsWoods", "split_condition": 0.0263, "yes": 5, "no": 6, "missing": 5, "gain": 4.31052685, "cover": 8.80676842, "children": [
      { "nodeid": 5, "leaf": -0.0700794309, "cover": 6.52081347 },
      { "nodeid": 6, "leaf": 0.0357056297, "cover": 2.28595424 }
    ]}
  ]},
  { "nodeid": 0, "depth": 0, "split": "GrasslandHillsWoods", "split_condition": 0.0789500028, "yes": 1, "no": 2, "missing": 1, "gain": 9.39389992, "cover": 28.7734909, "children": [
    { "nodeid": 1, "depth": 1, "split": "GrasslandWoods", "split_condition": 0.131600007, "yes": 3, "no": 4, "missing": 3, "gain": 3.37225199, "cover": 23.6928349, "children": [
      { "nodeid": 3, "leaf": -0.00568152824, "cover": 22.0014687 },
      { "nodeid": 4, "leaf": -0.094517, "cover": 1.69136655 }
    ]},
    { "nodeid": 2, "depth": 1, "split": "GrasslandWoods", "split_condition": 0.0263, "yes": 5, "no": 6, "missing": 5, "gain": 0.545030594, "cover": 5.08065701, "children": [
      { "nodeid": 5, "leaf": 0.106766641, "cover": 3.13494825 },
      { "nodeid": 6, "leaf": 0.0317417234, "cover": 1.94570851 }
    ]}
  ]},
  { "nodeid": 0, "depth": 0, "split": "Plains", "split_condition": 0.394749999, "yes": 1, "no": 2, "missing": 1, "gain": 4.79985046, "cover": 28.3364487, "children": [
    { "nodeid": 1, "depth": 1, "split": "PlainsHillsWoods", "split_condition": 0.0263, "yes": 3, "no": 4, "missing": 3, "gain": 5.94666338, "cover": 26.7503967, "children": [
      { "nodeid": 3, "leaf": 0.00712170405, "cover": 18.533762 },
      { "nodeid": 4, "leaf": 0.0809155107, "cover": 8.2166338 }
    ]},
    { "nodeid": 2, "leaf": -0.0754724666, "cover": 1.5860523 }
  ]},
  { "nodeid": 0, "depth": 0, "split": "GrasslandMountain", "split_condition": 0.0263, "yes": 1, "no": 2, "missing": 1, "gain": 4.28963566, "cover": 21.4980984, "children": [
    { "nodeid": 1, "depth": 1, "split": "PlainsRainforest", "split_condition": 0.0789500028, "yes": 3, "no": 4, "missing": 3, "gain": 3.25407982, "cover": 16.062109, "children": [
      { "nodeid": 3, "leaf": -0.061665982, "cover": 10.1103106 },
      { "nodeid": 4, "leaf": 0.00581373321, "cover": 5.95179796 }
    ]},
    { "nodeid": 2, "depth": 1, "split": "PlainsHillsRainforest", "split_condition": 0.0263, "yes": 5, "no": 6, "missing": 5, "gain": 1.38897932, "cover": 5.43599081, "children": [
      { "nodeid": 5, "leaf": 0.0558633581, "cover": 3.69035196 },
      { "nodeid": 6, "leaf": -0.0152136628, "cover": 1.74563885 }
    ]}
  ]},
  { "nodeid": 0, "depth": 0, "split": "PlainsRainforest", "split_condition": 0.289499998, "yes": 1, "no": 2, "missing": 1, "gain": 7.92376184, "cover": 30.16782, "children": [
    { "nodeid": 1, "depth": 1, "split": "Wheat", "split_condition": 0.0263, "yes": 3, "no": 4, "missing": 3, "gain": 6.91676474, "cover": 27.2897816, "children": [
      { "nodeid": 3, "leaf": -0.0561628938, "cover": 17.7342377 },
      { "nodeid": 4, "leaf": 0.0202007089, "cover": 9.55554485 }
    ]},
    { "nodeid": 2, "depth": 1, "split": "Plains", "split_condition": 0.105250001, "yes": 5, "no": 6, "missing": 5, "gain": 0.169459343, "cover": 2.8780365, "children": [
      { "nodeid": 5, "leaf": 0.101454042, "cover": 1.6090554 },
      { "nodeid": 6, "leaf": 0.0276464559, "cover": 1.26898122 }
    ]}
  ]},
  { "nodeid": 0, "depth": 0, "split": "Grassland", "split_condition": 0.552600026, "yes": 1, "no": 2, "missing": 1, "gain": 3.81690788, "cover": 33.3330688, "children": [
    { "nodeid": 1, "depth": 1, "split": "Grassland", "split_condition": 0.289499998, "yes": 3, "no": 4, "missing": 3, "gain": 4.91715431, "cover": 29.4161301, "children": [
      { "nodeid": 3, "leaf": 0.0256852023, "cover": 24.4983845 },
      { "nodeid": 4, "leaf": -0.0500093475, "cover": 4.91774559 }
    ]},
    { "nodeid": 2, "depth": 1, "split": "Lux", "split_condition": 0.0789500028, "yes": 5, "no": 6, "missing": 5, "gain": 0.915089607, "cover": 3.91694021, "children": [
      { "nodeid": 5, "leaf": 0.105923042, "cover": 2.42786717 },
      { "nodeid": 6, "leaf": 0.0190312881, "cover": 1.48907304 }
    ]}
  ]},
  { "nodeid": 0, "depth": 0, "split": "TundraHills", "split_condition": 0.0263, "yes": 1, "no": 2, "missing": 1, "gain": 3.76615191, "cover": 30.032732, "children": [
    { "nodeid": 1, "depth": 1, "split": "GrasslandMountain", "split_condition": 0.0789500028, "yes": 3, "no": 4, "missing": 3, "gain": 2.44013023, "cover": 28.6754303, "children": [
      { "nodeid": 3, "leaf": 0.0324879289, "cover": 26.0620556 },
      { "nodeid": 4, "leaf": -0.034293104, "cover": 2.61337399 }
    ]},
    { "nodeid": 2, "leaf": -0.0733455271, "cover": 1.35730183 }
  ]},
  { "nodeid": 0, "depth": 0, "split": "cityHasRiver", "split_condition": 1, "yes": 1, "no": 2, "missing": 1, "gain": 7.094203, "cover": 27.3063011, "children": [
    { "nodeid": 1, "leaf": -0.0818381533, "cover": 3.0649488 },
    { "nodeid": 2, "depth": 1, "split": "DesertHills", "split_condition": 0.105250001, "yes": 3, "no": 4, "missing": 3, "gain": 2.14530778, "cover": 24.2413521, "children": [
      { "nodeid": 3, "leaf": 0.014965808, "cover": 21.7037239 },
      { "nodeid": 4, "leaf": 0.0789393559, "cover": 2.53762937 }
    ]}
  ]},
  { "nodeid": 0, "depth": 0, "split": "cityHasRiver", "split_condition": 1, "yes": 1, "no": 2, "missing": 1, "gain": 8.09004021, "cover": 31.9947052, "children": [
    { "nodeid": 1, "leaf": -0.0769048557, "cover": 2.87988949 },
    { "nodeid": 2, "depth": 1, "split": "DesertMountain", "split_condition": 0.0263, "yes": 3, "no": 4, "missing": 3, "gain": 7.07049465, "cover": 29.1148148, "children": [
      { "nodeid": 3, "leaf": 0.0477872454, "cover": 27.658823 },
      { "nodeid": 4, "leaf": -0.0865213573, "cover": 1.45599341 }
    ]}
  ]},
  { "nodeid": 0, "depth": 0, "split": "Rice", "split_condition": 0.0263, "yes": 1, "no": 2, "missing": 1, "gain": 8.22643375, "cover": 22.7983932, "children": [
    { "nodeid": 1, "depth": 1, "split": "Wheat", "split_condition": 0.0789500028, "yes": 3, "no": 4, "missing": 3, "gain": 8.49686432, "cover": 16.87957, "children": [
      { "nodeid": 3, "leaf": -0.0474852659, "cover": 13.983675 },
      { "nodeid": 4, "leaf": 0.0768821836, "cover": 2.895895 }
    ]},
    { "nodeid": 2, "depth": 1, "split": "Rice", "split_condition": 0.0789500028, "yes": 5, "no": 6, "missing": 5, "gain": 0.196053505, "cover": 5.91882372, "children": [
      { "nodeid": 5, "leaf": 0.0403582491, "cover": 3.52959538 },
      { "nodeid": 6, "leaf": 0.0946929753, "cover": 2.38922834 }
    ]}
  ]},
  { "nodeid": 0, "depth": 0, "split": "PlainsRainforest", "split_condition": 0.0263, "yes": 1, "no": 2, "missing": 1, "gain": 4.20913267, "cover": 30.0877285, "children": [
    { "nodeid": 1, "depth": 1, "split": "Wheat", "split_condition": 0.0263, "yes": 3, "no": 4, "missing": 3, "gain": 2.65446758, "cover": 13.8915644, "children": [
      { "nodeid": 3, "leaf": 0.000985003076, "cover": 9.38150311 },
      { "nodeid": 4, "leaf": -0.0641718283, "cover": 4.51006126 }
    ]},
    { "nodeid": 2, "depth": 1, "split": "PlainsRainforest", "split_condition": 0.131600007, "yes": 5, "no": 6, "missing": 5, "gain": 0.654418707, "cover": 16.1961632, "children": [
      { "nodeid": 5, "leaf": 0.0435868949, "cover": 9.13880539 },
      { "nodeid": 6, "leaf": 0.0117044011, "cover": 7.05735826 }
    ]}
  ]},
  { "nodeid": 0, "depth": 0, "split": "OtherBonus", "split_condition": 0.131600007, "yes": 1, "no": 2, "missing": 1, "gain": 3.61316299, "cover": 31.9295006, "children": [
    { "nodeid": 1, "depth": 1, "split": "Wheat", "split_condition": 0.0789500028, "yes": 3, "no": 4, "missing": 3, "gain": 4.66319561, "cover": 28.3726768, "children": [
      { "nodeid": 3, "leaf": -0.0126779648, "cover": 23.9763432 },
      { "nodeid": 4, "leaf": 0.0638245568, "cover": 4.39633465 }
    ]},
    { "nodeid": 2, "depth": 1, "split": "PlainsRainforest", "split_condition": 0.0789500028, "yes": 5, "no": 6, "missing": 5, "gain": 1.08495569, "cover": 3.55682349, "children": [
      { "nodeid": 5, "leaf": 0.0949730277, "cover": 2.31860471 },
      { "nodeid": 6, "leaf": 0.00693132821, "cover": 1.2382189 }
    ]}
  ]},
  { "nodeid": 0, "depth": 0, "split": "Plains", "split_condition": 0.0263, "yes": 1, "no": 2, "missing": 1, "gain": 9.9593401, "cover": 27.4544182, "children": [
    { "nodeid": 1, "depth": 1, "split": "Lux", "split_condition": 0.0263, "yes": 3, "no": 4, "missing": 3, "gain": 2.64949512, "cover": 12.4456177, "children": [
      { "nodeid": 3, "leaf": 0.00136960368, "cover": 2.87632346 },
      { "nodeid": 4, "leaf": 0.082637392, "cover": 9.56929493 }
    ]},
    { "nodeid": 2, "depth": 1, "split": "PlainsMountain", "split_condition": 0.0263, "yes": 5, "no": 6, "missing": 5, "gain": 10.7770681, "cover": 15.0087996, "children": [
      { "nodeid": 5, "leaf": -0.0838337913, "cover": 7.02327824 },
      { "nodeid": 6, "leaf": 0.0356156863, "cover": 7.98552132 }
    ]}
  ]},
  { "nodeid": 0, "depth": 0, "split": "PlainsMountain", "split_condition": 0.0263, "yes": 1, "no": 2, "missing": 1, "gain": 8.04403973, "cover": 30.8633366, "children": [
    { "nodeid": 1, "depth": 1, "split": "GrasslandWoods", "split_condition": 0.21055001, "yes": 3, "no": 4, "missing": 3, "gain": 3.29349828, "cover": 20.5404358, "children": [
      { "nodeid": 3, "leaf": -0.035973303, "cover": 19.2158279 },
      { "nodeid": 4, "leaf": 0.0596306287, "cover": 1.32460916 }
    ]},
    { "nodeid": 2, "depth": 1, "split": "GrasslandMarsh", "split_condition": 0.0263, "yes": 5, "no": 6, "missing": 5, "gain": 2.03156805, "cover": 10.3229008, "children": [
      { "nodeid": 5, "leaf": 0.0204484258, "cover": 6.68916559 },
      { "nodeid": 6, "leaf": 0.0891465172, "cover": 3.63373518 }
    ]}
  ]},
  { "nodeid": 0, "depth": 0, "split": "cityHasRiver", "split_condition": 1, "yes": 1, "no": 2, "missing": 1, "gain": 5.16550207, "cover": 31.8498287, "children": [
    { "nodeid": 1, "depth": 1, "split": "GrasslandHills", "split_condition": 0.184250012, "yes": 3, "no": 4, "missing": 3, "gain": 2.4051609, "cover": 3.74659252, "children": [
      { "nodeid": 3, "leaf": -0.0748184174, "cover": 2.63082981 },
      { "nodeid": 4, "leaf": 0.0309459586, "cover": 1.11576271 }
    ]},
    { "nodeid": 2, "depth": 1, "split": "CoastLake", "split_condition": 0.236850008, "yes": 5, "no": 6, "missing": 5, "gain": 2.33632278, "cover": 28.1032352, "children": [
      { "nodeid": 5, "leaf": 0.049204316, "cover": 25.0335388 },
      { "nodeid": 6, "leaf": -0.0154349552, "cover": 3.06969738 }
    ]}
  ]},
  { "nodeid": 0, "depth": 0, "split": "Stone", "split_condition": 0.0789500028, "yes": 1, "no": 2, "missing": 1, "gain": 3.41593027, "cover": 25.3888245, "children": [
    { "nodeid": 1, "depth": 1, "split": "PlainsRainforest", "split_condition": 0.0789500028, "yes": 3, "no": 4, "missing": 3, "gain": 4.51697826, "cover": 21.3078594, "children": [
      { "nodeid": 3, "leaf": -0.0271739047, "cover": 12.8720236 },
      { "nodeid": 4, "leaf": 0.0397550762, "cover": 8.43583488 }
    ]},
    { "nodeid": 2, "depth": 1, "split": "GrasslandWoods", "split_condition": 0.0789500028, "yes": 5, "no": 6, "missing": 5, "gain": 0.6437006, "cover": 4.08096552, "children": [
      { "nodeid": 5, "leaf": 0.0857651234, "cover": 2.61183286 },
      { "nodeid": 6, "leaf": 0.0144932857, "cover": 1.46913254 }
    ]}
  ]},
  { "nodeid": 0, "depth": 0, "split": "Rice", "split_condition": 0.0263, "yes": 1, "no": 2, "missing": 1, "gain": 11.5117826, "cover": 20.5199909, "children": [
    { "nodeid": 1, "depth": 1, "split": "OtherBonus", "split_condition": 0.0789500028, "yes": 3, "no": 4, "missing": 3, "gain": 9.49158669, "cover": 13.7973652, "children": [
      { "nodeid": 3, "leaf": -0.0814439803, "cover": 10.361001 },
      { "nodeid": 4, "leaf": 0.0498314202, "cover": 3.43636417 }
    ]},
    { "nodeid": 2, "depth": 1, "split": "OtherBonus", "split_condition": 0.0263, "yes": 5, "no": 6, "missing": 5, "gain": 0.12344265, "cover": 6.72262573, "children": [
      { "nodeid": 5, "leaf": 0.0323908329, "cover": 2.89323521 },
      { "nodeid": 6, "leaf": 0.0776489004, "cover": 3.82939076 }
    ]}
  ]},
  { "nodeid": 0, "depth": 0, "split": "GrasslandMountain", "split_condition": 0.0263, "yes": 1, "no": 2, "missing": 1, "gain": 7.47824669, "cover": 27.5246086, "children": [
    { "nodeid": 1, "depth": 1, "split": "Rice", "split_condition": 0.0789500028, "yes": 3, "no": 4, "missing": 3, "gain": 6.73991537, "cover": 17.4967213, "children": [
      { "nodeid": 3, "leaf": -0.0509767868, "cover": 15.9249086 },
      { "nodeid": 4, "leaf": 0.0807284117, "cover": 1.57181215 }
    ]},
    { "nodeid": 2, "depth": 1, "split": "GrasslandMountain", "split_condition": 0.131600007, "yes": 5, "no": 6, "missing": 5, "gain": 4.13259125, "cover": 10.0278883, "children": [
      { "nodeid": 5, "leaf": 0.0675211251, "cover": 7.5673399 },
      { "nodeid": 6, "leaf": -0.0324868187, "cover": 2.46054864 }
    ]}
  ]},
  { "nodeid": 0, "depth": 0, "split": "GrasslandWoods", "split_condition": 0.0263, "yes": 1, "no": 2, "missing": 1, "gain": 4.7894721, "cover": 27.3059788, "children": [
    { "nodeid": 1, "depth": 1, "split": "Plains", "split_condition": 0.0789500028, "yes": 3, "no": 4, "missing": 3, "gain": 3.43899345, "cover": 11.1766167, "children": [
      { "nodeid": 3, "leaf": 0.00487406133, "cover": 5.49392271 },
      { "nodeid": 4, "leaf": -0.0739976615, "cover": 5.68269396 }
    ]},
    { "nodeid": 2, "depth": 1, "split": "Lux", "split_condition": 0.0263, "yes": 5, "no": 6, "missing": 5, "gain": 4.27663851, "cover": 16.1293621, "children": [
      { "nodeid": 5, "leaf": -0.0326342918, "cover": 4.63195086 },
      { "nodeid": 6, "leaf": 0.0465237573, "cover": 11.4974108 }
    ]}
  ]},
  { "nodeid": 0, "depth": 0, "split": "PlainsMountain", "split_condition": 0.0789500028, "yes": 1, "no": 2, "missing": 1, "gain": 4.41947603, "cover": 32.6810417, "children": [
    { "nodeid": 1, "depth": 1, "split": "Grassland", "split_condition": 0.552600026, "yes": 3, "no": 4, "missing": 3, "gain": 2.5894618, "cover": 29.8143883, "children": [
      { "nodeid": 3, "leaf": 0.0211992562, "cover": 25.6838779 },
      { "nodeid": 4, "leaf": 0.0810296461, "cover": 4.13051176 }
    ]},
    { "nodeid": 2, "depth": 1, "split": "Grassland", "split_condition": 0.0263, "yes": 5, "no": 6, "missing": 5, "gain": 1.00699437, "cover": 2.86665344, "children": [
      { "nodeid": 5, "leaf": -0.078044951, "cover": 1.74576461 },
      { "nodeid": 6, "leaf": 0.0031915179, "cover": 1.12088895 }
    ]}
  ]},
  { "nodeid": 0, "depth": 0, "split": "GrasslandHillsWoods", "split_condition": 0.0263, "yes": 1, "no": 2, "missing": 1, "gain": 5.30609083, "cover": 31.664362, "children": [
    { "nodeid": 1, "depth": 1, "split": "PlainsHillsWoods", "split_condition": 0.0263, "yes": 3, "no": 4, "missing": 3, "gain": 5.80661249, "cover": 17.7883797, "children": [
      { "nodeid": 3, "leaf": -0.0307735745, "cover": 12.2025204 },
      { "nodeid": 4, "leaf": 0.0550221689, "cover": 5.58585978 }
    ]},
    { "nodeid": 2, "depth": 1, "split": "Horses", "split_condition": 0.0263, "yes": 5, "no": 6, "missing": 5, "gain": 3.95464325, "cover": 13.8759813, "children": [
      { "nodeid": 5, "leaf": 0.0718498081, "cover": 12.2895565 },
      { "nodeid": 6, "leaf": -0.0359706283, "cover": 1.58642471 }
    ]}
  ]},
  { "nodeid": 0, "depth": 0, "split": "PlainsMountain", "split_condition": 0.0789500028, "yes": 1, "no": 2, "missing": 1, "gain": 5.53794527, "cover": 26.0464268, "children": [
    { "nodeid": 1, "depth": 1, "split": "GrasslandWoods", "split_condition": 0.0263, "yes": 3, "no": 4, "missing": 3, "gain": 2.52423143, "cover": 23.604126, "children": [
      { "nodeid": 3, "leaf": -0.0113700768, "cover": 10.6518345 },
      { "nodeid": 4, "leaf": 0.0360473432, "cover": 12.9522915 }
    ]},
    { "nodeid": 2, "leaf": -0.086016126, "cover": 2.44230056 }
  ]},
  { "nodeid": 0, "depth": 0, "split": "Plains", "split_condition": 0.0789500028, "yes": 1, "no": 2, "missing": 1, "gain": 2.74594235, "cover": 27.2393646, "children": [
    { "nodeid": 1, "depth": 1, "split": "GrasslandHillsWoods", "split_condition": 0.0789500028, "yes": 3, "no": 4, "missing": 3, "gain": 2.48067379, "cover": 12.8875484, "children": [
      { "nodeid": 3, "leaf": -0.00755620562, "cover": 11.7609625 },
      { "nodeid": 4, "leaf": -0.0959806517, "cover": 1.12658608 }
    ]},
    { "nodeid": 2, "depth": 1, "split": "TundraWoods", "split_condition": 0.0263, "yes": 5, "no": 6, "missing": 5, "gain": 3.27747321, "cover": 14.3518162, "children": [
      { "nodeid": 5, "leaf": 0.0354427844, "cover": 13.3248243 },
      { "nodeid": 6, "leaf": -0.0674552619, "cover": 1.02699184 }
    ]}
  ]},
  { "nodeid": 0, "depth": 0, "split": "Cattle", "split_condition": 0.0263, "yes": 1, "no": 2, "missing": 1, "gain": 3.30715656, "cover": 27.4888325, "children": [
    { "nodeid": 1, "depth": 1, "split": "GrasslandMountain", "split_condition": 0.131600007, "yes": 3, "no": 4, "missing": 3, "gain": 1.64836121, "cover": 24.7327099, "children": [
      { "nodeid": 3, "leaf": 0.0295287669, "cover": 22.4871597 },
      { "nodeid": 4, "leaf": -0.0288061015, "cover": 2.24555111 }
    ]},
    { "nodeid": 2, "leaf": -0.0520389415, "cover": 2.75612235 }
  ]},
  { "nodeid": 0, "depth": 0, "split": "Wheat", "split_condition": 0.0789500028, "yes": 1, "no": 2, "missing": 1, "gain": 8.00285721, "cover": 27.5228882, "children": [
    { "nodeid": 1, "depth": 1, "split": "GrasslandHillsWoods", "split_condition": 0.0263, "yes": 3, "no": 4, "missing": 3, "gain": 8.46213055, "cover": 22.1421986, "children": [
      { "nodeid": 3, "leaf": -0.0618157238, "cover": 10.5849371 },
      { "nodeid": 4, "leaf": 0.0268617477, "cover": 11.5572624 }
    ]},
    { "nodeid": 2, "depth": 1, "split": "OtherBonus", "split_condition": 0.0263, "yes": 5, "no": 6, "missing": 5, "gain": 1.06909943, "cover": 5.3806901, "children": [
      { "nodeid": 5, "leaf": 0.0933482498, "cover": 4.12392521 },
      { "nodeid": 6, "leaf": 0.00872241426, "cover": 1.25676453 }
    ]}
  ]},
  { "nodeid": 0, "depth": 0, "split": "PlainsWoods", "split_condition": 0.0789500028, "yes": 1, "no": 2, "missing": 1, "gain": 6.69296837, "cover": 25.0624714, "children": [
    { "nodeid": 1, "depth": 1, "split": "TundraMountain", "split_condition": 0.0263, "yes": 3, "no": 4, "missing": 3, "gain": 3.14821339, "cover": 21.0447102, "children": [
      { "nodeid": 3, "leaf": -0.037821155, "cover": 18.7242107 },
      { "nodeid": 4, "leaf": 0.0423232354, "cover": 2.32049918 }
    ]},
    { "nodeid": 2, "depth": 1, "split": "PlainsMountain", "split_condition": 0.0263, "yes": 5, "no": 6, "missing": 5, "gain": 0.359888554, "cover": 4.01776171, "children": [
      { "nodeid": 5, "leaf": 0.0808589831, "cover": 2.78214073 },
      { "nodeid": 6, "leaf": 0.0161812473, "cover": 1.23562086 }
    ]}
  ]},
  { "nodeid": 0, "depth": 0, "split": "Lux", "split_condition": 0.0789500028, "yes": 1, "no": 2, "missing": 1, "gain": 3.0446651, "cover": 26.619421, "children": [
    { "nodeid": 1, "depth": 1, "split": "Cattle", "split_condition": 0.0263, "yes": 3, "no": 4, "missing": 3, "gain": 2.18877411, "cover": 15.1684055, "children": [
      { "nodeid": 3, "leaf": -0.00962821674, "cover": 13.6793995 },
      { "nodeid": 4, "leaf": -0.0867247134, "cover": 1.48900568 }
    ]},
    { "nodeid": 2, "depth": 1, "split": "PlainsHillsRainforest", "split_condition": 0.0263, "yes": 5, "no": 6, "missing": 5, "gain": 5.1478405, "cover": 11.4510155, "children": [
      { "nodeid": 5, "leaf": 0.0451853126, "cover": 10.3339825 },
      { "nodeid": 6, "leaf": -0.0830738172, "cover": 1.11703289 }
    ]}
  ]},
  { "nodeid": 0, "depth": 0, "split": "Stone", "split_condition": 0.131600007, "yes": 1, "no": 2, "missing": 1, "gain": 4.06156969, "cover": 26.7572346, "children": [
    { "nodeid": 1, "depth": 1, "split": "CoastLake", "split_condition": 0.184200004, "yes": 3, "no": 4, "missing": 3, "gain": 2.50506544, "cover": 24.5468082, "children": [
      { "nodeid": 3, "leaf": -0.00900667626, "cover": 18.8175201 },
      { "nodeid": 4, "leaf": 0.0437300242, "cover": 5.72928858 }
    ]},
    { "nodeid": 2, "leaf": 0.0940186083, "cover": 2.21042609 }
  ]},
  { "nodeid": 0, "depth": 0, "split": "Grassland", "split_condition": 0.236850008, "yes": 1, "no": 2, "missing": 1, "gain": 2.93631029, "cover": 22.113636, "children": [
    { "nodeid": 1, "depth": 1, "split": "Grassland", "split_condition": 0.0789500028, "yes": 3, "no": 4, "missing": 3, "gain": 6.73809433, "cover": 14.9585123, "children": [
      { "nodeid": 3, "leaf": -0.0172510576, "cover": 7.45671988 },
      { "nodeid": 4, "leaf": 0.078064464, "cover": 7.50179243 }
    ]},
    { "nodeid": 2, "depth": 1, "split": "GrasslandWoods", "split_condition": 0.0789500028, "yes": 5, "no": 6, "missing": 5, "gain": 3.86457729, "cover": 7.15512276, "children": [
      { "nodeid": 5, "leaf": 0.0148515394, "cover": 5.03091908 },
      { "nodeid": 6, "leaf": -0.0885184705, "cover": 2.12420368 }
    ]}
  ]},
  { "nodeid": 0, "depth": 0, "split": "PlainsMountain", "split_condition": 0.0263, "yes": 1, "no": 2, "missing": 1, "gain": 2.78762579, "cover": 31.744833, "children": [
    { "nodeid": 1, "depth": 1, "split": "Plains", "split_condition": 0.0789500028, "yes": 3, "no": 4, "missing": 3, "gain": 9.65133381, "cover": 22.4330807, "children": [
      { "nodeid": 3, "leaf": 0.0316781066, "cover": 14.5504389 },
      { "nodeid": 4, "leaf": -0.0658431947, "cover": 7.88264132 }
    ]},
    { "nodeid": 2, "depth": 1, "split": "PlainsMountain", "split_condition": 0.131600007, "yes": 5, "no": 6, "missing": 5, "gain": 4.6743288, "cover": 9.31175327, "children": [
      { "nodeid": 5, "leaf": 0.062792331, "cover": 8.18911457 },
      { "nodeid": 6, "leaf": -0.0639564991, "cover": 1.12263823 }
    ]}
  ]},
  { "nodeid": 0, "depth": 0, "split": "GrasslandWoods", "split_condition": 0.0789500028, "yes": 1, "no": 2, "missing": 1, "gain": 6.55944633, "cover": 32.1045074, "children": [
    { "nodeid": 1, "depth": 1, "split": "PlainsRainforest", "split_condition": 0.0789500028, "yes": 3, "no": 4, "missing": 3, "gain": 8.04913616, "cover": 22.24119, "children": [
      { "nodeid": 3, "leaf": -0.0230961889, "cover": 13.4905558 },
      { "nodeid": 4, "leaf": 0.064754948, "cover": 8.75063324 }
    ]},
    { "nodeid": 2, "depth": 1, "split": "Grassland", "split_condition": 0.315800011, "yes": 5, "no": 6, "missing": 5, "gain": 0.778572083, "cover": 9.86331749, "children": [
      { "nodeid": 5, "leaf": 0.100735143, "cover": 6.37376308 },
      { "nodeid": 6, "leaf": 0.0384189412, "cover": 3.48955464 }
    ]}
  ]},
  { "nodeid": 0, "depth": 0, "split": "Ocean", "split_condition": 0.0263, "yes": 1, "no": 2, "missing": 1, "gain": 3.2342062, "cover": 27.4008694, "children": [
    { "nodeid": 1, "depth": 1, "split": "Rice", "split_condition": 0.0263, "yes": 3, "no": 4, "missing": 3, "gain": 2.32150078, "cover": 25.4387245, "children": [
      { "nodeid": 3, "leaf": -0.0029705877, "cover": 18.839365 },
      { "nodeid": 4, "leaf": 0.0457525104, "cover": 6.59935951 }
    ]},
    { "nodeid": 2, "leaf": -0.0713265017, "cover": 1.96214414 }
  ]},
  { "nodeid": 0, "depth": 0, "split": "Plains", "split_condition": 0.184200004, "yes": 1, "no": 2, "missing": 1, "gain": 6.71052837, "cover": 30.1578484, "children": [
    { "nodeid": 1, "depth": 1, "split": "CoastLake", "split_condition": 0.0789500028, "yes": 3, "no": 4, "missing": 3, "gain": 3.27699304, "cover": 19.7041969, "children": [
      { "nodeid": 3, "leaf": 0.0187258404, "cover": 12.2381449 },
      { "nodeid": 4, "leaf": -0.0407587513, "cover": 7.46605253 }
    ]},
    { "nodeid": 2, "depth": 1, "split": "Grassland", "split_condition": 0.236850008, "yes": 5, "no": 6, "missing": 5, "gain": 1.6274538, "cover": 10.4536505, "children": [
      { "nodeid": 5, "leaf": 0.0777820796, "cover": 8.97106743 },
      { "nodeid": 6, "leaf": -0.00365571375, "cover": 1.48258364 }
    ]}
  ]},
  { "nodeid": 0, "depth": 0, "split": "GrasslandWoods", "split_condition": 0.0789500028, "yes": 1, "no": 2, "missing": 1, "gain": 6.03481674, "cover": 24.91432, "children": [
    { "nodeid": 1, "depth": 1, "split": "Wheat", "split_condition": 0.0789500028, "yes": 3, "no": 4, "missing": 3, "gain": 5.41135311, "cover": 16.1722565, "children": [
      { "nodeid": 3, "leaf": -0.0505665205, "cover": 13.404026 },
      { "nodeid": 4, "leaf": 0.0513978265, "cover": 2.76823044 }
    ]},
    { "nodeid": 2, "depth": 1, "split": "GrasslandMountain", "split_condition": 0.0789500028, "yes": 5, "no": 6, "missing": 5, "gain": 2.00427723, "cover": 8.74206448, "children": [
      { "nodeid": 5, "leaf": 0.0567198358, "cover": 7.39483547 },
      { "nodeid": 6, "leaf": -0.0267958809, "cover": 1.34722853 }
    ]}
  ]},
  { "nodeid": 0, "depth": 0, "split": "PlainsRainforest", "split_condition": 0.289499998, "yes": 1, "no": 2, "missing": 1, "gain": 7.23101044, "cover": 24.8798637, "children": [
    { "nodeid": 1, "depth": 1, "split": "Rice", "split_condition": 0.0263, "yes": 3, "no": 4, "missing": 3, "gain": 3.59164596, "cover": 21.3323498, "children": [
      { "nodeid": 3, "leaf": -0.0101011032, "cover": 17.9235439 },
      { "nodeid": 4, "leaf": -0.0860534608, "cover": 3.40880704 }
    ]},
    { "nodeid": 2, "leaf": 0.0777811855, "cover": 3.54751277 }
  ]},
  { "nodeid": 0, "depth": 0, "split": "Grassland", "split_condition": 0.0263, "yes": 1, "no": 2, "missing": 1, "gain": 4.40239573, "cover": 30.5126781, "children": [
    { "nodeid": 1, "depth": 1, "split": "Horses", "split_condition": 0.0263, "yes": 3, "no": 4, "missing": 3, "gain": 4.57122946, "cover": 10.47931, "children": [
      { "nodeid": 3, "leaf": 0.0672297403, "cover": 9.21771622 },
      { "nodeid": 4, "leaf": -0.0550051108, "cover": 1.26159453 }
    ]},
    { "nodeid": 2, "depth": 1, "split": "GrasslandHills", "split_condition": 0.184200004, "yes": 5, "no": 6, "missing": 5, "gain": 3.35713243, "cover": 20.0333672, "children": [
      { "nodeid": 5, "leaf": 0.00292221899, "cover": 18.226368 },
      { "nodeid": 6, "leaf": -0.0846116915, "cover": 1.80699897 }
    ]}
  ]},
  { "nodeid": 0, "depth": 0, "split": "PlainsWoods", "split_condition": 0.0789500028, "yes": 1, "no": 2, "missing": 1, "gain": 4.05331993, "cover": 30.8482819, "children": [
    { "nodeid": 1, "depth": 1, "split": "Grassland", "split_condition": 0.394749999, "yes": 3, "no": 4, "missing": 3, "gain": 9.03817749, "cover": 22.359581, "children": [
      { "nodeid": 3, "leaf": -0.0266069528, "cover": 16.7440929 },
      { "nodeid": 4, "leaf": 0.0755981281, "cover": 5.61548853 }
    ]},
    { "nodeid": 2, "depth": 1, "split": "DesertHills", "split_condition": 0.0789500028, "yes": 5, "no": 6, "missing": 5, "gain": 0.408104897, "cover": 8.48870182, "children": [
      { "nodeid": 5, "leaf": 0.0383256599, "cover": 6.18996668 },
      { "nodeid": 6, "leaf": 0.0875176266, "cover": 2.2987349 }
    ]}
  ]},
  { "nodeid": 0, "depth": 0, "split": "Stone", "split_condition": 0.0789500028, "yes": 1, "no": 2, "missing": 1, "gain": 4.22528505, "cover": 27.5104294, "children": [
    { "nodeid": 1, "depth": 1, "split": "PlainsHillsWoods", "split_condition": 0.0263, "yes": 3, "no": 4, "missing": 3, "gain": 4.83822441, "cover": 21.2593498, "children": [
      { "nodeid": 3, "leaf": -0.0320558064, "cover": 13.613493 },
      { "nodeid": 4, "leaf": 0.0384213813, "cover": 7.64585781 }
    ]},
    { "nodeid": 2, "depth": 1, "split": "GrasslandWoods", "split_condition": 0.131600007, "yes": 5, "no": 6, "missing": 5, "gain": 1.5594039, "cover": 6.25107861, "children": [
      { "nodeid": 5, "leaf": 0.0745322481, "cover": 5.14580774 },
      { "nodeid": 6, "leaf": -0.0122442432, "cover": 1.10527074 }
    ]}
  ]},
  { "nodeid": 0, "depth": 0, "split": "GrasslandHills", "split_condition": 0.0263, "yes": 1, "no": 2, "missing": 1, "gain": 3.44758224, "cover": 32.019413, "children": [
    { "nodeid": 1, "depth": 1, "split": "PlainsHillsRainforest", "split_condition": 0.0263, "yes": 3, "no": 4, "missing": 3, "gain": 4.79984283, "cover": 9.42827225, "children": [
      { "nodeid": 3, "leaf": -0.0666137114, "cover": 5.86186314 },
      { "nodeid": 4, "leaf": 0.0335475951, "cover": 3.56640935 }
    ]},
    { "nodeid": 2, "depth": 1, "split": "GrasslandHills", "split_condition": 0.184200004, "yes": 5, "no": 6, "missing": 5, "gain": 1.07559156, "cover": 22.5911407, "children": [
      { "nodeid": 5, "leaf": 0.0314870626, "cover": 16.8668175 },
      { "nodeid": 6, "leaf": -0.00491402345, "cover": 5.72432375 }
    ]}
  ]},
  { "nodeid": 0, "depth": 0, "split": "Desert", "split_condition": 0.131600007, "yes": 1, "no": 2, "missing": 1, "gain": 2.50948834, "cover": 27.7683067, "children": [
    { "nodeid": 1, "depth": 1, "split": "PlainsMountain", "split_condition": 0.0263, "yes": 3, "no": 4, "missing": 3, "gain": 2.97123289, "cover": 26.3275967, "children": [
      { "nodeid": 3, "leaf": -0.00662045879, "cover": 20.3270664 },
      { "nodeid": 4, "leaf": 0.0495043658, "cover": 6.00052929 }
    ]},
    { "nodeid": 2, "leaf": -0.0714670271, "cover": 1.44071019 }
  ]},
  { "nodeid": 0, "depth": 0, "split": "Ocean", "split_condition": 0.0789500028, "yes": 1, "no": 2, "missing": 1, "gain": 2.59074211, "cover": 30.1830997, "children": [
    { "nodeid": 1, "depth": 1, "split": "TundraHills", "split_condition": 0.0263, "yes": 3, "no": 4, "missing": 3, "gain": 2.34613156, "cover": 28.8394299, "children": [
      { "nodeid": 3, "leaf": 0.0300844368, "cover": 26.7386589 },
      { "nodeid": 4, "leaf": -0.03978654, "cover": 2.10077167 }
    ]},
    { "nodeid": 2, "leaf": -0.058575131, "cover": 1.34366882 }
  ]},
  { "nodeid": 0, "depth": 0, "split": "GrasslandMountain", "split_condition": 0.0789500028, "yes": 1, "no": 2, "missing": 1, "gain": 2.3059237, "cover": 29.024416, "children": [
    { "nodeid": 1, "depth": 1, "split": "GrasslandWoods", "split_condition": 0.0789500028, "yes": 3, "no": 4, "missing": 3, "gain": 0.981209517, "cover": 26.3906288, "children": [
      { "nodeid": 3, "leaf": 0.00710687647, "cover": 19.5851307 },
      { "nodeid": 4, "leaf": 0.0389122218, "cover": 6.80549765 }
    ]},
    { "nodeid": 2, "depth": 1, "split": "GrasslandMountain", "split_condition": 0.184200004, "yes": 5, "no": 6, "missing": 5, "gain": 4.08911514, "cover": 2.63378787, "children": [
      { "nodeid": 5, "leaf": -0.101032011, "cover": 1.60648322 },
      { "nodeid": 6, "leaf": 0.0455712751, "cover": 1.02730465 }
    ]}
  ]},
  { "nodeid": 0, "depth": 0, "split": "Plains", "split_condition": 0.0263, "yes": 1, "no": 2, "missing": 1, "gain": 8.00157166, "cover": 28.5961857, "children": [
    { "nodeid": 1, "depth": 1, "split": "GrasslandMarsh", "split_condition": 0.0789500028, "yes": 3, "no": 4, "missing": 3, "gain": 0.38988781, "cover": 12.0633888, "children": [
      { "nodeid": 3, "leaf": 0.0698936284, "cover": 10.6646891 },
      { "nodeid": 4, "leaf": 0.014500685, "cover": 1.39869976 }
    ]},
    { "nodeid": 2, "depth": 1, "split": "PlainsWoods", "split_condition": 0.0789500028, "yes": 5, "no": 6, "missing": 5, "gain": 3.98472071, "cover": 16.532795, "children": [
      { "nodeid": 5, "leaf": -0.0439855307, "cover": 8.96436119 },
      { "nodeid": 6, "leaf": 0.0256492402, "cover": 7.56843472 }
    ]}
  ]},
  { "nodeid": 0, "depth": 0, "split": "TundraMountain", "split_condition": 0.0263, "yes": 1, "no": 2, "missing": 1, "gain": 4.45323467, "cover": 22.9111538, "children": [
    { "nodeid": 1, "depth": 1, "split": "Lux", "split_condition": 0.131600007, "yes": 3, "no": 4, "missing": 3, "gain": 4.41544819, "cover": 21.1225758, "children": [
      { "nodeid": 3, "leaf": -0.0403586142, "cover": 17.9818172 },
      { "nodeid": 4, "leaf": 0.0458114296, "cover": 3.14075899 }
    ]},
    { "nodeid": 2, "leaf": 0.0744799376, "cover": 1.78857732 }
  ]},
  { "nodeid": 0, "depth": 0, "split": "Grassland", "split_condition": 0.184200004, "yes": 1, "no": 2, "missing": 1, "gain": 4.95617533, "cover": 28.4991188, "children": [
    { "nodeid": 1, "depth": 1, "split": "Wheat", "split_condition": 0.0789500028, "yes": 3, "no": 4, "missing": 3, "gain": 1.56474376, "cover": 17.4341831, "children": [
      { "nodeid": 3, "leaf": 0.0332524441, "cover": 14.7949505 },
      { "nodeid": 4, "leaf": -0.022704538, "cover": 2.63923287 }
    ]},
    { "nodeid": 2, "depth": 1, "split": "CoastLake", "split_condition": 0.0263, "yes": 5, "no": 6, "missing": 5, "gain": 3.79175854, "cover": 11.0649347, "children": [
      { "nodeid": 5, "leaf": -0.00475153839, "cover": 7.59115219 },
      { "nodeid": 6, "leaf": -0.0920443535, "cover": 3.47378302 }
    ]}
  ]},
  { "nodeid": 0, "depth": 0, "split": "Grassland", "split_condition": 0.394749999, "yes": 1, "no": 2, "missing": 1, "gain": 8.87682533, "cover": 26.3630753, "children": [
    { "nodeid": 1, "depth": 1, "split": "PlainsHillsRainforest", "split_condition": 0.0263, "yes": 3, "no": 4, "missing": 3, "gain": 6.61246729, "cover": 24.0947838, "children": [
      { "nodeid": 3, "leaf": -0.0165072139, "cover": 13.4370661 },
      { "nodeid": 4, "leaf": 0.0593782626, "cover": 10.6577177 }
    ]},
    { "nodeid": 2, "leaf": -0.112678349, "cover": 2.26829052 }
  ]},
  { "nodeid": 0, "depth": 0, "split": "Plains", "split_condition": 0.289499998, "yes": 1, "no": 2, "missing": 1, "gain": 4.8449049, "cover": 24.338007, "children": [
    { "nodeid": 1, "depth": 1, "split": "GrasslandMountain", "split_condition": 0.0789500028, "yes": 3, "no": 4, "missing": 3, "gain": 2.59523726, "cover": 20.1903038, "children": [
      { "nodeid": 3, "leaf": 0.0308804754, "cover": 17.7418327 },
      { "nodeid": 4, "leaf": -0.0405558422, "cover": 2.44847083 }
    ]},
    { "nodeid": 2, "depth": 1, "split": "GrasslandHills", "split_condition": 0.0263, "yes": 5, "no": 6, "missing": 5, "gain": 2.33629394, "cover": 4.14770174, "children": [
      { "nodeid": 5, "leaf": -0.089341186, "cover": 2.87790656 },
      { "nodeid": 6, "leaf": 0.0164698586, "cover": 1.26979542 }
    ]}
  ]},
  { "nodeid": 0, "depth": 0, "split": "Plains", "split_condition": 0.0263, "yes": 1, "no": 2, "missing": 1, "gain": 6.6497612, "cover": 30.2567978, "children": [
    { "nodeid": 1, "depth": 1, "split": "PlainsRainforest", "split_condition": 0.0789500028, "yes": 3, "no": 4, "missing": 3, "gain": 0.194885731, "cover": 10.9864388, "children": [
      { "nodeid": 3, "leaf": 0.0373812467, "cover": 7.97408485 },
      { "nodeid": 4, "leaf": 0.0736249387, "cover": 3.0123539 }
    ]},
    { "nodeid": 2, "depth": 1, "split": "PlainsMountain", "split_condition": 0.0263, "yes": 5, "no": 6, "missing": 5, "gain": 10.9425507, "cover": 19.270359, "children": [
      { "nodeid": 5, "leaf": -0.0667218715, "cover": 10.3866482 },
      { "nodeid": 6, "leaf": 0.040858265, "cover": 8.88370991 }
    ]}
  ]},
  { "nodeid": 0, "depth": 0, "split": "CoastLake", "split_condition": 0.0789500028, "yes": 1, "no": 2, "missing": 1, "gain": 4.06510258, "cover": 24.6647778, "children": [
    { "nodeid": 1, "depth": 1, "split": "Plains", "split_condition": 0.184200004, "yes": 3, "no": 4, "missing": 3, "gain": 3.02240515, "cover": 14.1445923, "children": [
      { "nodeid": 3, "leaf": -0.0617770664, "cover": 7.73917246 },
      { "nodeid": 4, "leaf": 0.00498534087, "cover": 6.40541935 }
    ]},
    { "nodeid": 2, "depth": 1, "split": "Plains", "split_condition": 0.0263, "yes": 5, "no": 6, "missing": 5, "gain": 1.32053852, "cover": 10.5201864, "children": [
      { "nodeid": 5, "leaf": 0.046272222, "cover": 5.93490028 },
      { "nodeid": 6, "leaf": -0.00445834268, "cover": 4.58528614 }
    ]}
  ]},
  { "nodeid": 0, "depth": 0, "split": "PlainsMountain", "split_condition": 0.0789500028, "yes": 1, "no": 2, "missing": 1, "gain": 4.77414894, "cover": 26.8436031, "children": [
    { "nodeid": 1, "depth": 1, "split": "Horses", "split_condition": 0.0263, "yes": 3, "no": 4, "missing": 3, "gain": 4.07205343, "cover": 24.7886581, "children": [
      { "nodeid": 3, "leaf": 0.0222211983, "cover": 21.3447018 },
      { "nodeid": 4, "leaf": -0.0561493747, "cover": 3.44395709 }
    ]},
    { "nodeid": 2, "leaf": -0.0890869126, "cover": 2.0549438 }
  ]},
  { "nodeid": 0, "depth": 0, "split": "Plains", "split_condition": 0.447399974, "yes": 1, "no": 2, "missing": 1, "gain": 2.80872154, "cover": 24.2614708, "children": [
    { "nodeid": 1, "depth": 1, "split": "PlainsRainforest", "split_condition": 0.131600007, "yes": 3, "no": 4, "missing": 3, "gain": 3.1021688, "cover": 23.0797138, "children": [
      { "nodeid": 3, "leaf": 0.0391192622, "cover": 19.1653118 },
      { "nodeid": 4, "leaf": -0.0283281915, "cover": 3.91440177 }
    ]},
    { "nodeid": 2, "leaf": -0.062563099, "cover": 1.18175721 }
  ]},
  { "nodeid": 0, "depth": 0, "split": "PlainsMountain", "split_condition": 0.0789500028, "yes": 1, "no": 2, "missing": 1, "gain": 3.67138624, "cover": 22.9497337, "children": [
    { "nodeid": 1, "depth": 1, "split": "PlainsRainforest", "split_condition": 0.0789500028, "yes": 3, "no": 4, "missing": 3, "gain": 2.61574054, "cover": 20.8144855, "children": [
      { "nodeid": 3, "leaf": -0.0139372637, "cover": 13.4598732 },
      { "nodeid": 4, "leaf": 0.0385667011, "cover": 7.35461235 }
    ]},
    { "nodeid": 2, "leaf": -0.080895558, "cover": 2.13524842 }
  ]},
  { "nodeid": 0, "depth": 0, "split": "GrasslandHills", "split_condition": 0.184200004, "yes": 1, "no": 2, "missing": 1, "gain": 2.10199642, "cover": 22.3802185, "children": [
    { "nodeid": 1, "depth": 1, "split": "PlainsRainforest", "split_condition": 0.131600007, "yes": 3, "no": 4, "missing": 3, "gain": 2.5661099, "cover": 20.5766373, "children": [
      { "nodeid": 3, "leaf": 0.009428869, "cover": 15.3135271 },
      { "nodeid": 4, "leaf": -0.0468446612, "cover": 5.26310968 }
    ]},
    { "nodeid": 2, "leaf": -0.0757925436, "cover": 1.803581 }
  ]},
  { "nodeid": 0, "depth": 0, "split": "Plains", "split_condition": 0.447399974, "yes": 1, "no": 2, "missing": 1, "gain": 2.83227921, "cover": 24.1902924, "children": [
    { "nodeid": 1, "depth": 1, "split": "PlainsWoods", "split_condition": 0.131600007, "yes": 3, "no": 4, "missing": 3, "gain": 2.56622601, "cover": 22.7196064, "children": [
      { "nodeid": 3, "leaf": -0.00281370291, "cover": 19.7224751 },
      { "nodeid": 4, "leaf": 0.0626387671, "cover": 2.99713159 }
    ]},
    { "nodeid": 2, "leaf": -0.0758630633, "cover": 1.47068715 }
  ]},
  { "nodeid": 0, "depth": 0, "split": "Desert", "split_condition": 0.0263, "yes": 1, "no": 2, "missing": 1, "gain": 4.61128759, "cover": 23.9755211, "children": [
    { "nodeid": 1, "depth": 1, "split": "Grassland", "split_condition": 0.0789500028, "yes": 3, "no": 4, "missing": 3, "gain": 1.92342961, "cover": 19.0458736, "children": [
      { "nodeid": 3, "leaf": -0.03125301, "cover": 4.55169582 },
      { "nodeid": 4, "leaf": 0.0200479031, "cover": 14.4941778 }
    ]},
    { "nodeid": 2, "depth": 1, "split": "PlainsHillsWoods", "split_condition": 0.0263, "yes": 5, "no": 6, "missing": 5, "gain": 1.47731018, "cover": 4.92964792, "children": [
      { "nodeid": 5, "leaf": -0.0869350955, "cover": 3.73840022 },
      { "nodeid": 6, "leaf": 0.00334268715, "cover": 1.19124746 }
    ]}
  ]},
  { "nodeid": 0, "depth": 0, "split": "GrasslandMarsh", "split_condition": 0.0789500028, "yes": 1, "no": 2, "missing": 1, "gain": 3.76910686, "cover": 24.6079712, "children": [
    { "nodeid": 1, "depth": 1, "split": "Grassland", "split_condition": 0.394749999, "yes": 3, "no": 4, "missing": 3, "gain": 2.04529977, "cover": 23.3727036, "children": [
      { "nodeid": 3, "leaf": 0.0139514515, "cover": 19.6705608 },
      { "nodeid": 4, "leaf": 0.0699368417, "cover": 3.70214319 }
    ]},
    { "nodeid": 2, "leaf": -0.0766294673, "cover": 1.23526728 }
  ]},
  { "nodeid": 0, "depth": 0, "split": "GrasslandMountain", "split_condition": 0.0789500028, "yes": 1, "no": 2, "missing": 1, "gain": 3.41959596, "cover": 28.7957859, "children": [
    { "nodeid": 1, "depth": 1, "split": "PlainsRainforest", "split_condition": 0.131600007, "yes": 3, "no": 4, "missing": 3, "gain": 2.44990635, "cover": 25.5632362, "children": [
      { "nodeid": 3, "leaf": 0.0303691197, "cover": 20.9636631 },
      { "nodeid": 4, "leaf": -0.0256813727, "cover": 4.59957361 }
    ]},
    { "nodeid": 2, "depth": 1, "split": "PlainsRainforest", "split_condition": 0.0789500028, "yes": 5, "no": 6, "missing": 5, "gain": 2.12697482, "cover": 3.23254943, "children": [
      { "nodeid": 5, "leaf": -0.0911511853, "cover": 1.79258561 },
      { "nodeid": 6, "leaf": 0.0128816366, "cover": 1.43996382 }
    ]}
  ]},
  { "nodeid": 0, "depth": 0, "split": "GrasslandHillsWoods", "split_condition": 0.0263, "yes": 1, "no": 2, "missing": 1, "gain": 3.54845357, "cover": 28.5751114, "children": [
    { "nodeid": 1, "depth": 1, "split": "Wheat", "split_condition": 0.0263, "yes": 3, "no": 4, "missing": 3, "gain": 3.06225729, "cover": 16.7241306, "children": [
      { "nodeid": 3, "leaf": -0.0354424752, "cover": 7.50504017 },
      { "nodeid": 4, "leaf": 0.0251824185, "cover": 9.21909046 }
    ]},
    { "nodeid": 2, "depth": 1, "split": "OtherBonus", "split_condition": 0.0263, "yes": 5, "no": 6, "missing": 5, "gain": 0.859519958, "cover": 11.8509817, "children": [
      { "nodeid": 5, "leaf": 0.0226282738, "cover": 5.70322657 },
      { "nodeid": 6, "leaf": 0.0678118914, "cover": 6.14775467 }
    ]}
  ]},
  { "nodeid": 0, "depth": 0, "split": "GrasslandHills", "split_condition": 0.0789500028, "yes": 1, "no": 2, "missing": 1, "gain": 5.38216639, "cover": 20.9569683, "children": [
    { "nodeid": 1, "depth": 1, "split": "Lux", "split_condition": 0.0789500028, "yes": 3, "no": 4, "missing": 3, "gain": 1.81333923, "cover": 11.6101933, "children": [
      { "nodeid": 3, "leaf": -0.0202014539, "cover": 8.31514549 },
      { "nodeid": 4, "leaf": -0.0836822018, "cover": 3.29504776 }
    ]},
    { "nodeid": 2, "depth": 1, "split": "Lux", "split_condition": 0.0263, "yes": 5, "no": 6, "missing": 5, "gain": 7.58813095, "cover": 9.34677505, "children": [
      { "nodeid": 5, "leaf": -0.0794163719, "cover": 1.8571353 },
      { "nodeid": 6, "leaf": 0.0624858402, "cover": 7.48963976 }
    ]}
  ]},
  { "nodeid": 0, "depth": 0, "split": "PlainsWoods", "split_condition": 0.0263, "yes": 1, "no": 2, "missing": 1, "gain": 4.16406107, "cover": 25.2441921, "children": [
    { "nodeid": 1, "depth": 1, "split": "PlainsHillsRainforest", "split_condition": 0.0263, "yes": 3, "no": 4, "missing": 3, "gain": 2.00895739, "cover": 15.348526, "children": [
      { "nodeid": 3, "leaf": 0.00848439336, "cover": 9.80329227 },
      { "nodeid": 4, "leaf": 0.0629306808, "cover": 5.54523325 }
    ]},
    { "nodeid": 2, "depth": 1, "split": "PlainsMountain", "split_condition": 0.0263, "yes": 5, "no": 6, "missing": 5, "gain": 3.63094044, "cover": 9.89566612, "children": [
      { "nodeid": 5, "leaf": -0.054337766, "cover": 7.24598503 },
      { "nodeid": 6, "leaf": 0.0367318578, "cover": 2.64968109 }
    ]}
  ]},
  { "nodeid": 0, "depth": 0, "split": "PlainsWoods", "split_condition": 0.0789500028, "yes": 1, "no": 2, "missing": 1, "gain": 4.53680515, "cover": 22.0570545, "children": [
    { "nodeid": 1, "depth": 1, "split": "Cattle", "split_condition": 0.0263, "yes": 3, "no": 4, "missing": 3, "gain": 2.01081157, "cover": 17.9390011, "children": [
      { "nodeid": 3, "leaf": 0.0271019042, "cover": 16.8980923 },
      { "nodeid": 4, "leaf": -0.0523935147, "cover": 1.04090965 }
    ]},
    { "nodeid": 2, "depth": 1, "split": "PlainsWoods", "split_condition": 0.184200004, "yes": 5, "no": 6, "missing": 5, "gain": 2.35717034, "cover": 4.11805248, "children": [
      { "nodeid": 5, "leaf": -0.0907147154, "cover": 2.71869946 },
      { "nodeid": 6, "leaf": 0.0142351249, "cover": 1.39935315 }
    ]}
  ]},
  { "nodeid": 0, "depth": 0, "split": "CoastLake", "split_condition": 0.0789500028, "yes": 1, "no": 2, "missing": 1, "gain": 2.66663027, "cover": 24.0536213, "children": [
    { "nodeid": 1, "depth": 1, "split": "Lux", "split_condition": 0.0263, "yes": 3, "no": 4, "missing": 3, "gain": 4.00310612, "cover": 14.1150494, "children": [
      { "nodeid": 3, "leaf": 0.0276637431, "cover": 5.97741985 },
      { "nodeid": 4, "leaf": -0.0478132479, "cover": 8.13762951 }
    ]},
    { "nodeid": 2, "depth": 1, "split": "CoastLake", "split_condition": 0.289499998, "yes": 5, "no": 6, "missing": 5, "gain": 5.14884472, "cover": 9.93857193, "children": [
      { "nodeid": 5, "leaf": 0.0564591549, "cover": 8.24484158 },
      { "nodeid": 6, "leaf": -0.0627230331, "cover": 1.69373083 }
    ]}
  ]},
  { "nodeid": 0, "depth": 0, "split": "DesertHills", "split_condition": 0.0789500028, "yes": 1, "no": 2, "missing": 1, "gain": 5.03908777, "cover": 24.655407, "children": [
    { "nodeid": 1, "depth": 1, "split": "Horses", "split_condition": 0.0263, "yes": 3, "no": 4, "missing": 3, "gain": 3.02371645, "cover": 20.7886963, "children": [
      { "nodeid": 3, "leaf": -0.00223019137, "cover": 18.4625492 },
      { "nodeid": 4, "leaf": -0.0796610937, "cover": 2.32614636 }
    ]},
    { "nodeid": 2, "depth": 1, "split": "PlainsHillsWoods", "split_condition": 0.0263, "yes": 5, "no": 6, "missing": 5, "gain": 2.42096233, "cover": 3.86671138, "children": [
      { "nodeid": 5, "leaf": -0.00626570964, "cover": 1.46550977 },
      { "nodeid": 6, "leaf": 0.104475677, "cover": 2.40120149 }
    ]}
  ]},
  { "nodeid": 0, "depth": 0, "split": "Plains", "split_condition": 0.0263, "yes": 1, "no": 2, "missing": 1, "gain": 2.99715424, "cover": 28.4472942, "children": [
    { "nodeid": 1, "depth": 1, "split": "OtherBonus", "split_condition": 0.0263, "yes": 3, "no": 4, "missing": 3, "gain": 0.420898676, "cover": 13.1324329, "children": [
      { "nodeid": 3, "leaf": 0.00939086266, "cover": 4.52367973 },
      { "nodeid": 4, "leaf": 0.0397006199, "cover": 8.6087532 }
    ]},
    { "nodeid": 2, "depth": 1, "split": "PlainsWoods", "split_condition": 0.0789500028, "yes": 5, "no": 6, "missing": 5, "gain": 6.00465536, "cover": 15.3148623, "children": [
      { "nodeid": 5, "leaf": -0.0548178665, "cover": 8.62453842 },
      { "nodeid": 6, "leaf": 0.0339622535, "cover": 6.69032383 }
    ]}
  ]},
  { "nodeid": 0, "depth": 0, "split": "PlainsRainforest", "split_condition": 0.289499998, "yes": 1, "no": 2, "missing": 1, "gain": 9.13332939, "cover": 16.3024902, "children": [
    { "nodeid": 1, "depth": 1, "split": "GrasslandHills", "split_condition": 0.184200004, "yes": 3, "no": 4, "missing": 3, "gain": 4.10148621, "cover": 14.2971239, "children": [
      { "nodeid": 3, "leaf": -0.0755902976, "cover": 10.4011784 },
      { "nodeid": 4, "leaf": 0.010646834, "cover": 3.89594555 }
    ]},
    { "nodeid": 2, "leaf": 0.0906417668, "cover": 2.00536656 }
  ]},
  { "nodeid": 0, "depth": 0, "split": "Wheat", "split_condition": 0.0263, "yes": 1, "no": 2, "missing": 1, "gain": 3.46699786, "cover": 26.6559677, "children": [
    { "nodeid": 1, "depth": 1, "split": "Ocean", "split_condition": 0.0263, "yes": 3, "no": 4, "missing": 3, "gain": 2.40300083, "cover": 16.8132229, "children": [
      { "nodeid": 3, "leaf": 0.00409873528, "cover": 14.6529942 },
      { "nodeid": 4, "leaf": -0.0674201176, "cover": 2.16022801 }
    ]},
    { "nodeid": 2, "depth": 1, "split": "CoastLake", "split_condition": 0.0263, "yes": 5, "no": 6, "missing": 5, "gain": 5.98704529, "cover": 9.84274387, "children": [
      { "nodeid": 5, "leaf": -0.0108629502, "cover": 5.15815306 },
      { "nodeid": 6, "leaf": 0.0983050838, "cover": 4.68459082 }
    ]}
  ]},
  { "nodeid": 0, "depth": 0, "split": "Wheat", "split_condition": 0.0263, "yes": 1, "no": 2, "missing": 1, "gain": 3.78481054, "cover": 24.4746895, "children": [
    { "nodeid": 1, "depth": 1, "split": "Horses", "split_condition": 0.0263, "yes": 3, "no": 4, "missing": 3, "gain": 4.07989883, "cover": 16.962368, "children": [
      { "nodeid": 3, "leaf": -0.0224369429, "cover": 13.2283554 },
      { "nodeid": 4, "leaf": 0.0575537272, "cover": 3.73401332 }
    ]},
    { "nodeid": 2, "depth": 1, "split": "Lux", "split_condition": 0.0789500028, "yes": 5, "no": 6, "missing": 5, "gain": 1.91878939, "cover": 7.51232147, "children": [
      { "nodeid": 5, "leaf": 0.0774305537, "cover": 5.58585835 },
      { "nodeid": 6, "leaf": -0.00486187357, "cover": 1.92646337 }
    ]}
  ]},
  { "nodeid": 0, "depth": 0, "split": "PlainsRainforest", "split_condition": 0.131600007, "yes": 1, "no": 2, "missing": 1, "gain": 2.89161229, "cover": 24.8899384, "children": [
    { "nodeid": 1, "depth": 1, "split": "OtherBonus", "split_condition": 0.0263, "yes": 3, "no": 4, "missing": 3, "gain": 1.63985252, "cover": 21.3157806, "children": [
      { "nodeid": 3, "leaf": 0.0479692854, "cover": 11.8994188 },
      { "nodeid": 4, "leaf": 0.00624717306, "cover": 9.41636181 }
    ]},
    { "nodeid": 2, "depth": 1, "split": "OtherBonus", "split_condition": 0.0789500028, "yes": 5, "no": 6, "missing": 5, "gain": 2.33088183, "cover": 3.57415748, "children": [
      { "nodeid": 5, "leaf": -0.0818468407, "cover": 1.63687336 },
      { "nodeid": 6, "leaf": 0.0185396336, "cover": 1.93728423 }
    ]}
  ]},
  { "nodeid": 0, "depth": 0, "split": "Lux", "split_condition": 0.0263, "yes": 1, "no": 2, "missing": 1, "gain": 8.46642494, "cover": 23.6543274, "children": [
    { "nodeid": 1, "leaf": -0.0934281349, "cover": 3.96603775 },
    { "nodeid": 2, "depth": 1, "split": "GrasslandHillsWoods", "split_condition": 0.0789500028, "yes": 3, "no": 4, "missing": 3, "gain": 4.20408964, "cover": 19.6882896, "children": [
      { "nodeid": 3, "leaf": 0.0251866411, "cover": 18.6042995 },
      { "nodeid": 4, "leaf": -0.0868184119, "cover": 1.08399105 }
    ]}
  ]},
  { "nodeid": 0, "depth": 0, "split": "GrasslandHillsWoods", "split_condition": 0.0263, "yes": 1, "no": 2, "missing": 1, "gain": 3.31598568, "cover": 29.2118587, "children": [
    { "nodeid": 1, "depth": 1, "split": "Wheat", "split_condition": 0.0263, "yes": 3, "no": 4, "missing": 3, "gain": 3.11622763, "cover": 17.5934277, "children": [
      { "nodeid": 3, "leaf": -0.0211132728, "cover": 8.56274605 },
      { "nodeid": 4, "leaf": 0.0385884233, "cover": 9.03068256 }
    ]},
    { "nodeid": 2, "depth": 1, "split": "GrasslandHills", "split_condition": 0.0789500028, "yes": 5, "no": 6, "missing": 5, "gain": 0.784996033, "cover": 11.6184292, "children": [
      { "nodeid": 5, "leaf": 0.0236454848, "cover": 3.75103688 },
      { "nodeid": 6, "leaf": 0.0738489106, "cover": 7.86739254 }
    ]}
  ]},
  { "nodeid": 0, "depth": 0, "split": "Grassland", "split_condition": 0.447399974, "yes": 1, "no": 2, "missing": 1, "gain": 5.60849857, "cover": 21.4635048, "children": [
    { "nodeid": 1, "depth": 1, "split": "DesertMountain", "split_condition": 0.0263, "yes": 3, "no": 4, "missing": 3, "gain": 7.9794755, "cover": 18.05797, "children": [
      { "nodeid": 3, "leaf": -0.0567431524, "cover": 15.0174227 },
      { "nodeid": 4, "leaf": 0.0621009506, "cover": 3.04054689 }
    ]},
    { "nodeid": 2, "depth": 1, "split": "Grassland", "split_condition": 0.657899976, "yes": 5, "no": 6, "missing": 5, "gain": 0.926306248, "cover": 3.40553617, "children": [
      { "nodeid": 5, "leaf": 0.08100494, "cover": 2.14830875 },
      { "nodeid": 6, "leaf": 0.00285282335, "cover": 1.25722742 }
    ]}
  ]},
  { "nodeid": 0, "depth": 0, "split": "PlainsMountain", "split_condition": 0.0263, "yes": 1, "no": 2, "missing": 1, "gain": 4.6457243, "cover": 23.7133007, "children": [
    { "nodeid": 1, "depth": 1, "split": "PlainsHillsRainforest", "split_condition": 0.0789500028, "yes": 3, "no": 4, "missing": 3, "gain": 4.24398565, "cover": 16.1793461, "children": [
      { "nodeid": 3, "leaf": 0.000371593429, "cover": 14.161746 },
      { "nodeid": 4, "leaf": -0.0970789939, "cover": 2.01760054 }
    ]},
    { "nodeid": 2, "depth": 1, "split": "Plains", "split_condition": 0.131600007, "yes": 5, "no": 6, "missing": 5, "gain": 5.01454926, "cover": 7.53395367, "children": [
      { "nodeid": 5, "leaf": -0.0299582537, "cover": 2.41765738 },
      { "nodeid": 6, "leaf": 0.0874566287, "cover": 5.11629629 }
    ]}
  ]},
  { "nodeid": 0, "depth": 0, "split": "Ocean", "split_condition": 0.0263, "yes": 1, "no": 2, "missing": 1, "gain": 4.72600746, "cover": 28.7424984, "children": [
    { "nodeid": 1, "depth": 1, "split": "DesertHills", "split_condition": 0.0263, "yes": 3, "no": 4, "missing": 3, "gain": 3.49499154, "cover": 26.6351547, "children": [
      { "nodeid": 3, "leaf": 0.0354243368, "cover": 22.5789051 },
      { "nodeid": 4, "leaf": -0.0339213796, "cover": 4.05624914 }
    ]},
    { "nodeid": 2, "leaf": -0.0734346285, "cover": 2.1073432 }
  ]},
  { "nodeid": 0, "depth": 0, "split": "GrasslandHills", "split_condition": 0.0263, "yes": 1, "no": 2, "missing": 1, "gain": 3.97245884, "cover": 23.49687, "children": [
    { "nodeid": 1, "depth": 1, "split": "PlainsRainforest", "split_condition": 0.236850008, "yes": 3, "no": 4, "missing": 3, "gain": 8.50178623, "cover": 6.90887499, "children": [
      { "nodeid": 3, "leaf": -0.0855432451, "cover": 4.41734648 },
      { "nodeid": 4, "leaf": 0.0650376752, "cover": 2.49152827 }
    ]},
    { "nodeid": 2, "depth": 1, "split": "GrasslandMarsh", "split_condition": 0.0263, "yes": 5, "no": 6, "missing": 5, "gain": 2.83790159, "cover": 16.5879936, "children": [
      { "nodeid": 5, "leaf": 0.0561334379, "cover": 10.4296665 },
      { "nodeid": 6, "leaf": -0.00584011385, "cover": 6.15832806 }
    ]}
  ]},
  { "nodeid": 0, "depth": 0, "split": "GrasslandHillsWoods", "split_condition": 0.0789500028, "yes": 1, "no": 2, "missing": 1, "gain": 3.5224669, "cover": 19.0089207, "children": [
    { "nodeid": 1, "depth": 1, "split": "Rice", "split_condition": 0.0263, "yes": 3, "no": 4, "missing": 3, "gain": 2.21912289, "cover": 14.6740227, "children": [
      { "nodeid": 3, "leaf": -0.0546072163, "cover": 10.5665655 },
      { "nodeid": 4, "leaf": 0.00758511852, "cover": 4.10745811 }
    ]},
    { "nodeid": 2, "depth": 1, "split": "OtherBonus", "split_condition": 0.0263, "yes": 5, "no": 6, "missing": 5, "gain": 0.357393026, "cover": 4.33489704, "children": [
      { "nodeid": 5, "leaf": 0.0484017469, "cover": 2.30800629 },
      { "nodeid": 6, "leaf": 0.00546581391, "cover": 2.02689099 }
    ]}
  ]},
  { "nodeid": 0, "depth": 0, "split": "PlainsHillsRainforest", "split_condition": 0.0263, "yes": 1, "no": 2, "missing": 1, "gain": 6.56926727, "cover": 22.303299, "children": [
    { "nodeid": 1, "depth": 1, "split": "Lux", "split_condition": 0.0263, "yes": 3, "no": 4, "missing": 3, "gain": 4.11050844, "cover": 17.9299412, "children": [
      { "nodeid": 3, "leaf": -0.0321256146, "cover": 4.75349712 },
      { "nodeid": 4, "leaf": 0.043466948, "cover": 13.1764431 }
    ]},
    { "nodeid": 2, "depth": 1, "split": "PlainsHillsWoods", "split_condition": 0.0263, "yes": 5, "no": 6, "missing": 5, "gain": 4.04995346, "cover": 4.3733592, "children": [
      { "nodeid": 5, "leaf": -0.10835918, "cover": 3.07097554 },
      { "nodeid": 6, "leaf": 0.0265618619, "cover": 1.30238378 }
    ]}
  ]},
  { "nodeid": 0, "depth": 0, "split": "Lux", "split_condition": 0.0263, "yes": 1, "no": 2, "missing": 1, "gain": 2.59227228, "cover": 23.2325726, "children": [
    { "nodeid": 1, "depth": 1, "split": "GrasslandHillsWoods", "split_condition": 0.0263, "yes": 3, "no": 4, "missing": 3, "gain": 2.80542469, "cover": 4.62795019, "children": [
      { "nodeid": 3, "leaf": -0.0761568174, "cover": 2.24595213 },
      { "nodeid": 4, "leaf": 0.023302678, "cover": 2.3819983 }
    ]},
    { "nodeid": 2, "depth": 1, "split": "Wheat", "split_condition": 0.0263, "yes": 5, "no": 6, "missing": 5, "gain": 2.12385726, "cover": 18.6046238, "children": [
      { "nodeid": 5, "leaf": 0.00718640583, "cover": 11.7131615 },
      { "nodeid": 6, "leaf": 0.0580054969, "cover": 6.89146137 }
    ]}
  ]},
  { "nodeid": 0, "depth": 0, "split": "Rice", "split_condition": 0.0263, "yes": 1, "no": 2, "missing": 1, "gain": 6.49162054, "cover": 25.1848984, "children": [
    { "nodeid": 1, "depth": 1, "split": "GrasslandMarsh", "split_condition": 0.0263, "yes": 3, "no": 4, "missing": 3, "gain": 4.65970707, "cover": 19.2338409, "children": [
      { "nodeid": 3, "leaf": -0.048562739, "cover": 11.6702404 },
      { "nodeid": 4, "leaf": 0.0232529361, "cover": 7.56359959 }
    ]},
    { "nodeid": 2, "depth": 1, "split": "GrasslandHills", "split_condition": 0.184200004, "yes": 5, "no": 6, "missing": 5, "gain": 0.747841835, "cover": 5.95105791, "children": [
      { "nodeid": 5, "leaf": 0.0745298192, "cover": 4.7077961 },
      { "nodeid": 6, "leaf": 0.00566157512, "cover": 1.24326169 }
    ]}
  ]},
  { "nodeid": 0, "depth": 0, "split": "DesertHills", "split_condition": 0.0789500028, "yes": 1, "no": 2, "missing": 1, "gain": 2.75499797, "cover": 26.6327534, "children": [
    { "nodeid": 1, "depth": 1, "split": "GrasslandHillsWoods", "split_condition": 0.0789500028, "yes": 3, "no": 4, "missing": 3, "gain": 2.62580729, "cover": 24.1878719, "children": [
      { "nodeid": 3, "leaf": 0.000286569033, "cover": 20.3129044 },
      { "nodeid": 4, "leaf": 0.0612902567, "cover": 3.87496781 }
    ]},
    { "nodeid": 2, "leaf": 0.0842913687, "cover": 2.44488025 }
  ]},
  { "nodeid": 0, "depth": 0, "split": "cityHasRiver", "split_condition": 1, "yes": 1, "no": 2, "missing": 1, "gain": 4.48392344, "cover": 22.3555088, "children": [
    { "nodeid": 1, "leaf": -0.0678686127, "cover": 2.16690159 },
    { "nodeid": 2, "depth": 1, "split": "Grassland", "split_condition": 0.0789500028, "yes": 3, "no": 4, "missing": 3, "gain": 2.88999248, "cover": 20.1886082, "children": [
      { "nodeid": 3, "leaf": -0.00830178708, "cover": 7.53026628 },
      { "nodeid": 4, "leaf": 0.0483182706, "cover": 12.6583414 }
    ]}
  ]},
  { "nodeid": 0, "depth": 0, "split": "GrasslandHills", "split_condition": 0.131600007, "yes": 1, "no": 2, "missing": 1, "gain": 3.23329997, "cover": 27.571703, "children": [
    { "nodeid": 1, "depth": 1, "split": "PlainsHillsRainforest", "split_condition": 0.0789500028, "yes": 3, "no": 4, "missing": 3, "gain": 1.6373148, "cover": 21.9982071, "children": [
      { "nodeid": 3, "leaf": 0.031560991, "cover": 20.6535721 },
      { "nodeid": 4, "leaf": -0.0363848619, "cover": 1.34463453 }
    ]},
    { "nodeid": 2, "depth": 1, "split": "Stone", "split_condition": 0.0263, "yes": 5, "no": 6, "missing": 5, "gain": 4.23575211, "cover": 5.57349539, "children": [
      { "nodeid": 5, "leaf": 0.0178247523, "cover": 3.50527668 },
      { "nodeid": 6, "leaf": -0.0982015207, "cover": 2.06821871 }
    ]}
  ]},
  { "nodeid": 0, "depth": 0, "split": "Plains", "split_condition": 0.342100024, "yes": 1, "no": 2, "missing": 1, "gain": 3.30060029, "cover": 24.8186512, "children": [
    { "nodeid": 1, "depth": 1, "split": "Grassland", "split_condition": 0.184200004, "yes": 3, "no": 4, "missing": 3, "gain": 1.61357856, "cover": 23.3071384, "children": [
      { "nodeid": 3, "leaf": 0.0405976735, "cover": 11.6348028 },
      { "nodeid": 4, "leaf": 0.00193740055, "cover": 11.6723366 }
    ]},
    { "nodeid": 2, "leaf": -0.0682220906, "cover": 1.5115124 }
  ]},
  { "nodeid": 0, "depth": 0, "split": "cityHasRiver", "split_condition": 1, "yes": 1, "no": 2, "missing": 1, "gain": 3.64702487, "cover": 22.1261368, "children": [
    { "nodeid": 1, "leaf": -0.0597934946, "cover": 1.76639891 },
    { "nodeid": 2, "depth": 1, "split": "Stone", "split_condition": 0.0789500028, "yes": 3, "no": 4, "missing": 3, "gain": 3.05941439, "cover": 20.3597393, "children": [
      { "nodeid": 3, "leaf": 0.0142584676, "cover": 15.6304922 },
      { "nodeid": 4, "leaf": 0.0793242082, "cover": 4.72924614 }
    ]}
  ]},
  { "nodeid": 0, "depth": 0, "split": "OtherBonus", "split_condition": 0.0789500028, "yes": 1, "no": 2, "missing": 1, "gain": 6.51707745, "cover": 25.0387878, "children": [
    { "nodeid": 1, "depth": 1, "split": "Wheat", "split_condition": 0.0789500028, "yes": 3, "no": 4, "missing": 3, "gain": 4.24696541, "cover": 16.0933018, "children": [
      { "nodeid": 3, "leaf": -0.0544436052, "cover": 12.1822987 },
      { "nodeid": 4, "leaf": 0.0286896192, "cover": 3.91100311 }
    ]},
    { "nodeid": 2, "depth": 1, "split": "GrasslandWoods", "split_condition": 0.131600007, "yes": 5, "no": 6, "missing": 5, "gain": 1.00837255, "cover": 8.94548702, "children": [
      { "nodeid": 5, "leaf": 0.0240115635, "cover": 7.33364534 },
      { "nodeid": 6, "leaf": 0.0843481794, "cover": 1.61184168 }
    ]}
  ]},
  { "nodeid": 0, "depth": 0, "split": "Grassland", "split_condition": 0.289499998, "yes": 1, "no": 2, "missing": 1, "gain": 2.39407229, "cover": 24.6496868, "children": [
    { "nodeid": 1, "depth": 1, "split": "Stone", "split_condition": 0.0263, "yes": 3, "no": 4, "missing": 3, "gain": 0.954445124, "cover": 19.2095604, "children": [
      { "nodeid": 3, "leaf": 0.0394252576, "cover": 15.3609762 },
      { "nodeid": 4, "leaf": -0.00150044006, "cover": 3.84858418 }
    ]},
    { "nodeid": 2, "depth": 1, "split": "Cattle", "split_condition": 0.0263, "yes": 5, "no": 6, "missing": 5, "gain": 9.26861191, "cover": 5.44012642, "children": [
      { "nodeid": 5, "leaf": -0.105142474, "cover": 2.58893323 },
      { "nodeid": 6, "leaf": 0.0621891767, "cover": 2.85119295 }
    ]}
  ]},
  { "nodeid": 0, "depth": 0, "split": "Grassland", "split_condition": 0.131600007, "yes": 1, "no": 2, "missing": 1, "gain": 4.32101679, "cover": 27.6001987, "children": [
    { "nodeid": 1, "depth": 1, "split": "Wheat", "split_condition": 0.0263, "yes": 3, "no": 4, "missing": 3, "gain": 2.85236502, "cover": 11.8556385, "children": [
      { "nodeid": 3, "leaf": -0.0467153229, "cover": 6.41898537 },
      { "nodeid": 4, "leaf": 0.0216877609, "cover": 5.43665361 }
    ]},
    { "nodeid": 2, "depth": 1, "split": "Grassland", "split_condition": 0.289499998, "yes": 5, "no": 6, "missing": 5, "gain": 3.74464083, "cover": 15.7445602, "children": [
      { "nodeid": 5, "leaf": 0.0736287311, "cover": 8.22606182 },
      { "nodeid": 6, "leaf": 0.00235271151, "cover": 7.5184989 }
    ]}
  ]},
  { "nodeid": 0, "depth": 0, "split": "GrasslandHills", "split_condition": 0.131600007, "yes": 1, "no": 2, "missing": 1, "gain": 5.46098328, "cover": 24.1498375, "children": [
    { "nodeid": 1, "depth": 1, "split": "cityHasRiver", "split_condition": 1, "yes": 3, "no": 4, "missing": 3, "gain": 2.79282761, "cover": 20.4215336, "children": [
      { "nodeid": 3, "leaf": -0.0523954369, "cover": 1.3276757 },
      { "nodeid": 4, "leaf": 0.0360231027, "cover": 19.0938568 }
    ]},
    { "nodeid": 2, "depth": 1, "split": "PlainsRainforest", "split_condition": 0.0526500009, "yes": 5, "no": 6, "missing": 5, "gain": 2.94089508, "cover": 3.7283051, "children": [
      { "nodeid": 5, "leaf": -0.0933196247, "cover": 2.69545865 },
      { "nodeid": 6, "leaf": 0.0283796526, "cover": 1.03284645 }
    ]}
  ]},
  { "nodeid": 0, "depth": 0, "split": "PlainsMountain", "split_condition": 0.0263, "yes": 1, "no": 2, "missing": 1, "gain": 6.45165062, "cover": 24.115036, "children": [
    { "nodeid": 1, "depth": 1, "split": "Plains", "split_condition": 0.0789500028, "yes": 3, "no": 4, "missing": 3, "gain": 3.52284813, "cover": 17.6485691, "children": [
      { "nodeid": 3, "leaf": -0.00882380642, "cover": 12.3457689 },
      { "nodeid": 4, "leaf": -0.0782568306, "cover": 5.30280018 }
    ]},
    { "nodeid": 2, "depth": 1, "split": "Plains", "split_condition": 0.236850008, "yes": 5, "no": 6, "missing": 5, "gain": 1.60234404, "cover": 6.46646738, "children": [
      { "nodeid": 5, "leaf": 0.069340013, "cover": 4.61934471 },
      { "nodeid": 6, "leaf": -0.00722807087, "cover": 1.84712219 }
    ]}
  ]},
  { "nodeid": 0, "depth": 0, "split": "Desert", "split_condition": 0.184200004, "yes": 1, "no": 2, "missing": 1, "gain": 2.98974085, "cover": 21.2348537, "children": [
    { "nodeid": 1, "depth": 1, "split": "PlainsRainforest", "split_condition": 0.0263, "yes": 3, "no": 4, "missing": 3, "gain": 2.99262762, "cover": 20.0381851, "children": [
      { "nodeid": 3, "leaf": 0.0516733415, "cover": 12.557991 },
      { "nodeid": 4, "leaf": -0.00635728706, "cover": 7.48019361 }
    ]},
    { "nodeid": 2, "leaf": -0.0621312037, "cover": 1.19666994 }
  ]},
  { "nodeid": 0, "depth": 0, "split": "PlainsMountain", "split_condition": 0.0263, "yes": 1, "no": 2, "missing": 1, "gain": 3.74087119, "cover": 25.4260521, "children": [
    { "nodeid": 1, "depth": 1, "split": "OtherBonus", "split_condition": 0.0789500028, "yes": 3, "no": 4, "missing": 3, "gain": 8.74489212, "cover": 19.0482807, "children": [
      { "nodeid": 3, "leaf": -0.0420334265, "cover": 11.6070576 },
      { "nodeid": 4, "leaf": 0.0561206639, "cover": 7.44122267 }
    ]},
    { "nodeid": 2, "depth": 1, "split": "PlainsRainforest", "split_condition": 0.0263, "yes": 5, "no": 6, "missing": 5, "gain": 3.8098321, "cover": 6.37777185, "children": [
      { "nodeid": 5, "leaf": 0.109333508, "cover": 2.97060132 },
      { "nodeid": 6, "leaf": 0.00135899207, "cover": 3.40717053 }
    ]}
  ]},
  { "nodeid": 0, "depth": 0, "split": "Plains", "split_condition": 0.447399974, "yes": 1, "no": 2, "missing": 1, "gain": 3.31139779, "cover": 28.7588921, "children": [
    { "nodeid": 1, "depth": 1, "split": "Wheat", "split_condition": 0.0263, "yes": 3, "no": 4, "missing": 3, "gain": 1.5071733, "cover": 27.484169, "children": [
      { "nodeid": 3, "leaf": 0.0125264218, "cover": 18.1050701 },
      { "nodeid": 4, "leaf": 0.0492383428, "cover": 9.37909889 }
    ]},
    { "nodeid": 2, "leaf": -0.0682007447, "cover": 1.27472365 }
  ]},
  { "nodeid": 0, "depth": 0, "split": "cityHasRiver", "split_condition": 1, "yes": 1, "no": 2, "missing": 1, "gain": 2.86799622, "cover": 20.0417423, "children": [
    { "nodeid": 1, "leaf": -0.0589871928, "cover": 1.46064579 },
    { "nodeid": 2, "depth": 1, "split": "PlainsWoods", "split_condition": 0.0789500028, "yes": 3, "no": 4, "missing": 3, "gain": 2.77379203, "cover": 18.5810966, "children": [
      { "nodeid": 3, "leaf": 0.00648945244, "cover": 12.8426781 },
      { "nodeid": 4, "leaf": 0.0662033632, "cover": 5.7384181 }
    ]}
  ]},
  { "nodeid": 0, "depth": 0, "split": "DesertHills", "split_condition": 0.0789500028, "yes": 1, "no": 2, "missing": 1, "gain": 2.90912533, "cover": 25.1167412, "children": [
    { "nodeid": 1, "depth": 1, "split": "PlainsRainforest", "split_condition": 0.289499998, "yes": 3, "no": 4, "missing": 3, "gain": 2.8297348, "cover": 21.7621517, "children": [
      { "nodeid": 3, "leaf": -0.00598755153, "cover": 19.3147316 },
      { "nodeid": 4, "leaf": 0.0671886951, "cover": 2.44741988 }
    ]},
    { "nodeid": 2, "leaf": 0.0719259754, "cover": 3.35458994 }
  ]},
  { "nodeid": 0, "depth": 0, "split": "GrasslandMountain", "split_condition": 0.0789500028, "yes": 1, "no": 2, "missing": 1, "gain": 3.79922175, "cover": 24.6780872, "children": [
    { "nodeid": 1, "depth": 1, "split": "CoastLake", "split_condition": 0.289499998, "yes": 3, "no": 4, "missing": 3, "gain": 2.23479867, "cover": 23.3366261, "children": [
      { "nodeid": 3, "leaf": 0.0205603875, "cover": 21.965126 },
      { "nodeid": 4, "leaf": -0.0561010092, "cover": 1.37149894 }
    ]},
    { "nodeid": 2, "leaf": -0.0856600776, "cover": 1.34146154 }
  ]},
  { "nodeid": 0, "depth": 0, "split": "GrasslandMarsh", "split_condition": 0.0263, "yes": 1, "no": 2, "missing": 1, "gain": 5.95746183, "cover": 22.8757839, "children": [
    { "nodeid": 1, "depth": 1, "split": "OtherBonus", "split_condition": 0.131600007, "yes": 3, "no": 4, "missing": 3, "gain": 4.31262779, "cover": 13.2505102, "children": [
      { "nodeid": 3, "leaf": -0.0557621941, "cover": 11.0616627 },
      { "nodeid": 4, "leaf": 0.0444250144, "cover": 2.18884802 }
    ]},
    { "nodeid": 2, "depth": 1, "split": "Rice", "split_condition": 0.0263, "yes": 5, "no": 6, "missing": 5, "gain": 3.86091352, "cover": 9.62527275, "children": [
      { "nodeid": 5, "leaf": 0.0590314642, "cover": 7.71187973 },
      { "nodeid": 6, "leaf": -0.0429972745, "cover": 1.91339314 }
    ]}
  ]},
  { "nodeid": 0, "depth": 0, "split": "GrasslandWoods", "split_condition": 0.0789500028, "yes": 1, "no": 2, "missing": 1, "gain": 3.84966469, "cover": 19.3109818, "children": [
    { "nodeid": 1, "depth": 1, "split": "PlainsHillsRainforest", "split_condition": 0.131600007, "yes": 3, "no": 4, "missing": 3, "gain": 5.56975126, "cover": 12.4163561, "children": [
      { "nodeid": 3, "leaf": -0.0516495146, "cover": 10.6296062 },
      { "nodeid": 4, "leaf": 0.0674719512, "cover": 1.78674936 }
    ]},
    { "nodeid": 2, "depth": 1, "split": "OtherBonus", "split_condition": 0.0263, "yes": 5, "no": 6, "missing": 5, "gain": 2.7063992, "cover": 6.89462709, "children": [
      { "nodeid": 5, "leaf": -0.0265330132, "cover": 2.1480155 },
      { "nodeid": 6, "leaf": 0.0626023859, "cover": 4.7466116 }
    ]}
  ]},
  { "nodeid": 0, "depth": 0, "split": "Cattle", "split_condition": 0.0263, "yes": 1, "no": 2, "missing": 1, "gain": 5.56279087, "cover": 21.7266445, "children": [
    { "nodeid": 1, "depth": 1, "split": "CoastLake", "split_condition": 0.236850008, "yes": 3, "no": 4, "missing": 3, "gain": 2.03708053, "cover": 20.0008602, "children": [
      { "nodeid": 3, "leaf": 0.0268033892, "cover": 17.1030178 },
      { "nodeid": 4, "leaf": -0.0333828479, "cover": 2.89784217 }
    ]},
    { "nodeid": 2, "leaf": -0.0964380652, "cover": 1.72578442 }
  ]},
  { "nodeid": 0, "depth": 0, "split": "Grassland", "split_condition": 0.447399974, "yes": 1, "no": 2, "missing": 1, "gain": 4.26309919, "cover": 19.6522026, "children": [
    { "nodeid": 1, "depth": 1, "split": "GrasslandMarsh", "split_condition": 0.131600007, "yes": 3, "no": 4, "missing": 3, "gain": 6.06858349, "cover": 15.977232, "children": [
      { "nodeid": 3, "leaf": -0.0533626229, "cover": 13.6214304 },
      { "nodeid": 4, "leaf": 0.0597148463, "cover": 2.35580134 }
    ]},
    { "nodeid": 2, "depth": 1, "split": "GrasslandHills", "split_condition": 0.0789500028, "yes": 5, "no": 6, "missing": 5, "gain": 0.240329981, "cover": 3.67496967, "children": [
      { "nodeid": 5, "leaf": 0.00907474011, "cover": 1.20811367 },
      { "nodeid": 6, "leaf": 0.0573535115, "cover": 2.466856 }
    ]}
  ]},
  { "nodeid": 0, "depth": 0, "split": "OtherBonus", "split_condition": 0.0789500028, "yes": 1, "no": 2, "missing": 1, "gain": 3.63008809, "cover": 23.5568008, "children": [
    { "nodeid": 1, "depth": 1, "split": "GrasslandMarsh", "split_condition": 0.0263, "yes": 3, "no": 4, "missing": 3, "gain": 1.94143319, "cover": 20.3069592, "children": [
      { "nodeid": 3, "leaf": -0.00713075977, "cover": 11.207633 },
      { "nodeid": 4, "leaf": 0.0374630801, "cover": 9.09932518 }
    ]},
    { "nodeid": 2, "depth": 1, "split": "CoastLakeReef", "split_condition": 0.0263, "yes": 5, "no": 6, "missing": 5, "gain": 1.49245644, "cover": 3.24984217, "children": [
      { "nodeid": 5, "leaf": -0.0928607956, "cover": 1.85021234 },
      { "nodeid": 6, "leaf": 0.00072595902, "cover": 1.39962983 }
    ]}
  ]},
  { "nodeid": 0, "depth": 0, "split": "CoastLakeReef", "split_condition": 0.0263, "yes": 1, "no": 2, "missing": 1, "gain": 2.8813417, "cover": 26.9378414, "children": [
    { "nodeid": 1, "depth": 1, "split": "Grassland", "split_condition": 0.447399974, "yes": 3, "no": 4, "missing": 3, "gain": 1.72463655, "cover": 25.8983421, "children": [
      { "nodeid": 3, "leaf": 0.0228790399, "cover": 21.7793674 },
      { "nodeid": 4, "leaf": 0.0734214261, "cover": 4.11897373 }
    ]},
    { "nodeid": 2, "leaf": -0.0607508868, "cover": 1.03949964 }
  ]},
  { "nodeid": 0, "depth": 0, "split": "PlainsHillsRainforest", "split_condition": 0.0263, "yes": 1, "no": 2, "missing": 1, "gain": 3.69829178, "cover": 21.8934135, "children": [
    { "nodeid": 1, "depth": 1, "split": "PlainsHillsWoods", "split_condition": 0.0263, "yes": 3, "no": 4, "missing": 3, "gain": 2.57711053, "cover": 14.2396393, "children": [
      { "nodeid": 3, "leaf": -0.0292305015, "cover": 9.38635445 },
      { "nodeid": 4, "leaf": 0.0327967927, "cover": 4.85328436 }
    ]},
    { "nodeid": 2, "depth": 1, "split": "GrasslandHillsWoods", "split_condition": 0.0263, "yes": 5, "no": 6, "missing": 5, "gain": 0.431307316, "cover": 7.65377378, "children": [
      { "nodeid": 5, "leaf": 0.0258907396, "cover": 3.87095499 },
      { "nodeid": 6, "leaf": 0.0715282485, "cover": 3.78281903 }
    ]}
  ]},
  { "nodeid": 0, "depth": 0, "split": "GrasslandMarsh", "split_condition": 0.0263, "yes": 1, "no": 2, "missing": 1, "gain": 2.00497389, "cover": 21.282238, "children": [
    { "nodeid": 1, "depth": 1, "split": "GrasslandHills", "split_condition": 0.0263, "yes": 3, "no": 4, "missing": 3, "gain": 3.38333726, "cover": 12.9945173, "children": [
      { "nodeid": 3, "leaf": -0.0837363526, "cover": 3.32727599 },
      { "nodeid": 4, "leaf": -0.00390247279, "cover": 9.6672411 }
    ]},
    { "nodeid": 2, "depth": 1, "split": "GrasslandWoods", "split_condition": 0.131600007, "yes": 5, "no": 6, "missing": 5, "gain": 3.19147849, "cover": 8.28772068, "children": [
      { "nodeid": 5, "leaf": 0.0355292261, "cover": 7.21914577 },
      { "nodeid": 6, "leaf": -0.0688580945, "cover": 1.06857526 }
    ]}
  ]},
  { "nodeid": 0, "depth": 0, "split": "Plains", "split_condition": 0.289499998, "yes": 1, "no": 2, "missing": 1, "gain": 3.31869078, "cover": 29.1664581, "children": [
    { "nodeid": 1, "depth": 1, "split": "GrasslandWoods", "split_condition": 0.131600007, "yes": 3, "no": 4, "missing": 3, "gain": 1.15101671, "cover": 25.6370964, "children": [
      { "nodeid": 3, "leaf": 0.0355029963, "cover": 22.4291687 },
      { "nodeid": 4, "leaf": -0.00961310882, "cover": 3.20792842 }
    ]},
    { "nodeid": 2, "depth": 1, "split": "Plains", "split_condition": 0.394749999, "yes": 5, "no": 6, "missing": 5, "gain": 1.70283234, "cover": 3.5293622, "children": [
      { "nodeid": 5, "leaf": -0.0804524124, "cover": 1.56103253 },
      { "nodeid": 6, "leaf": 0.00818808284, "cover": 1.96832979 }
    ]}
  ]},
  { "nodeid": 0, "depth": 0, "split": "Grassland", "split_condition": 0.0263, "yes": 1, "no": 2, "missing": 1, "gain": 5.50826025, "cover": 21.780901, "children": [
