[
  { "nodeid": 0, "depth": 0, "split": "GrasslandWoods", "split_condition": 0.0263, "yes": 1, "no": 2, "missing": 1, "gain": 8.15613747, "cover": 20.136364, "children": [
    { "nodeid": 1, "leaf": 0.0770876855, "cover": 11.977273 },
    { "nodeid": 2, "leaf": -0.0780167803, "cover": 8.159091 }
  ]},
  { "nodeid": 0, "depth": 0, "split": "PlainsHillsRainforest", "split_condition": 0.0263, "yes": 1, "no": 2, "missing": 1, "gain": 16.4818153, "cover": 20.9684315, "children": [
    { "nodeid": 1, "leaf": -0.102861166, "cover": 12.7762032 },
    { "nodeid": 2, "leaf": 0.11469093, "cover": 8.19222832 }
  ]},
  { "nodeid": 0, "depth": 0, "split": "GrasslandHills", "split_condition": 0.0789500028, "yes": 1, "no": 2, "missing": 1, "gain": 6.71485996, "cover": 22.46978, "children": [
    { "nodeid": 1, "leaf": -0.0212807339, "cover": 11.7821999 },
    { "nodeid": 2, "leaf": 0.111763671, "cover": 10.6875801 }
  ]},
  { "nodeid": 0, "depth": 0, "split": "Desert", "split_condition": 0.0263, "yes": 1, "no": 2, "missing": 1, "gain": 10.5462303, "cover": 22.8939419, "children": [
    { "nodeid": 1, "leaf": 0.00966920424, "cover": 18.910965 },
    { "nodeid": 2, "leaf": -0.195537567, "cover": 3.98297715 }
  ]},
  { "nodeid": 0, "depth": 0, "split": "GrasslandHillsWoods", "split_condition": 0.0789500028, "yes": 1, "no": 2, "missing": 1, "gain": 18.7354813, "cover": 26.1194592, "children": [
    { "nodeid": 1, "leaf": -0.0379443504, "cover": 17.4570465 },
    { "nodeid": 2, "leaf": 0.178713888, "cover": 8.6624136 }
  ]},
  { "nodeid": 0, "depth": 0, "split": "Lux", "split_condition": 0.0263, "yes": 1, "no": 2, "missing": 1, "gain": 7.68033695, "cover": 26.6825809, "children": [
    { "nodeid": 1, "leaf": -0.0961794928, "cover": 6.48291874 },
    { "nodeid": 2, "leaf": 0.0521360934, "cover": 20.1996632 }
  ]},
  { "nodeid": 0, "depth": 0, "split": "PlainsHillsRainforest", "split_condition": 0.0263, "yes": 1, "no": 2, "missing": 1, "gain": 16.0416794, "cover": 19.6333427, "children": [
    { "nodeid": 1, "leaf": -0.132052109, "cover": 9.89127922 },
    { "nodeid": 2, "leaf": 0.084812507, "cover": 9.74206352 }
  ]},
  { "nodeid": 0, "depth": 0, "split": "CoastLake", "split_condition": 0.0263, "yes": 1, "no": 2, "missing": 1, "gain": 13.4061298, "cover": 17.7709179, "children": [
    { "nodeid": 1, "leaf": 0.0564303659, "cover": 10.5110168 },
    { "nodeid": 2, "leaf": -0.154064894, "cover": 7.259902 }
  ]},
  { "nodeid": 0, "depth": 0, "split": "OtherBonus", "split_condition": 0.0263, "yes": 1, "no": 2, "missing": 1, "gain": 11.0686426, "cover": 22.4335957, "children": [
    { "nodeid": 1, "leaf": -0.0975437239, "cover": 7.57787991 },
    { "nodeid": 2, "leaf": 0.07996241, "cover": 14.8557158 }
  ]},
  { "nodeid": 0, "depth": 0, "split": "OtherBonus", "split_condition": 0.0263, "yes": 1, "no": 2, "missing": 1, "gain": 23.8162098, "cover": 22.5670929, "children": [
    { "nodeid": 1, "leaf": -0.183729082, "cover": 6.17350101 },
    { "nodeid": 2, "leaf": 0.0886388347, "cover": 16.3935928 }
  ]},
  { "nodeid": 0, "depth": 0, "split": "GrasslandHillsWoods", "split_condition": 0.0263, "yes": 1, "no": 2, "missing": 1, "gain": 10.8606176, "cover": 26.7339993, "children": [
    { "nodeid": 1, "leaf": 0.00312260375, "cover": 13.1040392 },
    { "nodeid": 2, "leaf": 0.16100426, "cover": 13.6299601 }
  ]},
  { "nodeid": 0, "depth": 0, "split": "Stone", "split_condition": 0.0789500028, "yes": 1, "no": 2, "missing": 1, "gain": 23.6653023, "cover": 21.7055149, "children": [
    { "nodeid": 1, "leaf": -0.0956659839, "cover": 16.9568043 },
    { "nodeid": 2, "leaf": 0.19775933, "cover": 4.74871111 }
  ]},
  { "nodeid": 0, "depth": 0, "split": "DesertHills", "split_condition": 0.0263, "yes": 1, "no": 2, "missing": 1, "gain": 6.07179689, "cover": 19.0420551, "children": [
    { "nodeid": 1, "leaf": 0.0752203092, "cover": 15.0684013 },
    { "nodeid": 2, "leaf": -0.085000284, "cover": 3.97365379 }
  ]},
  { "nodeid": 0, "depth": 0, "split": "Horses", "split_condition": 0.0263, "yes": 1, "no": 2, "missing": 1, "gain": 7.66226196, "cover": 27.600153, "children": [
    { "nodeid": 1, "leaf": 0.106247596, "cover": 24.1750202 },
    { "nodeid": 2, "leaf": -0.0778841078, "cover": 3.42513347 }
  ]},
  { "nodeid": 0, "depth": 0, "split": "GrasslandHills", "split_condition": 0.0789500028, "yes": 1, "no": 2, "missing": 1, "gain": 8.93010712, "cover": 23.771986, "children": [
    { "nodeid": 1, "leaf": 0.0445910171, "cover": 15.2838678 },
    { "nodeid": 2, "leaf": -0.10898193, "cover": 8.48811817 }
  ]},
  { "nodeid": 0, "depth": 0, "split": "OtherBonus", "split_condition": 0.0789500028, "yes": 1, "no": 2, "missing": 1, "gain": 9.90752411, "cover": 22.9783268, "children": [
    { "nodeid": 1, "leaf": -0.0702318847, "cover": 14.4723406 },
    { "nodeid": 2, "leaf": 0.0929366052, "cover": 8.50598526 }
  ]},
  { "nodeid": 0, "depth": 0, "split": "CoastLake", "split_condition": 0.0789500028, "yes": 1, "no": 2, "missing": 1, "gain": 9.04481792, "cover": 19.0811977, "children": [
    { "nodeid": 1, "leaf": 0.0194536559, "cover": 12.7892389 },
    { "nodeid": 2, "leaf": -0.154785991, "cover": 6.29195881 }
  ]},
  { "nodeid": 0, "depth": 0, "split": "CoastLake", "split_condition": 0.0263, "yes": 1, "no": 2, "missing": 1, "gain": 7.84394217, "cover": 23.2698479, "children": [
    { "nodeid": 1, "leaf": 0.0627864003, "cover": 13.4273157 },
    { "nodeid": 2, "leaf": -0.0787835494, "cover": 9.84253216 }
  ]},
  { "nodeid": 0, "depth": 0, "split": "Lux", "split_condition": 0.0263, "yes": 1, "no": 2, "missing": 1, "gain": 18.4408779, "cover": 21.2732925, "children": [
    { "nodeid": 1, "leaf": -0.0995696411, "cover": 6.4302969 },
    { "nodeid": 2, "leaf": 0.142380923, "cover": 14.8429956 }
  ]},
  { "nodeid": 0, "depth": 0, "split": "PlainsRainforest", "split_condition": 0.131600007, "yes": 1, "no": 2, "missing": 1, "gain": 6.71726513, "cover": 17.0824108, "children": [
    { "nodeid": 1, "leaf": -0.0439077355, "cover": 12.9295044 },
    { "nodeid": 2, "leaf": 0.124157019, "cover": 4.15290737 }
  ]},
  { "nodeid": 0, "depth": 0, "split": "PlainsWoods", "split_condition": 0.0263, "yes": 1, "no": 2, "missing": 1, "gain": 13.3664017, "cover": 27.4655399, "children": [
    { "nodeid": 1, "leaf": -0.0403602794, "cover": 13.9980478 },
    { "nodeid": 2, "leaf": 0.129847661, "cover": 13.4674931 }
  ]},
  { "nodeid": 0, "depth": 0, "split": "GrasslandMountain", "split_condition": 0.0263, "yes": 1, "no": 2, "missing": 1, "gain": 10.5667105, "cover": 22.020401, "children": [
    { "nodeid": 1, "leaf": -0.0832089856, "cover": 12.8044586 },
    { "nodeid": 2, "leaf": 0.0855788216, "cover": 9.21594143 }
  ]},
  { "nodeid": 0, "depth": 0, "split": "Grassland", "split_condition": 0.368449986, "yes": 1, "no": 2, "missing": 1, "gain": 18.5246544, "cover": 18.8355198, "children": [
    { "nodeid": 1, "leaf": -0.117498264, "cover": 13.7614326 },
    { "nodeid": 2, "leaf": 0.144225359, "cover": 5.0740881 }
  ]},
  { "nodeid": 0, "depth": 0, "split": "GrasslandHillsWoods", "split_condition": 0.0263, "yes": 1, "no": 2, "missing": 1, "gain": 2.77333307, "cover": 30.443985, "children": [
    { "nodeid": 1, "leaf": 0.0193817131, "cover": 20.5488777 },
    { "nodeid": 2, "leaf": 0.0991663486, "cover": 9.89510727 }
  ]},
  { "nodeid": 0, "depth": 0, "split": "Grassland", "split_condition": 0.184200004, "yes": 1, "no": 2, "missing": 1, "gain": 8.19466782, "cover": 18.4375267, "children": [
    { "nodeid": 1, "leaf": -0.11962451, "cover": 8.48281002 },
    { "nodeid": 2, "leaf": 0.0407916866, "cover": 9.95471668 }
  ]},
  { "nodeid": 0, "depth": 0, "split": "Wheat", "split_condition": 0.0263, "yes": 1, "no": 2, "missing": 1, "gain": 10.3359118, "cover": 22.938755, "children": [
    { "nodeid": 1, "leaf": -0.0161657855, "cover": 14.3571243 },
    { "nodeid": 2, "leaf": 0.151517332, "cover": 8.58163071 }
  ]},
  { "nodeid": 0, "depth": 0, "split": "GrasslandHills", "split_condition": 0.0263, "yes": 1, "no": 2, "missing": 1, "gain": 17.5491219, "cover": 24.5573273, "children": [
    { "nodeid": 1, "leaf": -0.196599931, "cover": 4.92344904 },
    { "nodeid": 2, "leaf": 0.0489966907, "cover": 19.6338768 }
  ]},
  { "nodeid": 0, "depth": 0, "split": "Grassland", "split_condition": 0.184200004, "yes": 1, "no": 2, "missing": 1, "gain": 12.7528763, "cover": 26.6057968, "children": [
    { "nodeid": 1, "leaf": 0.0756290853, "cover": 15.6259518 },
    { "nodeid": 2, "leaf": -0.0945814401, "cover": 10.9798441 }
  ]},
  { "nodeid": 0, "depth": 0, "split": "Lux", "split_condition": 0.0789500028, "yes": 1, "no": 2, "missing": 1, "gain": 7.02204418, "cover": 18.8611183, "children": [
    { "nodeid": 1, "leaf": -0.0653949529, "cover": 8.98412704 },
    { "nodeid": 2, "leaf": 0.0807500035, "cover": 9.87699127 }
  ]},
  { "nodeid": 0, "depth": 0, "split": "Grassland", "split_condition": 0.0263, "yes": 1, "no": 2, "missing": 1, "gain": 5.00141382, "cover": 17.6069508, "children": [
    { "nodeid": 1, "leaf": -0.0870304927, "cover": 4.58645773 },
    { "nodeid": 2, "leaf": 0.0538654551, "cover": 13.0204935 }
  ]},
  { "nodeid": 0, "depth": 0, "split": "Wheat", "split_condition": 0.0789500028, "yes": 1, "no": 2, "missing": 1, "gain": 11.0098925, "cover": 21.8354816, "children": [
    { "nodeid": 1, "leaf": -0.0367193222, "cover": 18.3459167 },
    { "nodeid": 2, "leaf": 0.181898564, "cover": 3.48956442 }
  ]},
  { "nodeid": 0, "depth": 0, "split": "GrasslandHillsWoods", "split_condition": 0.0263, "yes": 1, "no": 2, "missing": 1, "gain": 6.79267263, "cover": 23.0444145, "children": [
    { "nodeid": 1, "leaf": -0.0670895055, "cover": 15.3153086 },
    { "nodeid": 2, "leaf": 0.0706037879, "cover": 7.72910643 }
  ]},
  { "nodeid": 0, "depth": 0, "split": "OtherBonus", "split_condition": 0.0263, "yes": 1, "no": 2, "missing": 1, "gain": 9.95009995, "cover": 19.6655483, "children": [
    { "nodeid": 1, "leaf": -0.0902161822, "cover": 7.21879148 },
    { "nodeid": 2, "leaf": 0.0856395736, "cover": 12.4467564 }
  ]},
  { "nodeid": 0, "depth": 0, "split": "GrasslandHillsWoods", "split_condition": 0.0789500028, "yes": 1, "no": 2, "missing": 1, "gain": 6.52270079, "cover": 18.6416168, "children": [
    { "nodeid": 1, "leaf": -0.0723067224, "cover": 14.757802 },
    { "nodeid": 2, "leaf": 0.0949442908, "cover": 3.88381553 }
  ]},
  { "nodeid": 0, "depth": 0, "split": "Lux", "split_condition": 0.0789500028, "yes": 1, "no": 2, "missing": 1, "gain": 7.70353317, "cover": 16.0078125, "children": [
    { "nodeid": 1, "leaf": -0.0251028538, "cover": 11.7906694 },
    { "nodeid": 2, "leaf": -0.211288586, "cover": 4.21714306 }
  ]},
  { "nodeid": 0, "depth": 0, "split": "Plains", "split_condition": 0.184200004, "yes": 1, "no": 2, "missing": 1, "gain": 12.4239292, "cover": 18.8848457, "children": [
    { "nodeid": 1, "leaf": -0.0632414967, "cover": 10.7485523 },
    { "nodeid": 2, "leaf": 0.132554203, "cover": 8.13629436 }
  ]},
  { "nodeid": 0, "depth": 0, "split": "GrasslandMountain", "split_condition": 0.0263, "yes": 1, "no": 2, "missing": 1, "gain": 8.27092648, "cover": 20.9702492, "children": [
    { "nodeid": 1, "leaf": -0.0418334119, "cover": 12.888485 },
    { "nodeid": 2, "leaf": 0.112743542, "cover": 8.08176517 }
  ]},
  { "nodeid": 0, "depth": 0, "split": "PlainsMountain", "split_condition": 0.0263, "yes": 1, "no": 2, "missing": 1, "gain": 9.27473259, "cover": 21.8416157, "children": [
    { "nodeid": 1, "leaf": -0.0159890316, "cover": 16.7842941 },
    { "nodeid": 2, "leaf": 0.164767161, "cover": 5.05732107 }
  ]},
  { "nodeid": 0, "depth": 0, "split": "Rice", "split_condition": 0.0263, "yes": 1, "no": 2, "missing": 1, "gain": 4.74317265, "cover": 21.9928837, "children": [
    { "nodeid": 1, "leaf": -0.0439926907, "cover": 15.7299232 },
    { "nodeid": 2, "leaf": 0.0777600482, "cover": 6.26296091 }
  ]},
  { "nodeid": 0, "depth": 0, "split": "OtherBonus", "split_condition": 0.0789500028, "yes": 1, "no": 2, "missing": 1, "gain": 6.48851919, "cover": 22.432991, "children": [
    { "nodeid": 1, "leaf": -0.0392836928, "cover": 13.4528856 },
    { "nodeid": 2, "leaf": 0.0927063227, "cover": 8.9801054 }
  ]},
  { "nodeid": 0, "depth": 0, "split": "PlainsMountain", "split_condition": 0.0263, "yes": 1, "no": 2, "missing": 1, "gain": 4.55056143, "cover": 20.22365, "children": [
    { "nodeid": 1, "leaf": -0.0400188528, "cover": 12.4571781 },
    { "nodeid": 2, "leaf": 0.0764513239, "cover": 7.76647186 }
  ]},
  { "nodeid": 0, "depth": 0, "split": "Desert", "split_condition": 0.131600007, "yes": 1, "no": 2, "missing": 1, "gain": 11.9206276, "cover": 16.0959682, "children": [
    { "nodeid": 1, "leaf": -0.0805411115, "cover": 12.6875229 },
    { "nodeid": 2, "leaf": 0.157584623, "cover": 3.40844536 }
  ]},
  { "nodeid": 0, "depth": 0, "split": "GrasslandHillsWoods", "split_condition": 0.0789500028, "yes": 1, "no": 2, "missing": 1, "gain": 9.4539566, "cover": 16.6564293, "children": [
    { "nodeid": 1, "leaf": -0.0761269778, "cover": 12.084444 },
    { "nodeid": 2, "leaf": 0.119698226, "cover": 4.57198477 }
  ]},
  { "nodeid": 0, "depth": 0, "split": "DesertHills", "split_condition": 0.0263, "yes": 1, "no": 2, "missing": 1, "gain": 16.4060879, "cover": 24.92873, "children": [
    { "nodeid": 1, "leaf": 0.0973730236, "cover": 21.3542538 },
    { "nodeid": 2, "leaf": -0.165481299, "cover": 3.57447624 }
  ]},
  { "nodeid": 0, "depth": 0, "split": "PlainsRainforest", "split_condition": 0.0263, "yes": 1, "no": 2, "missing": 1, "gain": 7.97010231, "cover": 17.018259, "children": [
    { "nodeid": 1, "leaf": -0.0271302462, "cover": 8.32048035 },
    { "nodeid": 2, "leaf": 0.137933373, "cover": 8.6977787 }
  ]},
  { "nodeid": 0, "depth": 0, "split": "GrasslandHills", "split_condition": 0.0789500028, "yes": 1, "no": 2, "missing": 1, "gain": 5.73352766, "cover": 18.377739, "children": [
    { "nodeid": 1, "leaf": -0.0576378033, "cover": 9.26681423 },
    { "nodeid": 2, "leaf": 0.0758416802, "cover": 9.11092567 }
  ]},
  { "nodeid": 0, "depth": 0, "split": "PlainsMountain", "split_condition": 0.0263, "yes": 1, "no": 2, "missing": 1, "gain": 7.02915478, "cover": 20.5660667, "children": [
    { "nodeid": 1, "leaf": -0.0117808683, "cover": 15.313324 },
    { "nodeid": 2, "leaf": 0.145796403, "cover": 5.25274324 }
  ]},
  { "nodeid": 0, "depth": 0, "split": "Grassland", "split_condition": 0.289499998, "yes": 1, "no": 2, "missing": 1, "gain": 11.0936623, "cover": 19.5404167, "children": [
    { "nodeid": 1, "leaf": 0.0636842474, "cover": 14.0444574 },
    { "nodeid": 2, "leaf": -0.132983223, "cover": 5.49595976 }
  ]},
  { "nodeid": 0, "depth": 0, "split": "PlainsRainforest", "split_condition": 0.157900006, "yes": 1, "no": 2, "missing": 1, "gain": 6.58385086, "cover": 25.1700478, "children": [
    { "nodeid": 1, "leaf": 0.134892315, "cover": 21.6639938 },
    { "nodeid": 2, "leaf": -0.0405933894, "cover": 3.50605392 }
  ]},
  { "nodeid": 0, "depth": 0, "split": "Rice", "split_condition": 0.0263, "yes": 1, "no": 2, "missing": 1, "gain": 2.892097, "cover": 18.5519047, "children": [
    { "nodeid": 1, "leaf": -0.095343262, "cover": 14.1264801 },
    { "nodeid": 2, "leaf": 0.0168711171, "cover": 4.42542362 }
  ]},
  { "nodeid": 0, "depth": 0, "split": "Grassland", "split_condition": 0.0789500028, "yes": 1, "no": 2, "missing": 1, "gain": 15.1862326, "cover": 23.7281895, "children": [
    { "nodeid": 1, "leaf": -0.073518239, "cover": 6.23442173 },
    { "nodeid": 2, "leaf": 0.144601062, "cover": 17.4937687 }
  ]},
  { "nodeid": 0, "depth": 0, "split": "GrasslandMountain", "split_condition": 0.0263, "yes": 1, "no": 2, "missing": 1, "gain": 9.64016342, "cover": 23.6336594, "children": [
    { "nodeid": 1, "leaf": 0.0702759698, "cover": 16.1352215 },
    { "nodeid": 2, "leaf": -0.0936928242, "cover": 7.49843836 }
  ]},
  { "nodeid": 0, "depth": 0, "split": "GrasslandMarsh", "split_condition": 0.0789500028, "yes": 1, "no": 2, "missing": 1, "gain": 6.90578938, "cover": 21.254179, "children": [
    { "nodeid": 1, "leaf": -0.0134731168, "cover": 17.2608852 },
    { "nodeid": 2, "leaf": 0.153828606, "cover": 3.99329352 }
  ]},
  { "nodeid": 0, "depth": 0, "split": "Stone", "split_condition": 0.0263, "yes": 1, "no": 2, "missing": 1, "gain": 6.90897799, "cover": 21.2128525, "children": [
    { "nodeid": 1, "leaf": -0.0251261964, "cover": 12.00669 },
    { "nodeid": 2, "leaf": 0.113961414, "cover": 9.20616245 }
  ]},
  { "nodeid": 0, "depth": 0, "split": "Desert", "split_condition": 0.0789500028, "yes": 1, "no": 2, "missing": 1, "gain": 8.83887005, "cover": 21.2878876, "children": [
    { "nodeid": 1, "leaf": -0.0489749461, "cover": 17.0905437 },
    { "nodeid": 2, "leaf": 0.137143627, "cover": 4.19734526 }
  ]},
  { "nodeid": 0, "depth": 0, "split": "CoastLake", "split_condition": 0.184200004, "yes": 1, "no": 2, "missing": 1, "gain": 17.5092506, "cover": 23.941864, "children": [
    { "nodeid": 1, "leaf": 0.109026767, "cover": 20.827795 },
    { "nodeid": 2, "leaf": -0.175972849, "cover": 3.11406946 }
  ]},
  { "nodeid": 0, "depth": 0, "split": "DesertHills", "split_condition": 0.0263, "yes": 1, "no": 2, "missing": 1, "gain": 7.70559454, "cover": 20.9753838, "children": [
    { "nodeid": 1, "leaf": -0.00756971585, "cover": 17.9100456 },
    { "nodeid": 2, "leaf": 0.183845997, "cover": 3.06533837 }
  ]},
  { "nodeid": 0, "depth": 0, "split": "GrasslandMountain", "split_condition": 0.0263, "yes": 1, "no": 2, "missing": 1, "gain": 1.07925344, "cover": 16.7971115, "children": [
    { "nodeid": 1, "leaf": -0.0551863238, "cover": 9.78550911 },
    { "nodeid": 2, "leaf": 0.00727006281, "cover": 7.0116024 }
  ]},
  { "nodeid": 0, "depth": 0, "split": "PlainsHillsRainforest", "split_condition": 0.0263, "yes": 1, "no": 2, "missing": 1, "gain": 6.51109171, "cover": 22.2941513, "children": [
    { "nodeid": 1, "leaf": -0.0342447571, "cover": 13.9719982 },
    { "nodeid": 2, "leaf": 0.099841103, "cover": 8.32215405 }
  ]},
  { "nodeid": 0, "depth": 0, "split": "GrasslandWoods", "split_condition": 0.0789500028, "yes": 1, "no": 2, "missing": 1, "gain": 5.50848246, "cover": 16.8399525, "children": [
    { "nodeid": 1, "leaf": -0.0782665461, "cover": 8.57304192 },
    { "nodeid": 2, "leaf": 0.0578631312, "cover": 8.26691055 }
  ]},
  { "nodeid": 0, "depth": 0, "split": "PlainsWoods", "split_condition": 0.0789500028, "yes": 1, "no": 2, "missing": 1, "gain": 9.36022758, "cover": 21.3744984, "children": [
    { "nodeid": 1, "leaf": -0.0303869955, "cover": 13.2921553 },
    { "nodeid": 2, "leaf": 0.133525655, "cover": 8.08234215 }
  ]},
  { "nodeid": 0, "depth": 0, "split": "PlainsWoods", "split_condition": 0.0263, "yes": 1, "no": 2, "missing": 1, "gain": 3.51614356, "cover": 18.6772366, "children": [
    { "nodeid": 1, "leaf": -0.0421767831, "cover": 9.23077297 },
    { "nodeid": 2, "leaf": 0.0616541952, "cover": 9.44646454 }
  ]},
  { "nodeid": 0, "depth": 0, "split": "Grassland", "split_condition": 0.552600026, "yes": 1, "no": 2, "missing": 1, "gain": 10.969841, "cover": 24.7905693, "children": [
    { "nodeid": 1, "leaf": 0.0136245396, "cover": 21.2598763 },
    { "nodeid": 2, "leaf": 0.229922682, "cover": 3.53069401 }
  ]},
  { "nodeid": 0, "depth": 0, "split": "GrasslandHillsWoods", "split_condition": 0.0263, "yes": 1, "no": 2, "missing": 1, "gain": 6.04626179, "cover": 17.1733952, "children": [
    { "nodeid": 1, "leaf": -0.0924170911, "cover": 9.21285534 },
    { "nodeid": 2, "leaf": 0.0496590585, "cover": 7.96053982 }
  ]},
  { "nodeid": 0, "depth": 0, "split": "GrasslandHillsWoods", "split_condition": 0.0263, "yes": 1, "no": 2, "missing": 1, "gain": 15.212122, "cover": 18.3099785, "children": [
    { "nodeid": 1, "leaf": -0.132630542, "cover": 7.2675848 },
    { "nodeid": 2, "leaf": 0.0889127105, "cover": 11.0423937 }
  ]},
  { "nodeid": 0, "depth": 0, "split": "Lux", "split_condition": 0.0789500028, "yes": 1, "no": 2, "missing": 1, "gain": 4.06572008, "cover": 14.9583263, "children": [
    { "nodeid": 1, "leaf": -0.0227719638, "cover": 9.43725777 },
    { "nodeid": 2, "leaf": 0.104521416, "cover": 5.52106857 }
  ]},
  { "nodeid": 0, "depth": 0, "split": "Grassland", "split_condition": 0.184200004, "yes": 1, "no": 2, "missing": 1, "gain": 8.97646713, "cover": 22.0174446, "children": [
    { "nodeid": 1, "leaf": 0.0668709874, "cover": 14.3626795 },
    { "nodeid": 2, "leaf": -0.0933212712, "cover": 7.65476608 }
  ]},
  { "nodeid": 0, "depth": 0, "split": "PlainsWoods", "split_condition": 0.0263, "yes": 1, "no": 2, "missing": 1, "gain": 11.3909082, "cover": 19.2629795, "children": [
    { "nodeid": 1, "leaf": 0.0913858414, "cover": 13.0787849 },
    { "nodeid": 2, "leaf": -0.10359592, "cover": 6.18419504 }
  ]},
  { "nodeid": 0, "depth": 0, "split": "DesertHills", "split_condition": 0.0789500028, "yes": 1, "no": 2, "missing": 1, "gain": 19.8669777, "cover": 14.9608145, "children": [
    { "nodeid": 1, "leaf": -0.0821583495, "cover": 11.4638548 },
    { "nodeid": 2, "leaf": 0.226200759, "cover": 3.49695921 }
  ]},
  { "nodeid": 0, "depth": 0, "split": "GrasslandHills", "split_condition": 0.131600007, "yes": 1, "no": 2, "missing": 1, "gain": 3.53298473, "cover": 19.9494686, "children": [
    { "nodeid": 1, "leaf": 0.0864442661, "cover": 16.5251026 },
    { "nodeid": 2, "leaf": -0.04353562, "cover": 3.42436552 }
  ]},
  { "nodeid": 0, "depth": 0, "split": "CoastLake", "split_condition": 0.0789500028, "yes": 1, "no": 2, "missing": 1, "gain": 14.5223284, "cover": 23.4265347, "children": [
    { "nodeid": 1, "leaf": -0.0758785382, "cover": 11.947382 },
    { "nodeid": 2, "leaf": 0.114374824, "cover": 11.4791517 }
  ]},
  { "nodeid": 0, "depth": 0, "split": "Plains", "split_condition": 0.0789500028, "yes": 1, "no": 2, "missing": 1, "gain": 11.3458128, "cover": 20.7554626, "children": [
    { "nodeid": 1, "leaf": -0.133372068, "cover": 9.38743687 },
    { "nodeid": 2, "leaf": 0.0455867089, "cover": 11.3680248 }
  ]},
  { "nodeid": 0, "depth": 0, "split": "Wheat", "split_condition": 0.0263, "yes": 1, "no": 2, "missing": 1, "gain": 13.7211571, "cover": 20.716156, "children": [
    { "nodeid": 1, "leaf": -0.0319695696, "cover": 12.1365747 },
    { "nodeid": 2, "leaf": 0.167243481, "cover": 8.57958031 }
  ]},
  { "nodeid": 0, "depth": 0, "split": "PlainsHillsRainforest", "split_condition": 0.0263, "yes": 1, "no": 2, "missing": 1, "gain": 8.17274094, "cover": 21.017662, "children": [
    { "nodeid": 1, "leaf": -0.051041957, "cover": 12.028307 },
    { "nodeid": 2, "leaf": 0.100289993, "cover": 8.98935509 }
  ]},
  { "nodeid": 0, "depth": 0, "split": "Rice", "split_condition": 0.0263, "yes": 1, "no": 2, "missing": 1, "gain": 5.81758404, "cover": 16.2202015, "children": [
    { "nodeid": 1, "leaf": 0.0256720446, "cover": 11.4331627 },
    { "nodeid": 2, "leaf": 0.183269486, "cover": 4.7870388 }
  ]},
  { "nodeid": 0, "depth": 0, "split": "GrasslandWoods", "split_condition": 0.0789500028, "yes": 1, "no": 2, "missing": 1, "gain": 8.21767712, "cover": 19.940218, "children": [
    { "nodeid": 1, "leaf": -0.0396265388, "cover": 12.6857233 },
    { "nodeid": 2, "leaf": 0.119515672, "cover": 7.25449419 }
  ]},
  { "nodeid": 0, "depth": 0, "split": "Stone", "split_condition": 0.0789500028, "yes": 1, "no": 2, "missing": 1, "gain": 6.62956524, "cover": 19.9520721, "children": [
    { "nodeid": 1, "leaf": -0.0257767066, "cover": 15.249918 },
    { "nodeid": 2, "leaf": 0.132017016, "cover": 4.70215416 }
  ]},
  { "nodeid": 0, "depth": 0, "split": "Lux", "split_condition": 0.0789500028, "yes": 1, "no": 2, "missing": 1, "gain": 7.69310999, "cover": 19.4454021, "children": [
    { "nodeid": 1, "leaf": -0.0176949203, "cover": 13.4965191 },
    { "nodeid": 2, "leaf": 0.144086078, "cover": 5.94888401 }
  ]},
  { "nodeid": 0, "depth": 0, "split": "Cattle", "split_condition": 0.0263, "yes": 1, "no": 2, "missing": 1, "gain": 6.2174921, "cover": 17.0470505, "children": [
    { "nodeid": 1, "leaf": -0.0878828987, "cover": 13.7917175 },
    { "nodeid": 2, "leaf": 0.086816147, "cover": 3.25533319 }
  ]},
  { "nodeid": 0, "depth": 0, "split": "GrasslandMarsh", "split_condition": 0.0263, "yes": 1, "no": 2, "missing": 1, "gain": 4.61457539, "cover": 16.8500042, "children": [
    { "nodeid": 1, "leaf": -0.0802388713, "cover": 9.77432156 },
    { "nodeid": 2, "leaf": 0.0461242497, "cover": 7.07568312 }
  ]},
  { "nodeid": 0, "depth": 0, "split": "Desert", "split_condition": 0.131600007, "yes": 1, "no": 2, "missing": 1, "gain": 6.99668312, "cover": 20.2147083, "children": [
    { "nodeid": 1, "leaf": -0.028962234, "cover": 16.7324524 },
    { "nodeid": 2, "leaf": 0.14694123, "cover": 3.48225451 }
  ]},
  { "nodeid": 0, "depth": 0, "split": "Lux", "split_condition": 0.0789500028, "yes": 1, "no": 2, "missing": 1, "gain": 13.6471329, "cover": 19.7139244, "children": [
    { "nodeid": 1, "leaf": 0.0961655453, "cover": 16.0776062 },
    { "nodeid": 2, "leaf": -0.148274586, "cover": 3.63631821 }
  ]},
  { "nodeid": 0, "depth": 0, "split": "CoastLake", "split_condition": 0.0263, "yes": 1, "no": 2, "missing": 1, "gain": 11.7918119, "cover": 13.8935251, "children": [
    { "nodeid": 1, "leaf": 0.0402654186, "cover": 9.84036636 },
    { "nodeid": 2, "leaf": -0.193121418, "cover": 4.05315876 }
  ]},
  { "nodeid": 0, "depth": 0, "split": "PlainsHillsWoods", "split_condition": 0.0263, "yes": 1, "no": 2, "missing": 1, "gain": 15.8576679, "cover": 27.9560204, "children": [
    { "nodeid": 1, "leaf": 0.0141249858, "cover": 19.404501 },
    { "nodeid": 2, "leaf": 0.212885305, "cover": 8.55151939 }
  ]},
  { "nodeid": 0, "depth": 0, "split": "CoastLake", "split_condition": 0.236850008, "yes": 1, "no": 2, "missing": 1, "gain": 8.10175419, "cover": 16.1362705, "children": [
    { "nodeid": 1, "leaf": -0.0597419403, "cover": 11.5150328 },
    { "nodeid": 2, "leaf": 0.122021049, "cover": 4.6212368 }
  ]},
  { "nodeid": 0, "depth": 0, "split": "GrasslandWoods", "split_condition": 0.0789500028, "yes": 1, "no": 2, "missing": 1, "gain": 7.54339123, "cover": 19.8121052, "children": [
    { "nodeid": 1, "leaf": -0.041136086, "cover": 12.4846773 },
    { "nodeid": 2, "leaf": 0.111291572, "cover": 7.32742882 }
  ]},
  { "nodeid": 0, "depth": 0, "split": "PlainsRainforest", "split_condition": 0.0263, "yes": 1, "no": 2, "missing": 1, "gain": 6.06342125, "cover": 15.6194286, "children": [
    { "nodeid": 1, "leaf": -0.133152336, "cover": 6.79115343 },
    { "nodeid": 2, "leaf": 0.0173698012, "cover": 8.82827473 }
  ]},
  { "nodeid": 0, "depth": 0, "split": "Grassland", "split_condition": 0.131600007, "yes": 1, "no": 2, "missing": 1, "gain": 10.0436878, "cover": 20.0581341, "children": [
    { "nodeid": 1, "leaf": 0.151004195, "cover": 11.8545084 },
    { "nodeid": 2, "leaf": -0.0244932231, "cover": 8.20362663 }
  ]},
  { "nodeid": 0, "depth": 0, "split": "Cattle", "split_condition": 0.0263, "yes": 1, "no": 2, "missing": 1, "gain": 9.13835335, "cover": 15.2436857, "children": [
    { "nodeid": 1, "leaf": -0.0473630466, "cover": 11.2575626 },
    { "nodeid": 2, "leaf": 0.154665813, "cover": 3.98612309 }
  ]},
  { "nodeid": 0, "depth": 0, "split": "CoastLake", "split_condition": 0.131600007, "yes": 1, "no": 2, "missing": 1, "gain": 8.07921696, "cover": 20.4580555, "children": [
    { "nodeid": 1, "leaf": 0.0472225994, "cover": 17.4421425 },
    { "nodeid": 2, "leaf": -0.149739221, "cover": 3.01591253 }
  ]},
  { "nodeid": 0, "depth": 0, "split": "CoastLake", "split_condition": 0.184200004, "yes": 1, "no": 2, "missing": 1, "gain": 4.99697113, "cover": 15.7280331, "children": [
    { "nodeid": 1, "leaf": -0.0636287034, "cover": 9.91188622 },
    { "nodeid": 2, "leaf": 0.0737304911, "cover": 5.81614733 }
  ]},
  { "nodeid": 0, "depth": 0, "split": "GrasslandWoods", "split_condition": 0.131600007, "yes": 1, "no": 2, "missing": 1, "gain": 4.77709627, "cover": 18.6553669, "children": [
    { "nodeid": 1, "leaf": -0.00388558023, "cover": 14.4147644 },
    { "nodeid": 2, "leaf": 0.136070579, "cover": 4.24060297 }
  ]},
  { "nodeid": 0, "depth": 0, "split": "PlainsHillsRainforest", "split_condition": 0.0263, "yes": 1, "no": 2, "missing": 1, "gain": 6.18898344, "cover": 16.7162285, "children": [
    { "nodeid": 1, "leaf": 0.0638378561, "cover": 10.3455162 },
    { "nodeid": 2, "leaf": -0.084201403, "cover": 6.37071371 }
  ]},
  { "nodeid": 0, "depth": 0, "split": "PlainsRainforest", "split_condition": 0.0263, "yes": 1, "no": 2, "missing": 1, "gain": 7.30998611, "cover": 19.9868183, "children": [
    { "nodeid": 1, "leaf": -0.0649800301, "cover": 8.67917061 },
    { "nodeid": 2, "leaf": 0.0812871829, "cover": 11.3076477 }
  ]},
  { "nodeid": 0, "depth": 0, "split": "Grassland", "split_condition": 0.236850008, "yes": 1, "no": 2, "missing": 1, "gain": 7.68837643, "cover": 14.6121798, "children": [
    { "nodeid": 1, "leaf": 0.0210704282, "cover": 10.0097666 },
    { "nodeid": 2, "leaf": -0.161187202, "cover": 4.60241365 }
  ]},
  { "nodeid": 0, "depth": 0, "split": "PlainsHillsWoods", "split_condition": 0.0263, "yes": 1, "no": 2, "missing": 1, "gain": 8.42141056, "cover": 16.9330273, "children": [
    { "nodeid": 1, "leaf": -0.0453943945, "cover": 11.3322439 },
    { "nodeid": 2, "leaf": 0.13079457, "cover": 5.60078287 }
  ]},
  { "nodeid": 0, "depth": 0, "split": "DesertFloodplains", "split_condition": 0.0263, "yes": 1, "no": 2, "missing": 1, "gain": 6.95456553, "cover": 16.4249535, "children": [
    { "nodeid": 1, "leaf": -0.0404366143, "cover": 12.5118341 },
    { "nodeid": 2, "leaf": 0.134320468, "cover": 3.91311884 }
  ]},
  { "nodeid": 0, "depth": 0, "split": "CoastLake", "split_condition": 0.0263, "yes": 1, "no": 2, "missing": 1, "gain": 5.17558002, "cover": 17.2565422, "children": [
    { "nodeid": 1, "leaf": -0.0119662154, "cover": 10.18818 },
    { "nodeid": 2, "leaf": 0.121823162, "cover": 7.06836176 }
  ]},
  { "nodeid": 0, "depth": 0, "split": "Wheat", "split_condition": 0.0263, "yes": 1, "no": 2, "missing": 1, "gain": 7.55673838, "cover": 20.8261719, "children": [
    { "nodeid": 1, "leaf": -0.00455463119, "cover": 11.6617107 },
    { "nodeid": 2, "leaf": 0.143418178, "cover": 9.16446114 }
  ]},
  { "nodeid": 0, "depth": 0, "split": "OtherBonus", "split_condition": 0.0789500028, "yes": 1, "no": 2, "missing": 1, "gain": 5.86671162, "cover": 18.2907619, "children": [
    { "nodeid": 1, "leaf": 0.0851010606, "cover": 13.8521118 },
    { "nodeid": 2, "leaf": -0.0692176595, "cover": 4.43865013 }
  ]},
  { "nodeid": 0, "depth": 0, "split": "GrasslandHills", "split_condition": 0.0789500028, "yes": 1, "no": 2, "missing": 1, "gain": 8.04171753, "cover": 20.6752472, "children": [
    { "nodeid": 1, "leaf": -0.066560939, "cover": 11.5960073 },
    { "nodeid": 2, "leaf": 0.0841599703, "cover": 9.07923985 }
  ]},
  { "nodeid": 0, "depth": 0, "split": "Rice", "split_condition": 0.0263, "yes": 1, "no": 2, "missing": 1, "gain": 5.23676682, "cover": 20.8150406, "children": [
    { "nodeid": 1, "leaf": -0.0173359457, "cover": 14.867878 },
    { "nodeid": 2, "leaf": 0.114015721, "cover": 5.94716167 }
  ]},
  { "nodeid": 0, "depth": 0, "split": "CoastLake", "split_condition": 0.0263, "yes": 1, "no": 2, "missing": 1, "gain": 10.4600639, "cover": 19.1882401, "children": [
    { "nodeid": 1, "leaf": -0.103087097, "cover": 8.71607304 },
    { "nodeid": 2, "leaf": 0.0742779896, "cover": 10.472167 }
  ]},
  { "nodeid": 0, "depth": 0, "split": "Grassland", "split_condition": 0.236850008, "yes": 1, "no": 2, "missing": 1, "gain": 5.55064344, "cover": 20.6933632, "children": [
    { "nodeid": 1, "leaf": -0.0199165028, "cover": 11.6892185 },
    { "nodeid": 2, "leaf": 0.106308348, "cover": 9.00414467 }
  ]},
  { "nodeid": 0, "depth": 0, "split": "PlainsRainforest", "split_condition": 0.0263, "yes": 1, "no": 2, "missing": 1, "gain": 8.19088364, "cover": 18.6515865, "children": [
    { "nodeid": 1, "leaf": 0.0584992729, "cover": 12.1627283 },
    { "nodeid": 2, "leaf": -0.106247574, "cover": 6.48885918 }
  ]},
  { "nodeid": 0, "depth": 0, "split": "Grassland", "split_condition": 0.394749999, "yes": 1, "no": 2, "missing": 1, "gain": 11.2638979, "cover": 19.6547031, "children": [
    { "nodeid": 1, "leaf": -0.0485102832, "cover": 13.0153084 },
    { "nodeid": 2, "leaf": 0.141501576, "cover": 6.63939428 }
  ]},
  { "nodeid": 0, "depth": 0, "split": "PlainsWoods", "split_condition": 0.0263, "yes": 1, "no": 2, "missing": 1, "gain": 7.61925125, "cover": 24.3290615, "children": [
    { "nodeid": 1, "leaf": -0.0143717667, "cover": 12.0200777 },
    { "nodeid": 2, "leaf": 0.122692242, "cover": 12.3089838 }
  ]},
  { "nodeid": 0, "depth": 0, "split": "PlainsWoods", "split_condition": 0.0789500028, "yes": 1, "no": 2, "missing": 1, "gain": 15.4849014, "cover": 19.1443691, "children": [
    { "nodeid": 1, "leaf": -0.117912047, "cover": 12.2180643 },
    { "nodeid": 2, "leaf": 0.104973204, "cover": 6.92630386 }
  ]},
  { "nodeid": 0, "depth": 0, "split": "PlainsHillsRainforest", "split_condition": 0.0263, "yes": 1, "no": 2, "missing": 1, "gain": 6.57898855, "cover": 18.5716648, "children": [
    { "nodeid": 1, "leaf": 0.0358147286, "cover": 13.7304239 },
    { "nodeid": 2, "leaf": -0.121977054, "cover": 4.84124088 }
  ]},
  { "nodeid": 0, "depth": 0, "split": "GrasslandWoods", "split_condition": 0.0263, "yes": 1, "no": 2, "missing": 1, "gain": 9.55138493, "cover": 16.836153, "children": [
    { "nodeid": 1, "leaf": 0.00950764399, "cover": 10.7879419 },
    { "nodeid": 2, "leaf": -0.177919596, "cover": 6.04821062 }
  ]},
  { "nodeid": 0, "depth": 0, "split": "GrasslandHills", "split_condition": 0.131600007, "yes": 1, "no": 2, "missing": 1, "gain": 4.5397253, "cover": 20.816164, "children": [
    { "nodeid": 1, "leaf": 0.116125897, "cover": 17.3089085 },
    { "nodeid": 2, "leaf": -0.0323017612, "cover": 3.50725627 }
  ]},
  { "nodeid": 0, "depth": 0, "split": "GrasslandWoods", "split_condition": 0.131600007, "yes": 1, "no": 2, "missing": 1, "gain": 10.1678009, "cover": 16.3240891, "children": [
    { "nodeid": 1, "leaf": -0.0930985287, "cover": 11.5883856 },
    { "nodeid": 2, "leaf": 0.109508209, "cover": 4.73570347 }
  ]},
  { "nodeid": 0, "depth": 0, "split": "Plains", "split_condition": 0.0263, "yes": 1, "no": 2, "missing": 1, "gain": 7.79440069, "cover": 19.0563946, "children": [
    { "nodeid": 1, "leaf": 0.106072135, "cover": 7.00631714 },
    { "nodeid": 2, "leaf": -0.0515955016, "cover": 12.0500774 }
  ]},
  { "nodeid": 0, "depth": 0, "split": "PlainsWoods", "split_condition": 0.0263, "yes": 1, "no": 2, "missing": 1, "gain": 9.47759151, "cover": 20.7789631, "children": [
    { "nodeid": 1, "leaf": -0.1223948, "cover": 8.08418655 },
    { "nodeid": 2, "leaf": 0.0435723215, "cover": 12.6947765 }
  ]},
  { "nodeid": 0, "depth": 0, "split": "Desert", "split_condition": 0.0263, "yes": 1, "no": 2, "missing": 1, "gain": 7.14634323, "cover": 21.4604359, "children": [
    { "nodeid": 1, "leaf": 0.137399182, "cover": 17.8954067 },
    { "nodeid": 2, "leaf": -0.0461199358, "cover": 3.5650301 }
  ]},
  { "nodeid": 0, "depth": 0, "split": "PlainsWoods", "split_condition": 0.0263, "yes": 1, "no": 2, "missing": 1, "gain": 15.8542891, "cover": 15.1431608, "children": [
    { "nodeid": 1, "leaf": -0.16790016, "cover": 4.82585621 },
    { "nodeid": 2, "leaf": 0.0874410644, "cover": 10.3173046 }
  ]},
  { "nodeid": 0, "depth": 0, "split": "Rice", "split_condition": 0.0263, "yes": 1, "no": 2, "missing": 1, "gain": 6.59916306, "cover": 13.9093714, "children": [
    { "nodeid": 1, "leaf": -0.0732213929, "cover": 9.57861328 },
    { "nodeid": 2, "leaf": 0.0985925198, "cover": 4.33075809 }
  ]},
  { "nodeid": 0, "depth": 0, "split": "Grassland", "split_condition": 0.184200004, "yes": 1, "no": 2, "missing": 1, "gain": 4.41145515, "cover": 19.625288, "children": [
    { "nodeid": 1, "leaf": 0.184177265, "cover": 12.4142733 },
    { "nodeid": 2, "leaf": 0.052267123, "cover": 7.21101475 }
  ]},
  { "nodeid": 0, "depth": 0, "split": "GrasslandHillsWoods", "split_condition": 0.0789500028, "yes": 1, "no": 2, "missing": 1, "gain": 9.0574379, "cover": 16.0356121, "children": [
    { "nodeid": 1, "leaf": -0.0926004201, "cover": 10.3690491 },
    { "nodeid": 2, "leaf": 0.0924314111, "cover": 5.66656351 }
  ]},
  { "nodeid": 0, "depth": 0, "split": "PlainsRainforest", "split_condition": 0.184200004, "yes": 1, "no": 2, "missing": 1, "gain": 8.32723904, "cover": 17.7818508, "children": [
    { "nodeid": 1, "leaf": -0.0280982982, "cover": 14.3054895 },
    { "nodeid": 2, "leaf": 0.167110384, "cover": 3.47636175 }
  ]},
  { "nodeid": 0, "depth": 0, "split": "GrasslandHills", "split_condition": 0.131600007, "yes": 1, "no": 2, "missing": 1, "gain": 12.2488279, "cover": 23.2776432, "children": [
    { "nodeid": 1, "leaf": -0.0594350062, "cover": 14.6253901 },
    { "nodeid": 2, "leaf": 0.120801046, "cover": 8.6522541 }
  ]},
  { "nodeid": 0, "depth": 0, "split": "GrasslandHills", "split_condition": 0.0789500028, "yes": 1, "no": 2, "missing": 1, "gain": 9.48929405, "cover": 13.074502, "children": [
    { "nodeid": 1, "leaf": -0.117897645, "cover": 5.70443153 },
    { "nodeid": 2, "leaf": 0.0829234347, "cover": 7.37007046 }
  ]},
  { "nodeid": 0, "depth": 0, "split": "Grassland", "split_condition": 0.236850008, "yes": 1, "no": 2, "missing": 1, "gain": 8.23377609, "cover": 22.3176937, "children": [
    { "nodeid": 1, "leaf": 0.100949444, "cover": 17.0991669 },
    { "nodeid": 2, "leaf": -0.0689975768, "cover": 5.21852589 }
  ]},
  { "nodeid": 0, "depth": 0, "split": "GrasslandMountain", "split_condition": 0.0263, "yes": 1, "no": 2, "missing": 1, "gain": 6.38098717, "cover": 20.9322376, "children": [
    { "nodeid": 1, "leaf": 0.0971225649, "cover": 14.6851549 },
    { "nodeid": 2, "leaf": -0.0475084856, "cover": 6.24708271 }
  ]},
  { "nodeid": 0, "depth": 0, "split": "GrasslandHillsWoods", "split_condition": 0.0263, "yes": 1, "no": 2, "missing": 1, "gain": 8.84591293, "cover": 17.4378948, "children": [
    { "nodeid": 1, "leaf": 0.0501118489, "cover": 13.2177181 },
    { "nodeid": 2, "leaf": -0.141311198, "cover": 4.22017717 }
  ]},
  { "nodeid": 0, "depth": 0, "split": "Grassland", "split_condition": 0.236850008, "yes": 1, "no": 2, "missing": 1, "gain": 17.4770279, "cover": 15.568222, "children": [
    { "nodeid": 1, "leaf": -0.114489377, "cover": 7.03669691 },
    { "nodeid": 2, "leaf": 0.137535021, "cover": 8.53152466 }
  ]},
  { "nodeid": 0, "depth": 0, "split": "OtherBonus", "split_condition": 0.131600007, "yes": 1, "no": 2, "missing": 1, "gain": 11.268012, "cover": 16.9700165, "children": [
    { "nodeid": 1, "leaf": -0.086746715, "cover": 12.1996355 },
    { "nodeid": 2, "leaf": 0.124252707, "cover": 4.77038145 }
  ]},
  { "nodeid": 0, "depth": 0, "split": "Plains", "split_condition": 0.0789500028, "yes": 1, "no": 2, "missing": 1, "gain": 5.22055674, "cover": 27.2103195, "children": [
    { "nodeid": 1, "leaf": -0.0124511793, "cover": 12.3432961 },
    { "nodeid": 2, "leaf": 0.0957073644, "cover": 14.8670244 }
  ]},
  { "nodeid": 0, "depth": 0, "split": "PlainsHillsRainforest", "split_condition": 0.0263, "yes": 1, "no": 2, "missing": 1, "gain": 7.10491514, "cover": 20.7621822, "children": [
    { "nodeid": 1, "leaf": 0.114258565, "cover": 13.5013514 },
    { "nodeid": 2, "leaf": -0.034321107, "cover": 7.26083183 }
  ]},
  { "nodeid": 0, "depth": 0, "split": "GrasslandMountain", "split_condition": 0.0789500028, "yes": 1, "no": 2, "missing": 1, "gain": 11.0114899, "cover": 18.8869114, "children": [
    { "nodeid": 1, "leaf": -0.0886467546, "cover": 15.4874697 },
    { "nodeid": 2, "leaf": 0.136441484, "cover": 3.39944267 }
  ]},
  { "nodeid": 0, "depth": 0, "split": "Horses", "split_condition": 0.0263, "yes": 1, "no": 2, "missing": 1, "gain": 4.77421951, "cover": 19.6442776, "children": [
    { "nodeid": 1, "leaf": -0.0210141242, "cover": 14.0833025 },
    { "nodeid": 2, "leaf": 0.10778746, "cover": 5.56097603 }
  ]},
  { "nodeid": 0, "depth": 0, "split": "OtherBonus", "split_condition": 0.0263, "yes": 1, "no": 2, "missing": 1, "gain": 15.9727669, "cover": 22.9553719, "children": [
    { "nodeid": 1, "leaf": -0.113178611, "cover": 5.78956795 },
    { "nodeid": 2, "leaf": 0.114181668, "cover": 17.1658039 }
  ]},
  { "nodeid": 0, "depth": 0, "split": "Lux", "split_condition": 0.0263, "yes": 1, "no": 2, "missing": 1, "gain": 6.80211163, "cover": 16.0343323, "children": [
    { "nodeid": 1, "leaf": -0.161446899, "cover": 3.34553766 },
    { "nodeid": 2, "leaf": 0.0196644142, "cover": 12.6887951 }
  ]},
  { "nodeid": 0, "depth": 0, "split": "CoastLake", "split_condition": 0.0263, "yes": 1, "no": 2, "missing": 1, "gain": 2.82616782, "cover": 14.7053747, "children": [
    { "nodeid": 1, "leaf": 0.0699267015, "cover": 9.27229786 },
    { "nodeid": 2, "leaf": -0.0374033973, "cover": 5.43307686 }
  ]},
  { "nodeid": 0, "depth": 0, "split": "OtherBonus", "split_condition": 0.0789500028, "yes": 1, "no": 2, "missing": 1, "gain": 9.21515465, "cover": 20.5255814, "children": [
    { "nodeid": 1, "leaf": 0.0120646525, "cover": 13.5501566 },
    { "nodeid": 2, "leaf": 0.183431923, "cover": 6.97542381 }
  ]},
  { "nodeid": 0, "depth": 0, "split": "GrasslandHills", "split_condition": 0.0263, "yes": 1, "no": 2, "missing": 1, "gain": 4.09286165, "cover": 20.5762863, "children": [
    { "nodeid": 1, "leaf": -0.0158396736, "cover": 6.31786633 },
    { "nodeid": 2, "leaf": 0.102292173, "cover": 14.25842 }
  ]},
  { "nodeid": 0, "depth": 0, "split": "GrasslandWoods", "split_condition": 0.0789500028, "yes": 1, "no": 2, "missing": 1, "gain": 4.14884281, "cover": 18.7609882, "children": [
    { "nodeid": 1, "leaf": 0.00534038246, "cover": 11.527957 },
    { "nodeid": 2, "leaf": 0.12271788, "cover": 7.2330308 }
  ]},
  { "nodeid": 0, "depth": 0, "split": "DesertHills", "split_condition": 0.0789500028, "yes": 1, "no": 2, "missing": 1, "gain": 8.24119949, "cover": 17.4944954, "children": [
    { "nodeid": 1, "leaf": -0.0895743966, "cover": 14.4532785 },
    { "nodeid": 2, "leaf": 0.113963231, "cover": 3.04121733 }
  ]},
  { "nodeid": 0, "depth": 0, "split": "Lux", "split_condition": 0.0789500028, "yes": 1, "no": 2, "missing": 1, "gain": 6.32355881, "cover": 24.8113632, "children": [
    { "nodeid": 1, "leaf": 0.0174880475, "cover": 14.1136703 },
    { "nodeid": 2, "leaf": 0.143977553, "cover": 10.6976919 }
  ]},
  { "nodeid": 0, "depth": 0, "split": "Grassland", "split_condition": 0.342100024, "yes": 1, "no": 2, "missing": 1, "gain": 6.51150036, "cover": 17.8039017, "children": [
    { "nodeid": 1, "leaf": -0.0183761846, "cover": 12.1622515 },
    { "nodeid": 2, "leaf": 0.135223612, "cover": 5.64164925 }
  ]},
  { "nodeid": 0, "depth": 0, "split": "PlainsMountain", "split_condition": 0.0263, "yes": 1, "no": 2, "missing": 1, "gain": 12.4174919, "cover": 19.1618214, "children": [
    { "nodeid": 1, "leaf": 0.0426274128, "cover": 15.8946447 },
    { "nodeid": 2, "leaf": -0.197499439, "cover": 3.26717567 }
  ]},
  { "nodeid": 0, "depth": 0, "split": "PlainsRainforest", "split_condition": 0.0789500028, "yes": 1, "no": 2, "missing": 1, "gain": 10.8386126, "cover": 16.8851128, "children": [
    { "nodeid": 1, "leaf": -0.0765011534, "cover": 10.9266586 },
    { "nodeid": 2, "leaf": 0.121014945, "cover": 5.95845318 }
  ]},
  { "nodeid": 0, "depth": 0, "split": "Grassland", "split_condition": 0.184200004, "yes": 1, "no": 2, "missing": 1, "gain": 9.30748272, "cover": 20.7048759, "children": [
    { "nodeid": 1, "leaf": 0.109088153, "cover": 11.3717537 },
    { "nodeid": 2, "leaf": -0.053316474, "cover": 9.3331213 }
  ]},
  { "nodeid": 0, "depth": 0, "split": "Lux", "split_condition": 0.0789500028, "yes": 1, "no": 2, "missing": 1, "gain": 7.31658268, "cover": 22.2630348, "children": [
    { "nodeid": 1, "leaf": 0.0960028395, "cover": 16.0715294 },
    { "nodeid": 2, "leaf": -0.0569649525, "cover": 6.19150496 }
  ]},
  { "nodeid": 0, "depth": 0, "split": "GrasslandHills", "split_condition": 0.0263, "yes": 1, "no": 2, "missing": 1, "gain": 4.33898306, "cover": 22.7201576, "children": [
    { "nodeid": 1, "leaf": 0.0740820915, "cover": 11.7043076 },
    { "nodeid": 2, "leaf": -0.031746693, "cover": 11.015851 }
  ]},
  { "nodeid": 0, "depth": 0, "split": "Plains", "split_condition": 0.131600007, "yes": 1, "no": 2, "missing": 1, "gain": 8.61851406, "cover": 17.241951, "children": [
    { "nodeid": 1, "leaf": -0.0825788602, "cover": 7.77475309 },
    { "nodeid": 2, "leaf": 0.0864687115, "cover": 9.46719742 }
  ]},
  { "nodeid": 0, "depth": 0, "split": "Lux", "split_condition": 0.0789500028, "yes": 1, "no": 2, "missing": 1, "gain": 4.84664536, "cover": 13.8729773, "children": [
    { "nodeid": 1, "leaf": -0.0786600485, "cover": 9.57378387 },
    { "nodeid": 2, "leaf": 0.0695714876, "cover": 4.29919338 }
  ]},
  { "nodeid": 0, "depth": 0, "split": "Plains", "split_condition": 0.236850008, "yes": 1, "no": 2, "missing": 1, "gain": 2.97295165, "cover": 15.7468281, "children": [
    { "nodeid": 1, "leaf": 0.0104211736, "cover": 10.9551249 },
    { "nodeid": 2, "leaf": 0.122916915, "cover": 4.7917037 }
  ]},
  { "nodeid": 0, "depth": 0, "split": "PlainsWoods", "split_condition": 0.0263, "yes": 1, "no": 2, "missing": 1, "gain": 2.62418342, "cover": 22.5057659, "children": [
    { "nodeid": 1, "leaf": -0.0133824944, "cover": 12.724865 },
    { "nodeid": 2, "leaf": 0.0700920597, "cover": 9.78090191 }
  ]},
  { "nodeid": 0, "depth": 0, "split": "GrasslandWoods", "split_condition": 0.0789500028, "yes": 1, "no": 2, "missing": 1, "gain": 5.45692968, "cover": 19.2210999, "children": [
    { "nodeid": 1, "leaf": 0.0928522125, "cover": 15.1203041 },
    { "nodeid": 2, "leaf": -0.0592430606, "cover": 4.1007967 }
  ]},
  { "nodeid": 0, "depth": 0, "split": "Lux", "split_condition": 0.0263, "yes": 1, "no": 2, "missing": 1, "gain": 3.19227505, "cover": 17.0282135, "children": [
    { "nodeid": 1, "leaf": -0.0910832211, "cover": 4.01905966 },
    { "nodeid": 2, "leaf": 0.0258394293, "cover": 13.0091534 }
  ]},
  { "nodeid": 0, "depth": 0, "split": "PlainsHillsRainforest", "split_condition": 0.0263, "yes": 1, "no": 2, "missing": 1, "gain": 9.98362637, "cover": 14.834445, "children": [
    { "nodeid": 1, "leaf": 0.0343522392, "cover": 10.4175272 },
    { "nodeid": 2, "leaf": -0.173704743, "cover": 4.41691828 }
  ]},
  { "nodeid": 0, "depth": 0, "split": "GrasslandHillsWoods", "split_condition": 0.0263, "yes": 1, "no": 2, "missing": 1, "gain": 9.68889713, "cover": 24.2153339, "children": [
    { "nodeid": 1, "leaf": -0.0570459329, "cover": 11.1994133 },
    { "nodeid": 2, "leaf": 0.0965615362, "cover": 13.0159206 }
  ]},
  { "nodeid": 0, "depth": 0, "split": "GrasslandHills", "split_condition": 0.0789500028, "yes": 1, "no": 2, "missing": 1, "gain": 6.34016705, "cover": 21.159523, "children": [
    { "nodeid": 1, "leaf": -0.0103692282, "cover": 11.6566658 },
    { "nodeid": 2, "leaf": 0.123542927, "cover": 9.50285721 }
  ]},
  { "nodeid": 0, "depth": 0, "split": "GrasslandMarsh", "split_condition": 0.0263, "yes": 1, "no": 2, "missing": 1, "gain": 5.92728043, "cover": 16.538538, "children": [
    { "nodeid": 1, "leaf": -0.0224750545, "cover": 13.3447952 },
    { "nodeid": 2, "leaf": -0.19605878, "cover": 3.19374275 }
  ]},
  { "nodeid": 0, "depth": 0, "split": "GrasslandHills", "split_condition": 0.0263, "yes": 1, "no": 2, "missing": 1, "gain": 13.8043327, "cover": 21.2933693, "children": [
    { "nodeid": 1, "leaf": -0.0940343961, "cover": 5.27241325 },
    { "nodeid": 2, "leaf": 0.126565501, "cover": 16.020956 }
  ]},
  { "nodeid": 0, "depth": 0, "split": "GrasslandWoods", "split_condition": 0.0263, "yes": 1, "no": 2, "missing": 1, "gain": 5.14783239, "cover": 13.916419, "children": [
    { "nodeid": 1, "leaf": 0.0320272818, "cover": 8.15976906 },
    { "nodeid": 2, "leaf": -0.113513686, "cover": 5.75664997 }
  ]},
  { "nodeid": 0, "depth": 0, "split": "CoastLake", "split_condition": 0.236850008, "yes": 1, "no": 2, "missing": 1, "gain": 4.699018, "cover": 18.5883808, "children": [
    { "nodeid": 1, "leaf": -0.0270381644, "cover": 14.7384806 },
    { "nodeid": 2, "leaf": 0.114587754, "cover": 3.84989977 }
  ]},
  { "nodeid": 0, "depth": 0, "split": "Grassland", "split_condition": 0.342100024, "yes": 1, "no": 2, "missing": 1, "gain": 3.98826742, "cover": 13.6354303, "children": [
    { "nodeid": 1, "leaf": -0.121621795, "cover": 10.3251152 },
    { "nodeid": 2, "leaf": 0.0280902907, "cover": 3.31031537 }
  ]},
  { "nodeid": 0, "depth": 0, "split": "GrasslandMarsh", "split_condition": 0.0263, "yes": 1, "no": 2, "missing": 1, "gain": 4.40657425, "cover": 15.1594362, "children": [
    { "nodeid": 1, "leaf": -0.023892168, "cover": 9.917696 },
    { "nodeid": 2, "leaf": 0.109188892, "cover": 5.24174023 }
  ]},
  { "nodeid": 0, "depth": 0, "split": "GrasslandMountain", "split_condition": 0.0263, "yes": 1, "no": 2, "missing": 1, "gain": 5.73652411, "cover": 14.7639074, "children": [
    { "nodeid": 1, "leaf": -0.109040231, "cover": 7.26469946 },
    { "nodeid": 2, "leaf": 0.0391001701, "cover": 7.49920797 }
  ]},
  { "nodeid": 0, "depth": 0, "split": "Plains", "split_condition": 0.0789500028, "yes": 1, "no": 2, "missing": 1, "gain": 2.64227486, "cover": 17.811285, "children": [
    { "nodeid": 1, "leaf": -0.0353673398, "cover": 7.28260517 },
    { "nodeid": 2, "leaf": 0.058174409, "cover": 10.5286789 }
  ]},
  { "nodeid": 0, "depth": 0, "split": "Grassland", "split_condition": 0.184200004, "yes": 1, "no": 2, "missing": 1, "gain": 7.61583519, "cover": 20.4591064, "children": [
    { "nodeid": 1, "leaf": 0.128318012, "cover": 14.114028 },
    { "nodeid": 2, "leaf": -0.031657204, "cover": 6.34507942 }
  ]},
  { "nodeid": 0, "depth": 0, "split": "Lux", "split_condition": 0.0263, "yes": 1, "no": 2, "missing": 1, "gain": 4.94256496, "cover": 20.5847225, "children": [
    { "nodeid": 1, "leaf": -0.0411731228, "cover": 6.17051888 },
    { "nodeid": 2, "leaf": 0.0870150179, "cover": 14.4142046 }
  ]},
  { "nodeid": 0, "depth": 0, "split": "PlainsRainforest", "split_condition": 0.0263, "yes": 1, "no": 2, "missing": 1, "gain": 7.92086983, "cover": 20.3829212, "children": [
    { "nodeid": 1, "leaf": -0.0438540466, "cover": 8.00068569 },
    { "nodeid": 2, "leaf": 0.11020232, "cover": 12.3822355 }
  ]},
  { "nodeid": 0, "depth": 0, "split": "Plains", "split_condition": 0.0263, "yes": 1, "no": 2, "missing": 1, "gain": 8.57908726, "cover": 16.5330238, "children": [
    { "nodeid": 1, "leaf": 0.0762549564, "cover": 8.62635231 },
    { "nodeid": 2, "leaf": -0.0950304344, "cover": 7.90667248 }
  ]},
  { "nodeid": 0, "depth": 0, "split": "Stone", "split_condition": 0.0263, "yes": 1, "no": 2, "missing": 1, "gain": 6.97578001, "cover": 20.3395061, "children": [
    { "nodeid": 1, "leaf": 0.104230203, "cover": 16.2939224 },
    { "nodeid": 2, "leaf": -0.0672245547, "cover": 4.04558468 }
  ]},
  { "nodeid": 0, "depth": 0, "split": "GrasslandHills", "split_condition": 0.0789500028, "yes": 1, "no": 2, "missing": 1, "gain": 6.89859629, "cover": 20.573225, "children": [
    { "nodeid": 1, "leaf": -0.0489004552, "cover": 11.3210468 },
    { "nodeid": 2, "leaf": 0.0908781812, "cover": 9.25217724 }
  ]},
  { "nodeid": 0, "depth": 0, "split": "GrasslandHills", "split_condition": 0.0789500028, "yes": 1, "no": 2, "missing": 1, "gain": 8.57724953, "cover": 18.7922058, "children": [
    { "nodeid": 1, "leaf": 0.0658975095, "cover": 12.5943775 },
    { "nodeid": 2, "leaf": -0.103919819, "cover": 6.19782782 }
  ]},
  { "nodeid": 0, "depth": 0, "split": "CoastLake", "split_condition": 0.0789500028, "yes": 1, "no": 2, "missing": 1, "gain": 8.99126434, "cover": 17.0202045, "children": [
    { "nodeid": 1, "leaf": 0.0540358387, "cover": 12.7185163 },
    { "nodeid": 2, "leaf": -0.138810113, "cover": 4.30168867 }
  ]},
  { "nodeid": 0, "depth": 0, "split": "GrasslandMarsh", "split_condition": 0.0263, "yes": 1, "no": 2, "missing": 1, "gain": 4.45166683, "cover": 18.8990059, "children": [
    { "nodeid": 1, "leaf": -0.0213308726, "cover": 12.4061403 },
    { "nodeid": 2, "leaf": 0.100146405, "cover": 6.49286509 }
  ]},
  { "nodeid": 0, "depth": 0, "split": "CoastLake", "split_condition": 0.0789500028, "yes": 1, "no": 2, "missing": 1, "gain": 3.5555954, "cover": 16.0888309, "children": [
    { "nodeid": 1, "leaf": -0.0718833953, "cover": 11.0283337 },
    { "nodeid": 2, "leaf": 0.047373794, "cover": 5.06049776 }
  ]},
  { "nodeid": 0, "depth": 0, "split": "GrasslandWoods", "split_condition": 0.0263, "yes": 1, "no": 2, "missing": 1, "gain": 7.37435675, "cover": 14.368968, "children": [
    { "nodeid": 1, "leaf": 0.0723290518, "cover": 7.77125025 },
    { "nodeid": 2, "leaf": -0.096960783, "cover": 6.59771776 }
  ]},
  { "nodeid": 0, "depth": 0, "split": "Plains", "split_condition": 0.342100024, "yes": 1, "no": 2, "missing": 1, "gain": 7.11494303, "cover": 12.6921368, "children": [
    { "nodeid": 1, "leaf": -0.0678513944, "cover": 9.21124458 },
    { "nodeid": 2, "leaf": 0.122326694, "cover": 3.48089266 }
  ]},
  { "nodeid": 0, "depth": 0, "split": "PlainsRainforest", "split_condition": 0.236850008, "yes": 1, "no": 2, "missing": 1, "gain": 6.19500494, "cover": 19.016077, "children": [
    { "nodeid": 1, "leaf": -0.0300120376, "cover": 15.861146 },
    { "nodeid": 2, "leaf": 0.141446635, "cover": 3.15493011 }
  ]},
  { "nodeid": 0, "depth": 0, "split": "GrasslandHills", "split_condition": 0.0789500028, "yes": 1, "no": 2, "missing": 1, "gain": 3.91967702, "cover": 18.7841988, "children": [
    { "nodeid": 1, "leaf": 0.0450744294, "cover": 13.9772568 },
    { "nodeid": 2, "leaf": -0.0767690614, "cover": 4.80694342 }
  ]},
  { "nodeid": 0, "depth": 0, "split": "Lux", "split_condition": 0.0789500028, "yes": 1, "no": 2, "missing": 1, "gain": 4.60612154, "cover": 20.4300461, "children": [
    { "nodeid": 1, "leaf": 0.0897322744, "cover": 16.4002666 },
    { "nodeid": 2, "leaf": -0.0502116457, "cover": 4.02977943 }
  ]},
  { "nodeid": 0, "depth": 0, "split": "GrasslandHillsWoods", "split_condition": 0.0263, "yes": 1, "no": 2, "missing": 1, "gain": 5.59823227, "cover": 17.2786503, "children": [
    { "nodeid": 1, "leaf": -0.0612170063, "cover": 9.04053211 },
    { "nodeid": 2, "leaf": 0.074453041, "cover": 8.23811913 }
  ]},
  { "nodeid": 0, "depth": 0, "split": "GrasslandMarsh", "split_condition": 0.0263, "yes": 1, "no": 2, "missing": 1, "gain": 7.69345427, "cover": 16.9900875, "children": [
    { "nodeid": 1, "leaf": -0.0450668, "cover": 10.3317471 },
    { "nodeid": 2, "leaf": 0.118418969, "cover": 6.65834045 }
  ]},
  { "nodeid": 0, "depth": 0, "split": "GrasslandMountain", "split_condition": 0.0263, "yes": 1, "no": 2, "missing": 1, "gain": 10.2245102, "cover": 18.7659359, "children": [
    { "nodeid": 1, "leaf": 0.11853049, "cover": 14.4191608 },
    { "nodeid": 2, "leaf": -0.0861160085, "cover": 4.34677458 }
  ]},
  { "nodeid": 0, "depth": 0, "split": "CoastLake", "split_condition": 0.236850008, "yes": 1, "no": 2, "missing": 1, "gain": 9.73167706, "cover": 15.1216326, "children": [
    { "nodeid": 1, "leaf": -0.0232225377, "cover": 12.1190443 },
    { "nodeid": 2, "leaf": 0.201465935, "cover": 3.00258827 }
  ]},
  { "nodeid": 0, "depth": 0, "split": "GrasslandWoods", "split_condition": 0.0263, "yes": 1, "no": 2, "missing": 1, "gain": 6.86793518, "cover": 18.7701302, "children": [
    { "nodeid": 1, "leaf": -0.0826961026, "cover": 7.73871469 },
    { "nodeid": 2, "leaf": 0.0637957528, "cover": 11.031414 }
  ]},
  { "nodeid": 0, "depth": 0, "split": "PlainsHillsRainforest", "split_condition": 0.0263, "yes": 1, "no": 2, "missing": 1, "gain": 2.61753678, "cover": 17.5989571, "children": [
    { "nodeid": 1, "leaf": -0.0465085208, "cover": 10.5201359 },
    { "nodeid": 2, "leaf": 0.0469385386, "cover": 7.07882166 }
  ]},
  { "nodeid": 0, "depth": 0, "split": "Plains", "split_condition": 0.394749999, "yes": 1, "no": 2, "missing": 1, "gain": 11.7556458, "cover": 16.5372906, "children": [
    { "nodeid": 1, "leaf": -0.108101808, "cover": 13.249485 },
    { "nodeid": 2, "leaf": 0.131278336, "cover": 3.28780508 }
  ]},
  { "nodeid": 0, "depth": 0, "split": "PlainsRainforest", "split_condition": 0.184200004, "yes": 1, "no": 2, "missing": 1, "gain": 5.18922281, "cover": 15.4791718, "children": [
    { "nodeid": 1, "leaf": -0.0603668801, "cover": 11.1634579 },
    { "nodeid": 2, "leaf": 0.0888046622, "cover": 4.31571341 }
  ]},
  { "nodeid": 0, "depth": 0, "split": "GrasslandMarsh", "split_condition": 0.0263, "yes": 1, "no": 2, "missing": 1, "gain": 6.64642143, "cover": 18.7854481, "children": [
    { "nodeid": 1, "leaf": 0.070082739, "cover": 12.1185074 },
    { "nodeid": 2, "leaf": -0.0774893537, "cover": 6.66694117 }
  ]},
  { "nodeid": 0, "depth": 0, "split": "Horses", "split_condition": 0.0263, "yes": 1, "no": 2, "missing": 1, "gain": 9.10457516, "cover": 16.71978, "children": [
    { "nodeid": 1, "leaf": -0.060686931, "cover": 13.3348761 },
    { "nodeid": 2, "leaf": 0.146513879, "cover": 3.38490319 }
  ]},
  { "nodeid": 0, "depth": 0, "split": "Rice", "split_condition": 0.0263, "yes": 1, "no": 2, "missing": 1, "gain": 7.03373337, "cover": 17.0109196, "children": [
    { "nodeid": 1, "leaf": -0.00205729762, "cover": 12.5639496 },
    { "nodeid": 2, "leaf": 0.168891683, "cover": 4.44697046 }
  ]},
  { "nodeid": 0, "depth": 0, "split": "Plains", "split_condition": 0.289499998, "yes": 1, "no": 2, "missing": 1, "gain": 7.67839956, "cover": 21.0344772, "children": [
    { "nodeid": 1, "leaf": 0.0971136019, "cover": 17.5082169 },
    { "nodeid": 2, "leaf": -0.0884927809, "cover": 3.5262599 }
  ]},
  { "nodeid": 0, "depth": 0, "split": "PlainsMountain", "split_condition": 0.0263, "yes": 1, "no": 2, "missing": 1, "gain": 13.3631678, "cover": 16.1824284, "children": [
    { "nodeid": 1, "leaf": -0.0726481751, "cover": 10.6563292 },
    { "nodeid": 2, "leaf": 0.152151793, "cover": 5.52609873 }
  ]},
  { "nodeid": 0, "depth": 0, "split": "OtherBonus", "split_condition": 0.0789500028, "yes": 1, "no": 2, "missing": 1, "gain": 8.59960556, "cover": 15.8463602, "children": [
    { "nodeid": 1, "leaf": -0.114056118, "cover": 10.7516651 },
    { "nodeid": 2, "leaf": 0.0718625337, "cover": 5.09469509 }
  ]},
  { "nodeid": 0, "depth": 0, "split": "PlainsRainforest", "split_condition": 0.0789500028, "yes": 1, "no": 2, "missing": 1, "gain": 3.06104994, "cover": 15.6032639, "children": [
    { "nodeid": 1, "leaf": 0.0350725986, "cover": 9.79782677 },
    { "nodeid": 2, "leaf": -0.072671771, "cover": 5.80543709 }
  ]},
  { "nodeid": 0, "depth": 0, "split": "OtherBonus", "split_condition": 0.0789500028, "yes": 1, "no": 2, "missing": 1, "gain": 8.18075752, "cover": 19.4994698, "children": [
    { "nodeid": 1, "leaf": -0.0644378364, "cover": 11.9305305 },
    { "nodeid": 2, "leaf": 0.0940131396, "cover": 7.56893921 }
  ]},
  { "nodeid": 0, "depth": 0, "split": "GrasslandWoods", "split_condition": 0.0789500028, "yes": 1, "no": 2, "missing": 1, "gain": 1.14842129, "cover": 7.93724537, "children": [
    { "nodeid": 1, "leaf": -0.170943469, "cover": 4.44535255 },
    { "nodeid": 2, "leaf": -0.0539924838, "cover": 3.49189281 }
  ]},
  { "nodeid": 0, "depth": 0, "split": "OtherBonus", "split_condition": 0.0789500028, "yes": 1, "no": 2, "missing": 1, "gain": 6.41451359, "cover": 18.0287971, "children": [
    { "nodeid": 1, "leaf": 0.0879240409, "cover": 12.9551039 },
    { "nodeid": 2, "leaf": -0.068227537, "cover": 5.07369375 }
  ]},
  { "nodeid": 0, "depth": 0, "split": "Plains", "split_condition": 0.131600007, "yes": 1, "no": 2, "missing": 1, "gain": 4.43392467, "cover": 18.5879402, "children": [
    { "nodeid": 1, "leaf": 0.068089202, "cover": 11.8058996 },
    { "nodeid": 2, "leaf": -0.0527288541, "cover": 6.78203917 }
  ]},
  { "nodeid": 0, "depth": 0, "split": "Rice", "split_condition": 0.0263, "yes": 1, "no": 2, "missing": 1, "gain": 3.66780806, "cover": 16.6490898, "children": [
    { "nodeid": 1, "leaf": -0.00476943795, "cover": 11.5553722 },
    { "nodeid": 2, "leaf": 0.115426034, "cover": 5.09371805 }
  ]},
  { "nodeid": 0, "depth": 0, "split": "Horses", "split_condition": 0.0263, "yes": 1, "no": 2, "missing": 1, "gain": 7.8206768, "cover": 17.9917679, "children": [
    { "nodeid": 1, "leaf": -0.024292659, "cover": 14.781189 },
    { "nodeid": 2, "leaf": 0.168839931, "cover": 3.21057916 }
  ]},
  { "nodeid": 0, "depth": 0, "split": "cityHasRiver", "split_condition": 1, "yes": 1, "no": 2, "missing": 1, "gain": 3.36585975, "cover": 19.3774719, "children": [
    { "nodeid": 1, "leaf": -0.0549355149, "cover": 3.02078962 },
    { "nodeid": 2, "leaf": 0.0760478154, "cover": 16.3566818 }
  ]},
  { "nodeid": 0, "depth": 0, "split": "GrasslandWoods", "split_condition": 0.0789500028, "yes": 1, "no": 2, "missing": 1, "gain": 10.4323215, "cover": 18.9899063, "children": [
    { "nodeid": 1, "leaf": -0.0234407205, "cover": 11.4644022 },
    { "nodeid": 2, "leaf": 0.158548594, "cover": 7.52550316 }
  ]},
  { "nodeid": 0, "depth": 0, "split": "Grassland", "split_condition": 0.0263, "yes": 1, "no": 2, "missing": 1, "gain": 5.10638189, "cover": 18.6805973, "children": [
    { "nodeid": 1, "leaf": -0.0315159857, "cover": 5.98408127 },
    { "nodeid": 2, "leaf": 0.103472821, "cover": 12.696516 }
  ]},
  { "nodeid": 0, "depth": 0, "split": "CoastLake", "split_condition": 0.131600007, "yes": 1, "no": 2, "missing": 1, "gain": 7.97860909, "cover": 20.5519657, "children": [
    { "nodeid": 1, "leaf": 0.0576587766, "cover": 16.3092079 },
    { "nodeid": 2, "leaf": -0.119628184, "cover": 4.24275684 }
  ]},
  { "nodeid": 0, "depth": 0, "split": "Grassland", "split_condition": 0.447399974, "yes": 1, "no": 2, "missing": 1, "gain": 4.46499205, "cover": 18.5614929, "children": [
    { "nodeid": 1, "leaf": -0.0437508859, "cover": 14.7075396 },
    { "nodeid": 2, "leaf": 0.0943796784, "cover": 3.85395288 }
  ]},
  { "nodeid": 0, "depth": 0, "split": "Stone", "split_condition": 0.0263, "yes": 1, "no": 2, "missing": 1, "gain": 7.69233418, "cover": 23.4894505, "children": [
    { "nodeid": 1, "leaf": -0.0343858935, "cover": 12.7624617 },
    { "nodeid": 2, "leaf": 0.104752079, "cover": 10.7269888 }
  ]},
  { "nodeid": 0, "depth": 0, "split": "Plains", "split_condition": 0.0263, "yes": 1, "no": 2, "missing": 1, "gain": 5.26198244, "cover": 15.908144, "children": [
    { "nodeid": 1, "leaf": -0.10997647, "cover": 4.2905941 },
    { "nodeid": 2, "leaf": 0.0394659638, "cover": 11.6175499 }
  ]},
  { "nodeid": 0, "depth": 0, "split": "PlainsRainforest", "split_condition": 0.0789500028, "yes": 1, "no": 2, "missing": 1, "gain": 4.70922375, "cover": 13.7529125, "children": [
    { "nodeid": 1, "leaf": 0.00146281125, "cover": 9.81628513 },
    { "nodeid": 2, "leaf": -0.148974225, "cover": 3.93662739 }
  ]},
  { "nodeid": 0, "depth": 0, "split": "Desert", "split_condition": 0.0263, "yes": 1, "no": 2, "missing": 1, "gain": 4.87810421, "cover": 17.9182816, "children": [
    { "nodeid": 1, "leaf": -0.0212538298, "cover": 12.7234688 },
    { "nodeid": 2, "leaf": 0.113587335, "cover": 5.19481373 }
  ]},
  { "nodeid": 0, "depth": 0, "split": "PlainsRainforest", "split_condition": 0.0263, "yes": 1, "no": 2, "missing": 1, "gain": 6.02215528, "cover": 15.7000637, "children": [
    { "nodeid": 1, "leaf": -0.120128296, "cover": 5.8098712 },
    { "nodeid": 2, "leaf": 0.0312563814, "cover": 9.89019299 }
  ]},
  { "nodeid": 0, "depth": 0, "split": "PlainsWoods", "split_condition": 0.0263, "yes": 1, "no": 2, "missing": 1, "gain": 5.9513607, "cover": 19.3708286, "children": [
    { "nodeid": 1, "leaf": -0.00597225782, "cover": 8.28954983 },
    { "nodeid": 2, "leaf": 0.131707191, "cover": 11.0812788 }
  ]},
  { "nodeid": 0, "depth": 0, "split": "PlainsHillsRainforest", "split_condition": 0.0263, "yes": 1, "no": 2, "missing": 1, "gain": 7.54889011, "cover": 18.7060642, "children": [
    { "nodeid": 1, "leaf": -0.0447409786, "cover": 9.58505344 },
    { "nodeid": 2, "leaf": 0.107761018, "cover": 9.12101173 }
  ]},
  { "nodeid": 0, "depth": 0, "split": "CoastLake", "split_condition": 0.0789500028, "yes": 1, "no": 2, "missing": 1, "gain": 7.61985445, "cover": 19.1866646, "children": [
    { "nodeid": 1, "leaf": -0.0207286384, "cover": 13.6897898 },
    { "nodeid": 2, "leaf": 0.143462807, "cover": 5.49687433 }
  ]},
  { "nodeid": 0, "depth": 0, "split": "CoastLake", "split_condition": 0.0789500028, "yes": 1, "no": 2, "missing": 1, "gain": 9.43327522, "cover": 18.767662, "children": [
    { "nodeid": 1, "leaf": -0.0506350547, "cover": 11.1298733 },
    { "nodeid": 2, "leaf": 0.121600226, "cover": 7.63778782 }
  ]},
  { "nodeid": 0, "depth": 0, "split": "GrasslandWoods", "split_condition": 0.131600007, "yes": 1, "no": 2, "missing": 1, "gain": 8.98667431, "cover": 17.3742332, "children": [
    { "nodeid": 1, "leaf": -0.0552655309, "cover": 13.6046543 },
    { "nodeid": 2, "leaf": 0.143592581, "cover": 3.76957965 }
  ]},
  { "nodeid": 0, "depth": 0, "split": "Wheat", "split_condition": 0.0263, "yes": 1, "no": 2, "missing": 1, "gain": 6.2104187, "cover": 15.5563202, "children": [
    { "nodeid": 1, "leaf": 0.0238781627, "cover": 12.2993689 },
    { "nodeid": 2, "leaf": -0.150972754, "cover": 3.25695062 }
  ]},
  { "nodeid": 0, "depth": 0, "split": "Lux", "split_condition": 0.0789500028, "yes": 1, "no": 2, "missing": 1, "gain": 10.116993, "cover": 15.3016157, "children": [
    { "nodeid": 1, "leaf": -0.107360385, "cover": 8.08966255 },
    { "nodeid": 2, "leaf": 0.0853866786, "cover": 7.21195316 }
  ]},
  { "nodeid": 0, "depth": 0, "split": "Grassland", "split_condition": 0.447399974, "yes": 1, "no": 2, "missing": 1, "gain": 1.95750856, "cover": 21.5786095, "children": [
    { "nodeid": 1, "leaf": 0.0291390866, "cover": 15.4513168 },
    { "nodeid": 2, "leaf": 0.111852288, "cover": 6.12729311 }
  ]},
  { "nodeid": 0, "depth": 0, "split": "Grassland", "split_condition": 0.342100024, "yes": 1, "no": 2, "missing": 1, "gain": 10.7394533, "cover": 13.8745775, "children": [
    { "nodeid": 1, "leaf": -0.0946005955, "cover": 7.74412346 },
    { "nodeid": 2, "leaf": 0.113359712, "cover": 6.13045454 }
  ]},
  { "nodeid": 0, "depth": 0, "split": "Grassland", "split_condition": 0.289499998, "yes": 1, "no": 2, "missing": 1, "gain": 7.37509584, "cover": 16.4897957, "children": [
    { "nodeid": 1, "leaf": 0.0806149766, "cover": 13.2093401 },
    { "nodeid": 2, "leaf": -0.10884326, "cover": 3.28045559 }
  ]},
  { "nodeid": 0, "depth": 0, "split": "PlainsWoods", "split_condition": 0.0789500028, "yes": 1, "no": 2, "missing": 1, "gain": 11.5807228, "cover": 19.1447964, "children": [
    { "nodeid": 1, "leaf": -0.0560125448, "cover": 14.3591814 },
    { "nodeid": 2, "leaf": 0.152756184, "cover": 4.78561401 }
  ]},
  { "nodeid": 0, "depth": 0, "split": "Wheat", "split_condition": 0.0263, "yes": 1, "no": 2, "missing": 1, "gain": 9.64151382, "cover": 18.4894314, "children": [
    { "nodeid": 1, "leaf": -0.0249389987, "cover": 13.5860643 },
    { "nodeid": 2, "leaf": 0.166145384, "cover": 4.90336752 }
  ]},
  { "nodeid": 0, "depth": 0, "split": "Plains", "split_condition": 0.289499998, "yes": 1, "no": 2, "missing": 1, "gain": 3.90109682, "cover": 20.6534557, "children": [
    { "nodeid": 1, "leaf": 0.0565139018, "cover": 16.8135281 },
    { "nodeid": 2, "leaf": -0.0717245415, "cover": 3.83992743 }
  ]},
  { "nodeid": 0, "depth": 0, "split": "GrasslandHills", "split_condition": 0.0789500028, "yes": 1, "no": 2, "missing": 1, "gain": 7.63840866, "cover": 16.5112591, "children": [
    { "nodeid": 1, "leaf": -0.0991613492, "cover": 8.2864399 },
    { "nodeid": 2, "leaf": 0.0626540706, "cover": 8.22481823 }
  ]}
]